{"model_data": {"model": "SimpleRNN", "input_size": 3, "skip": 1, "output_size": 1, "unit_type": "LSTM", "num_layers": 1, "hidden_size": 40, "bias_fl": true}, "state_dict": {"rec.weight_ih_l0": [[0.029210826382040977, 0.022031517699360847, -0.0812695324420929], [-0.030706249177455902, 0.05136675387620926, 0.08873087912797928], [-0.00023998839606065303, -0.0006149510736577213, -0.000316233083140105], [0.01689445972442627, 0.12934580445289612, 0.23726215958595276], [0.021496789529919624, 0.3275812566280365, 0.22697654366493225], [-0.0006158753531053662, -0.0003647688135970384, -0.0007851223926991224], [0.004956867545843124, 0.05675433576107025, 0.0658554881811142], [-0.00018212110444437712, -0.00027342201792635024, -0.00012358576350379735], [-0.0006049193325452507, -0.00040394047391600907, -0.0006527517107315361], [0.0005180428852327168, 0.04470997303724289, 0.05078780651092529], [0.019961506128311157, -0.05714844539761543, 0.5514131188392639], [-0.0054610781371593475, -0.26048707962036133, -0.16671009361743927], [0.008077089674770832, 0.023491449654102325, 0.05711952969431877], [0.004502327647060156, 0.04574308916926384, 0.0521773062646389], [-0.0001485178217990324, -0.00016618086374364793, -2.823951763275545e-05], [-0.00030031660571694374, -0.0001355868298560381, -0.00012324679119046777], [-0.06538442522287369, 0.20079205930233002, 0.19390195608139038], [-0.0171810332685709, -0.2860463261604309, -0.4250178039073944], [-4.764833647641353e-05, 8.977913239505142e-06, 8.158716809703037e-05], [-9.598985343473032e-05, 5.710762707167305e-05, 8.547959441784769e-05], [0.0095485495403409, 0.05548586696386337, 0.07066509872674942], [0.005042511969804764, 0.04131557047367096, 0.05206027254462242], [0.030918395146727562, 0.30758607387542725, 0.21816743910312653], [-0.018985306844115257, 0.15796035528182983, 0.15099549293518066], [-0.0004236757813487202, -0.0007713661179877818, -0.0006268861470744014], [-0.005435471888631582, 0.05981949716806412, 0.04450564831495285], [-0.0001377394946757704, 0.00010243052383884788, 0.00017563962319400162], [0.1565021276473999, -0.21590855717658997, -0.03322746977210045], [0.009426940232515335, 0.02153060771524906, 0.049002960324287415], [-0.0005171421798877418, -0.00034641282400116324, -0.0006057308637537062], [0.07012533396482468, 0.15941256284713745, 0.2475651502609253], [0.023199552670121193, 0.04628118872642517, 0.05658470094203949], [-0.036399003118276596, 0.27364569902420044, 0.19318975508213043], [-0.03066922537982464, 0.2705152928829193, 0.15514199435710907], [0.04288816452026367, 0.6646279096603394, 0.0943266898393631], [-0.0005743392976000905, -0.0003343743155710399, -0.0005536576500162482], [-0.005172914359718561, 0.07185260206460953, 0.019521908834576607], [-8.662410982651636e-05, 0.22938650846481323, 0.15995265543460846], [-0.014878815039992332, 0.03244631364941597, 0.053616203367710114], [-0.0003407637414056808, 0.0007534567266702652, 0.0011678495211526752], [0.03264709562063217, 0.07875238358974457, -0.037031140178442], [-0.060527052730321884, 0.09884177893400192, 0.15967926383018494], [-0.0002495318476576358, -0.0005140093853697181, -0.000299987499602139], [0.0035415503662079573, -0.05766378343105316, -0.1431427299976349], [0.04834408685564995, -0.13396739959716797, -0.19605131447315216], [-0.000611889932770282, -0.00048297265311703086, -0.0008732628193683922], [0.007449138909578323, 0.08741489797830582, 0.09510339796543121], [-0.0001643188443267718, -0.00025073657161556184, -9.818814578466117e-05], [-0.0006112654809840024, -0.0005125234019942582, -0.0007782960892654955], [-0.002434798516333103, 0.09753245860338211, 0.10492319613695145], [0.004103582352399826, 0.024120889604091644, -0.3066557049751282], [-0.04386343061923981, 0.3134429156780243, 0.29831695556640625], [0.0271635539829731, 0.0664343535900116, 0.13383255898952484], [0.0018285027472302318, 0.10644986480474472, 0.11684433370828629], [-0.00013191485777497292, -0.00014360115164890885, -1.0270551683788653e-05], [-0.00029612332582473755, -0.0001575112110003829, -0.00013825841597281396], [0.0241704061627388, -0.013645291328430176, -0.06998288631439209], [0.00765032647177577, 0.10924910753965378, 0.16647355258464813], [-4.7959045332390815e-05, -2.188022517657373e-05, 4.81460738228634e-05], [-9.754842903930694e-05, 2.2907233869773336e-05, 4.7403496864717454e-05], [0.00489935465157032, 0.11996026337146759, 0.13284505903720856], [0.003667351556941867, 0.10227277129888535, 0.12082573771476746], [-0.05871040001511574, 0.0011663238983601332, -0.11675774306058884], [-0.08726530522108078, -0.1333448886871338, 0.0259422417730093], [-0.00043341994751244783, -0.0006361875566653907, -0.0005628281505778432], [-0.0017705976497381926, 0.17031970620155334, 0.11988789588212967], [-0.00011704693315550685, 0.00017795375606510788, 0.0002090948255499825], [0.026237744837999344, 0.3587097227573395, 0.16055649518966675], [0.059496358036994934, 0.18455106019973755, 0.021822819486260414], [-0.0005303944344632328, -0.0004722829326055944, -0.0007324253092519939], [0.07355611771345139, -0.002612869720906019, -0.07849764823913574], [0.004615592770278454, 0.09863617271184921, 0.11531582474708557], [0.02176038734614849, -0.018788998946547508, -0.14579713344573975], [-0.03427110239863396, -0.14774200320243835, -0.11190926283597946], [-0.020026560872793198, 0.1297191083431244, -0.10747724771499634], [-0.0005777286714874208, -0.0004657923127524555, -0.0006692797178402543], [-0.044240497052669525, -0.09506521373987198, 0.05618957802653313], [0.09739526361227036, 0.01366689708083868, -0.16162297129631042], [-0.027529273182153702, 0.12545736134052277, 0.1331501454114914], [-0.00020995267550460994, 0.0012080422602593899, 0.0014289839891716838], [0.00609951326623559, 0.12989442050457, -0.20376655459403992], [0.005016682203859091, 0.016010360792279243, -0.2725754678249359], [0.002155965194106102, -0.008060150779783726, -0.003735871985554695], [0.3433610200881958, 0.016765009611845016, -0.06179805472493172], [0.37831535935401917, -0.017925407737493515, 0.07174345850944519], [0.0018623549258336425, 0.0018690952565521002, 0.0035552172921597958], [0.0012962797190994024, 0.029330076649785042, 0.07133227586746216], [-0.0014412685995921493, 0.0032081264071166515, 0.003691070480272174], [0.0018805754370987415, 0.004572296980768442, 0.0008805184043012559], [-0.002446167403832078, 0.0692351907491684, 0.08132202178239822], [0.08017652481794357, -0.06435223668813705, -0.1638716757297516], [-0.18648523092269897, 0.0037004309706389904, 0.0027206323575228453], [-0.02131657674908638, -0.026092100888490677, -0.2743228077888489], [0.003265963401645422, 0.07099343836307526, 0.08044900745153427], [-0.00022568526037503034, -0.004320040345191956, -0.007439683191478252], [0.00287455297075212, -0.0012128653470426798, -0.0012201977660879493], [-0.06790726631879807, -0.16002023220062256, 0.22950926423072815], [-0.11946475505828857, -0.045545320957899094, -0.03165651112794876], [-0.0008574346429668367, 0.0035585558507591486, -0.0014772829599678516], [0.0008596782572567463, -0.0025314807426184416, 0.0012327198637649417], [-0.10032772272825241, 0.005548710469156504, -0.18926438689231873], [-0.005534709431231022, -0.0630866065621376, -0.07915191352367401], [-0.1342349499464035, -0.42398500442504883, -0.05301550775766373], [-0.018133169040083885, 0.05816621705889702, -0.23431575298309326], [0.00015011044160928577, -0.011012173257768154, 0.005352144129574299], [0.07004791498184204, 0.5659671425819397, 0.16535650193691254], [-0.0003301260294392705, -0.010909654200077057, -0.009969422593712807], [-0.41614192724227905, -0.018352031707763672, -0.01584029756486416], [-0.6735392212867737, -0.15260285139083862, 0.028628697618842125], [0.002690386027097702, 0.003756121965125203, 0.0018916437402367592], [0.0462840236723423, -0.3932327926158905, 0.15031196177005768], [0.2368057370185852, -0.4102429449558258, -0.002823321847245097], [0.04558655619621277, -0.39017483592033386, 0.00996239110827446], [0.07916843891143799, 0.07108509540557861, 0.16420578956604004], [-1.698236346244812, 0.2363089621067047, -0.055496130138635635], [0.0013550898293033242, 0.003929726779460907, 0.003283941652625799], [0.055124472826719284, -0.006537691690027714, 0.012700367718935013], [1.1093636751174927, 0.058177266269922256, -0.11173509061336517], [-0.06559008359909058, -0.14263732731342316, -0.5218862891197205], [0.0020834370516240597, -0.023573871701955795, -0.023833559826016426], [-0.0023648652713745832, -0.004451180342584848, -0.0889887586236], [0.030344283208251, 0.06814268231391907, 0.18323878943920135], [-0.00010028129327110946, -0.0006226506666280329, -0.00032259614090435207], [0.020231902599334717, 0.13257698714733124, 0.24014125764369965], [0.021919867023825645, 0.33663874864578247, 0.24785220623016357], [-0.0003143213107250631, -0.00036770536098629236, -0.0007908741827122867], [0.01524970680475235, 0.0855160802602768, 0.09515811502933502], [-0.0002739398623816669, -0.00027430514455772936, -0.00012234521273057908], [-0.0003023573663085699, -0.00040692766197025776, -0.000655675190500915], [-0.0044559272937476635, 0.1614452302455902, 0.15133076906204224], [0.04539404809474945, -0.11129360646009445, 0.376697838306427], [0.022316627204418182, 0.058352407068014145, 0.09472253173589706], [0.002553093945607543, 0.10159140080213547, 0.202249214053154], [-0.006103300955146551, 0.1777612417936325, 0.18334898352622986], [-0.0003405040188226849, -0.00017060418031178415, -2.831877463904675e-05], [-0.0003289284068159759, -0.00013626452710013837, -0.00012195593444630504], [-0.06537975370883942, 0.16505780816078186, 0.22399096190929413], [0.015603111125528812, 0.002210852224379778, -0.14476509392261505], [-0.00013668049359694123, 7.96127824287396e-06, 8.110335329547524e-05], [-0.00017129672050941736, 5.6382112234132364e-05, 8.513952343491837e-05], [-0.0016476277960464358, 0.091527558863163, 0.11713403463363647], [-0.015040437690913677, 0.17341488599777222, 0.19700956344604492], [0.04417356103658676, 0.3234252333641052, 0.20469623804092407], [-0.05208500102162361, 0.10559195280075073, 0.12792345881462097], [-0.0002545495517551899, -0.0007798918522894382, -0.0006293500191532075], [-0.01147390902042389, 0.18279236555099487, 0.18487103283405304], [-0.00047362351324409246, 8.229610830312595e-05, 0.0001684190792730078], [0.13230293989181519, 0.21276460587978363, 0.1538575440645218], [0.06489894539117813, 0.1546056717634201, 0.1374349445104599], [-0.00023007031995803118, -0.0003484204353298992, -0.0006083176704123616], [0.11779454350471497, 0.08337198197841644, 0.2521533668041229], [0.1499500870704651, 0.12100546807050705, 0.11747580021619797], [-0.07063963264226913, 0.2683278024196625, 0.15543782711029053], [-0.03380994871258736, 0.281870037317276, 0.04386157914996147], [0.03358742222189903, 0.5261821150779724, 0.1843070685863495], [-0.00031044750357978046, -0.0003403465379960835, -0.0005586844054050744], [-0.05029670149087906, 0.10518373548984528, 0.060282401740550995], [-0.005281816236674786, 0.23921199142932892, 0.17913690209388733], [0.03456077352166176, 0.09291734546422958, 0.0863172635436058], [-0.0006601348868571222, 0.0007834257557988167, 0.0011938185198232532]], "rec.weight_hh_l0": [[0.038776516914367676, 0.04941011220216751, -0.0048302472569048405, 0.03551585599780083, -0.006173521745949984, 0.0033979308791458607, 0.008289349265396595, 0.0019581306260079145, 0.0036746973637491465, 0.051869601011276245, -0.010481727309525013, 0.0016165014822036028, 0.16801460087299347, 0.08098895847797394, -0.003095031250268221, -0.0006599087500944734, 0.17524613440036774, 0.06997235119342804, 0.0010721280705183744, -0.0007692333310842514, 0.04768595099449158, -0.08662263303995132, -0.033336494117975235, 0.027354396879673004, -0.0037531147245317698, -0.010821657255291939, -0.005463919136673212, 0.005048714578151703, -0.01004207506775856, 0.003504948690533638, 0.02781612239778042, 0.020482618361711502, -0.011829454451799393, -0.0754787027835846, -0.062350474298000336, 0.003336942056193948, -0.046211764216423035, 0.022015832364559174, 0.08802639693021774, -0.005077463109046221], [0.01368159893900156, 0.016461417078971863, 0.0002774033637251705, 0.0012217644834890962, 0.020275479182600975, -0.0020445012487471104, 0.028181854635477066, 0.0029631280340254307, -0.0017165319295600057, 0.09153766930103302, -0.019339000806212425, -0.02820436656475067, -0.08859823644161224, 0.10667334496974945, -0.0033506080508232117, -0.0019426969811320305, -0.03723737224936485, -0.0182508397847414, 0.0014467702712863684, -0.001400982029736042, 0.00013142311945557594, -0.11063113808631897, 0.02566063217818737, -0.010568588972091675, 0.0012210762361064553, -0.014350234530866146, -0.004184522666037083, 0.007577329874038696, -0.05408012121915817, -0.0019258406246080995, -0.0074125551618635654, -0.005469190422445536, 0.022628307342529297, 0.0374549925327301, 0.048732057213783264, -0.0014217591378837824, -0.031651295721530914, -0.021642887964844704, -0.04076250270009041, -0.006661690771579742], [-0.0001970291050383821, -0.00030678012990392745, 9.065938684216235e-06, -0.00017980507982429117, 4.3768479372374713e-05, -1.3181567737774458e-05, -0.00013008134556002915, -6.981857723076246e-07, -1.1835635632451158e-05, -0.0008396822959184647, 0.0006277768989093602, 8.716645243111998e-05, 0.00023779188632033765, -0.0009910633089020848, 3.413527792872628e-06, -3.450637450441718e-06, 0.0004601449763868004, 0.00024706099065952003, 2.221811655545025e-06, -3.6329097383713815e-06, -0.0002538957342039794, 0.0010429408866912127, -0.00010495139576960355, 1.1945879123231862e-05, 4.383653958939249e-06, -0.00028113689040765166, 1.8108867152477615e-05, 0.0005914983921684325, 0.0005908425082452595, -1.2681006410275586e-05, -0.00017180170107167214, 0.00031014016713015735, 0.00016978391795419157, 9.824745575315319e-06, -0.0001909791462821886, -1.1686262951116078e-05, 0.0002266693627461791, -4.5189626689534634e-05, -0.00028073808061890304, 6.699550431221724e-05], [-0.05926017090678215, 0.09989837557077408, 0.00012661075743380934, -0.004444591701030731, 0.02683357708156109, -0.00047657726099714637, 0.0504361130297184, 0.001103515736758709, 0.0003995921870227903, 0.23496811091899872, -0.017926206812262535, -0.050458379089832306, -0.26765552163124084, 0.2653990387916565, -0.0025123772211372852, 0.0014516564551740885, 0.009063281118869781, -0.0006796038942411542, -0.0011449918383732438, 0.00154056993778795, 0.08097802847623825, -0.27379849553108215, 0.048286907374858856, -0.11366511136293411, -3.16675468639005e-05, 0.02104242891073227, -0.006822423078119755, 0.03156529739499092, -0.10757244378328323, -0.00025571315200068057, -0.02845815196633339, 0.0027865830343216658, 0.027874749153852463, 0.09768667072057724, 0.007370176259428263, 0.0014101793058216572, -0.061041221022605896, -0.006234178319573402, -0.0815805047750473, -0.019016290083527565], [0.016787858679890633, -0.01388181559741497, -0.009666094556450844, 0.006992420181632042, -0.013729006983339787, 0.004415371920913458, 0.11012910306453705, 0.0073126498609781265, 0.0055128587409853935, 0.2642572224140167, 0.005029455758631229, -0.05577956512570381, -0.25093206763267517, 0.28832557797431946, -0.010212741792201996, -0.002815864747390151, 0.0016314672539010644, 0.015868986025452614, 0.004164938814938068, -0.003249486442655325, -0.016394300386309624, -0.29557180404663086, -0.07990740239620209, -0.02214689366519451, -0.008037837222218513, 0.40147194266319275, -0.019433556124567986, 0.010966435074806213, -0.18329501152038574, 0.005160409025847912, 0.0021046106703579426, -0.1863624006509781, -0.09694499522447586, 0.0814770832657814, -0.020410684868693352, 0.0048670340329408646, -0.07157266139984131, 0.002745390636846423, -0.045867741107940674, -0.03735237196087837], [-4.700995850726031e-05, -0.0002178587601520121, 6.1322043620748445e-06, -9.901630255626515e-05, 8.630073716631159e-05, -9.516410500509664e-06, -0.0001735458936309442, 3.0556875572074205e-06, -1.0058434781967662e-05, -0.0010554272448644042, 0.0005885152495466173, -0.00011190490477019921, 0.0008787827100604773, -0.0012690434232354164, 3.1292088920054084e-07, -5.556546966545284e-06, 0.0003758246311917901, 0.00011452902981545776, 2.5876313429762376e-06, -2.562751433288213e-06, -0.00011760513734770939, 0.0013443221105262637, -0.00026258316938765347, 0.00013141999079380184, -5.165819857211318e-06, 6.036641570972279e-05, 1.1967076716246083e-05, 0.0008492698543705046, 0.0006485083722509444, -1.064424759533722e-05, -0.0002852761244866997, 9.066514030564576e-05, -3.679609653772786e-05, -0.00012783243437297642, -0.00015244029054883868, -1.0735601790656801e-05, 0.00033336234628222883, -0.00029773073038086295, 0.00016575190238654613, 4.4372736738296226e-05], [0.0033547263592481613, -0.020423078909516335, -0.0019813498947769403, 0.003925592638552189, 0.0034628738649189472, 0.00035944042610935867, 0.0290210098028183, 0.0020973600912839174, 0.0006444496684707701, 0.0477416068315506, -0.014593420550227165, -0.014424712397158146, -0.03733136132359505, 0.05073291063308716, -0.0029311964754015207, -0.0009895493276417255, -0.022540222853422165, 0.017353937029838562, 0.001106174080632627, -0.000840528286062181, -0.015481092967092991, -0.051976967602968216, -0.016734465956687927, -0.002242904156446457, -0.0010798139264807105, 0.060697752982378006, -0.004832770209759474, 0.0015650041168555617, -0.029186908155679703, 0.0006508443620987236, -0.0026597846299409866, -0.030922217294573784, -0.01690753549337387, 0.024011332541704178, -0.002420133212581277, 0.0006055401172488928, -0.017954010516405106, -0.00865200161933899, -0.04467546567320824, -0.008311565034091473], [0.00015946404892019928, -0.0002416393399471417, -2.0466390196816064e-05, -4.936732875648886e-05, 0.00017215689877048135, 9.916594535752665e-06, 4.8892456106841564e-05, 7.161487701523583e-06, 1.4881178685755003e-05, -0.0002514737716410309, 6.269194273045287e-05, 4.355759301688522e-05, 0.00036133950925432146, -0.00027168108499608934, -9.229537681676447e-06, -2.8947533792234026e-06, -3.459486833889969e-05, -6.1010709032416344e-05, 3.1291149298340315e-06, -2.0198431229800917e-06, -0.00019812390382867306, 0.00027764675905928016, 5.258286364551168e-06, 0.00012186145613668486, -1.3695706911676098e-05, 3.090041718678549e-05, -1.784640880941879e-05, 0.00010622508125379682, 0.00021668555564247072, 1.508137665950926e-05, 0.00016299408162012696, 0.00022966884716879576, -0.0002859561063814908, 8.151744987117127e-05, 3.532366827130318e-05, 7.858630851842463e-06, -1.0232117347186431e-05, 8.273035200545564e-05, -0.00024926121113821864, -3.060920425923541e-05], [-0.00022480549523606896, -0.00012397013779263943, 1.6685278751538135e-05, -0.0001685927272774279, 1.6512763977516443e-05, -2.073066934826784e-05, -0.000134790112497285, 1.3581536222773138e-05, -1.8725639165495522e-05, -0.0008849852601997554, 0.0007184594287537038, -0.00011181490117451176, 0.0005446161958388984, -0.0010560554219409823, -1.1357058610883541e-05, -1.3871329429093748e-05, 0.0004216815286781639, 0.0001543651451356709, 4.789519607584225e-06, -5.629199222312309e-06, -6.416562246158719e-05, 0.0011163899907842278, -0.00015184008225332946, 9.537422556604724e-06, -9.927534847520292e-07, -0.00013827934162691236, 5.459917701955419e-06, 0.0010339794680476189, 0.0006946880603209138, -2.1027646653237753e-05, -0.0003796203527599573, 0.0001384584029437974, 2.9738463126705028e-05, -0.00012927260831929743, -0.0003316352376714349, -2.0534547729766928e-05, 0.00039419595850631595, -0.00026787773822434247, 0.00021623115753754973, 3.769917384488508e-05], [0.01085183210670948, 0.027591072022914886, -0.0006201420328579843, 0.009530926123261452, -0.0027962992899119854, -0.0002739165211096406, 0.026965077966451645, 0.0006709801382385194, 5.399396104621701e-05, 0.08549648523330688, -0.0053428406827151775, -0.0031470877584069967, -0.02863120660185814, 0.09463496506214142, -0.0010971177835017443, -0.0002599639701656997, -0.018427247181534767, 0.005499713588505983, 0.0003120711480733007, -0.00035403631045483053, 0.018536370247602463, -0.09796521067619324, 0.0258804764598608, -0.02698647417128086, 7.121537782950327e-05, 0.00849068071693182, -0.00207318551838398, 0.003091993508860469, -0.041917309165000916, -5.2482992032309994e-05, -0.003571189707145095, -0.0066482690162956715, 0.0023074918426573277, 0.016553295776247978, -0.0004274304083082825, -7.825565990060568e-05, -0.03113836795091629, -0.004456841386854649, 0.01385888084769249, -0.0035765348002314568], [-0.12545953691005707, -0.16382278501987457, -0.0002750995336100459, -0.061792824417352676, 0.019703390076756477, -0.008265982381999493, 0.1288972944021225, 0.003209945047274232, -0.0072388676926493645, 0.00188137823715806, -0.03891412913799286, -0.01746385172009468, -0.45763397216796875, 0.07232065498828888, -0.0011200285516679287, -0.005362819880247116, -0.33356329798698425, -0.07200576364994049, 0.004199052229523659, -0.0034505962394177914, -0.23722721636295319, -0.10887683182954788, -0.06809905171394348, -0.2610374689102173, -0.0020325195509940386, 0.08960776776075363, 0.0008437599171884358, 0.0031106837559491396, 0.05521080642938614, -0.008935580030083656, -0.2527722716331482, 0.22786620259284973, -0.03618672862648964, 0.08952014148235321, -0.002844664268195629, -0.006170241162180901, -0.009920100681483746, -0.004076389130204916, -0.5660439133644104, -0.0020296538714319468], [-0.0014805562095716596, -0.12039616703987122, 0.007187021430581808, -0.06605727225542068, 0.07700300216674805, 0.0030389248859137297, -0.07860836386680603, -0.007889902219176292, -0.0020767776295542717, -0.09931183606386185, -0.01877996325492859, 0.08592738211154938, -0.051867760717868805, -0.32517340779304504, 0.008019313216209412, 0.007257654331624508, 0.089604951441288, 0.07933153212070465, -0.007571179419755936, 0.006641891319304705, -0.03119596652686596, 0.6811901926994324, -0.03279932960867882, 0.04468030855059624, 0.010427599772810936, -0.06108861416578293, 0.007571504916995764, -0.13712269067764282, 0.25110551714897156, -0.0009147330420091748, 0.04627465829253197, -0.004822243005037308, -0.08258078247308731, 0.020550301298499107, -0.004934973549097776, 0.001495718490332365, 0.04742899537086487, 0.11816706508398056, -0.12671640515327454, 0.006213116925209761], [0.0046451580710709095, 0.04327306151390076, 0.0005141829024069011, 0.0017602738225832582, 0.0017675282433629036, -0.00041734182741492987, 0.025055265054106712, 0.0010095848701894283, -0.0010902798967435956, 0.088336281478405, -0.02749626711010933, 0.006304917391389608, -0.03518068045377731, 0.10096703469753265, -0.0010979323415085673, 0.0013749160571023822, -0.03692351281642914, -0.024929886683821678, -0.003205058164894581, 0.003029963932931423, 0.028925957158207893, -0.10506302118301392, 0.02439754456281662, -0.041740480810403824, 0.004455314017832279, -0.05247282236814499, -0.0008685120264999568, -0.002278141910210252, -0.057170018553733826, -0.0011196148116141558, -0.010921365581452847, 0.014996637590229511, 0.01654190383851528, 0.01785188540816307, -0.002185987774282694, -0.0012713345931842923, -0.03586798906326294, -0.000828843389172107, 0.021294040605425835, -0.002110613975673914], [0.015455987304449081, 0.02468879148364067, -0.0006930980016477406, 0.007311144378036261, -0.0043137818574905396, -0.0004746831546071917, 0.030457032844424248, 0.0009507793001830578, -0.00013225036673247814, 0.09307083487510681, -0.004271655809134245, 0.0006781864212825894, -0.022712072357535362, 0.1031932607293129, -0.0013135428307577968, -0.000623551954049617, -0.010734795592725277, 0.005991354584693909, 0.0006738948868587613, -0.0006774313515052199, 0.01448922511190176, -0.10685057193040848, 0.027142062783241272, -0.03964569419622421, 2.115151619364042e-05, -0.004605392459779978, -0.0020653579849749804, -0.0007865229854360223, -0.04624643549323082, -0.00024213985307142138, -0.011845579370856285, -0.0037494038697332144, 0.019802363589406013, 0.016241276636719704, -0.0016453623538836837, -0.0003281457757111639, -0.029267698526382446, -0.00032909028232097626, 0.018862836062908173, -0.0030253203585743904], [0.00018624990480020642, -0.0002843548427335918, -2.182223579438869e-05, -0.00012204030645079911, 0.00019075602176599205, 1.0423860658193007e-05, 0.00018931544036604464, 8.743541002331767e-06, 1.6217258234973997e-05, -0.00013431906700134277, 2.6804993467521854e-05, 5.3108793508727103e-05, 0.00032446731347590685, -0.00015683109813835472, -1.6226254956563935e-05, -4.884897180090775e-07, -0.00017043555271811783, -0.00012444835738278925, 1.7618039009903441e-06, -8.249724032793893e-07, -0.00025564167299307883, 0.00016339898866135627, 7.972007006173953e-05, 0.00015796722436789423, -9.96476137515856e-06, 9.972723637474701e-05, -4.0491104300599545e-05, -2.9032968086539768e-05, 9.409915946889669e-05, 1.706136026768945e-05, 0.00023039535153657198, 0.00018110871315002441, -0.00037678860826417804, 0.00015245458052959293, 5.10297468281351e-05, 8.15191560832318e-06, -9.444496390642598e-05, 0.0001599400129634887, -0.00032355193980038166, -9.008446068037301e-05], [0.00017804396338760853, -0.0002115918614435941, -1.583869379828684e-05, -4.6760193072259426e-05, 9.622839570511132e-05, 1.0270244274579454e-05, 5.145636896486394e-05, 5.2746499932254665e-06, 1.3010374459554441e-05, -0.00021925120381638408, 9.623107325751334e-05, -1.4493489288724959e-05, 0.00030869728652760386, -0.00023815948225092143, -7.257269771798747e-06, -4.450932635791105e-07, -7.053585704852594e-06, -1.3107119229971431e-05, 2.1929977265244815e-06, -2.4381597540923394e-07, -0.00015939981676638126, 0.00024395099899265915, -0.00015929568326100707, 8.485824218951166e-05, -1.4595031643693801e-05, 0.0003064608608838171, -1.4524404832627624e-05, 0.0002645686035975814, 0.00020421258523128927, 1.2363173482299317e-05, 0.00011307327076792717, 5.567236803472042e-05, -0.00027391521143727005, 0.00013801007298752666, -3.0391483960556798e-05, 1.013578184938524e-05, 1.7153912267531268e-05, -1.7138207113021053e-05, -9.976932778954506e-05, -1.6711046555428766e-05], [0.03301694244146347, -0.05069071426987648, -0.002800885122269392, -0.00913698598742485, 0.09220357984304428, -0.001306604128330946, 0.11850963532924652, 0.000996517832390964, -0.001105753006413579, 0.07075480371713638, 0.03900876268744469, 0.024612005800008774, -0.1668572723865509, 0.16722986102104187, -0.0009364486904814839, -0.0031522689387202263, -0.13768227398395538, 0.055793020874261856, 0.002694543218240142, -0.002687955740839243, -0.06667507439851761, -0.20152926445007324, -0.24227537214756012, -0.09925008565187454, -0.0018470255890861154, 0.2183343917131424, -0.0012550820829346776, 0.04044394567608833, -0.08820559084415436, -0.0015754976775497198, 0.01645869016647339, -0.06983836740255356, 0.004791085608303547, 0.16416007280349731, 0.10236980766057968, -0.001190875773318112, -0.04513099789619446, -0.05951042100787163, -0.09011410176753998, -0.006438026204705238], [0.0554833710193634, 0.0029412435833364725, 0.0024053144734352827, 0.022245317697525024, -0.045447029173374176, -0.0020367975812405348, -0.06706929951906204, -0.005617225542664528, -0.004185350611805916, -0.08180782943964005, 0.17996910214424133, -0.02194163203239441, 0.1408068984746933, -0.1613667905330658, 0.008085726760327816, 0.0025477572344243526, 0.15887263417243958, 0.01050542388111353, -0.002164901467040181, 0.0020570196211338043, 0.013570279814302921, 0.18319086730480194, -0.032343775033950806, -0.0074788047932088375, 0.001305293757468462, 0.011954438872635365, 0.0145947877317667, -0.07035242021083832, 0.138472318649292, -0.0022411516401916742, 0.12051279842853546, 0.19819825887680054, -0.03823982924222946, -0.13907936215400696, 0.013643519952893257, -0.00461617112159729, 0.0623336061835289, 0.036194056272506714, 0.3068107068538666, 0.02684585005044937], [0.00014925490540917963, -0.00030959188006818295, -5.103171133669093e-06, -0.00011649179214145988, 4.5092056097928435e-05, 3.100705725955777e-06, 0.00016481273632962257, 8.621497727290262e-06, 3.708709300553892e-06, -5.2974133723182604e-05, 0.00018745104898698628, 8.688473462825641e-05, 4.640845145331696e-05, -6.969767855480313e-05, -1.2431813956936821e-05, -3.964024017477641e-06, 3.5637021937873214e-05, 1.1153716513945255e-05, 1.8432522210787283e-06, -2.236912905573263e-06, -0.0002909897011704743, 7.581338286399841e-05, -5.6667504395591095e-05, -8.071692718658596e-05, -2.1555638340942096e-06, 0.00020093421335332096, -2.043073072854895e-05, -1.0554629625403322e-05, -2.7881484129466116e-05, 3.952107363147661e-06, 2.4680430215084925e-05, -8.556338434573263e-05, -0.00012821036216337234, 0.00018441895372234285, -7.292751433851663e-06, 7.240751074277796e-07, 7.197942613856867e-05, 8.821046503726393e-05, -0.00019692518981173635, -3.521525286487304e-05], [0.00017362240760121495, -0.0002835782361216843, -9.553147719998378e-06, -8.451977191725746e-05, 6.785332516301423e-05, 5.201986368774669e-06, 0.00017385288083460182, 9.253097232431173e-06, 6.454840331571177e-06, -1.2448334018699825e-05, 8.243524644058198e-05, 4.887741670245305e-05, 6.374144140863791e-05, -2.52483478107024e-05, -1.2775210052495822e-05, -4.8488764150533825e-06, -4.0571037970948964e-05, -6.286459210969042e-06, 3.5280729662190424e-06, -3.3993303532042773e-06, -0.00026696367422118783, 2.9625505703734234e-05, -4.0236260247183964e-05, -1.8914046449935995e-05, -6.4728287725301925e-06, 0.00026690607774071395, -2.160384065064136e-05, 1.7770140402717516e-05, -3.92809888580814e-05, 6.164078058645828e-06, 6.851280340924859e-05, -8.982008148450404e-05, -0.00019235142099205405, 0.00020153990772087127, 1.2572427294799127e-05, 3.5800039768218994e-06, -1.463527496525785e-05, 4.382012411952019e-05, -0.00015723874093964696, -3.545553045114502e-05], [-0.00514839356765151, 0.0027011160273104906, -0.0020792135037481785, 0.00561910355463624, -0.010008743032813072, 0.00035061041126027703, 0.02969922311604023, 0.0020645142067223787, 0.0008110273047350347, 0.07896322011947632, 0.005052093416452408, -0.014626070857048035, -0.04325072839856148, 0.09032309800386429, -0.003101398702710867, -0.0007688970654271543, -0.010357349179685116, -0.005992801859974861, 0.0012870047939941287, -0.0010407979134470224, -0.003310828935354948, -0.09345132112503052, 0.018262796103954315, -0.007490749470889568, -0.0012044486356899142, 0.04290908947587013, -0.005438863765448332, -0.0010039695771411061, -0.06237506866455078, 0.0007237854297272861, 0.004977155011147261, -0.03220408782362938, -0.03062131069600582, 0.01741846650838852, -0.011645304970443249, 0.0007167586591094732, -0.022289345040917397, 0.0022761444561183453, -0.053719207644462585, -0.009684196673333645], [0.014454366639256477, 0.027027713134884834, -0.0002595055557321757, 0.007136072963476181, -0.003139702370390296, -0.0007037961622700095, 0.02905036322772503, 0.0010305010946467519, -0.0003698044747579843, 0.09511683881282806, 0.0012782507110387087, 0.002386650536209345, -0.023565061390399933, 0.10586702823638916, -0.0013851749245077372, -0.0006665744003839791, -0.009794908575713634, 0.007179595064371824, 0.0006600201013498008, -0.0007069593411870301, 0.016588149592280388, -0.10959234833717346, 0.030162351205945015, -0.04211690276861191, 0.00026765873190015554, -0.01029046531766653, -0.0017749137477949262, 0.0006045419140718877, -0.04716167226433754, -0.00047590810572728515, -0.011846031993627548, 0.00011072252527810633, 0.022028125822544098, 0.016027100384235382, -0.00016531129949726164, -0.0005112114013172686, -0.028039278462529182, -0.0010720264399424195, 0.020387517288327217, -0.002214868785813451], [0.028349993750452995, -0.09114965051412582, -0.0033959602005779743, 0.004656575620174408, 0.009306138381361961, 0.0026119425892829895, 0.10177882760763168, 0.005446759518235922, 0.00379212386906147, 0.10374939441680908, -0.045633018016815186, -0.010903330519795418, -0.13484328985214233, 0.21637821197509766, -0.006614624988287687, -0.0033435795921832323, -0.04615131765604019, -0.004031587857753038, 0.0024777413345873356, -0.0024362998083233833, -0.07093257457017899, -0.3063141703605652, -0.08873207867145538, -0.09338950365781784, -0.00553038390353322, 0.2466793656349182, -0.009155549108982086, -0.024778196588158607, -0.18775801360607147, 0.003404766321182251, -0.09232790023088455, -0.2136649638414383, 0.014140314422547817, 0.09968040138483047, -0.04012836515903473, 0.002159618306905031, -0.10728850960731506, 0.01671764627099037, -0.016499968245625496, -0.017790131270885468], [-0.020743200555443764, 0.045131340622901917, -0.0014200472505763173, -0.003612272208556533, -0.0043129948899149895, 7.149848534027115e-05, 0.0701063722372055, 0.0040880716405808926, 0.00040752082713879645, 0.13696140050888062, -0.021764008328318596, -0.034443702548742294, -0.1956939995288849, 0.18945352733135223, -0.0060961125418543816, -0.001691462006419897, -0.11243432760238647, 0.00033738763886503875, 0.0005324801313690841, -0.0006396624376066029, 0.04229424148797989, -0.1980239897966385, 0.0047985222190618515, -0.05536067485809326, -8.4404215158429e-05, 0.16624481976032257, -0.009655123576521873, 0.045154836028814316, -0.10325261950492859, 0.00018822387210093439, -0.013744325377047062, -0.08562769740819931, -0.14670898020267487, -0.007016667164862156, -0.03942466899752617, 0.00039601814933121204, -0.019672846421599388, 0.026588361710309982, -0.06424587965011597, -0.018186800181865692], [-0.0003965175128541887, -0.00016326020704582334, 3.1254327041096985e-05, -0.00034731789492070675, 0.00019648831221275032, -2.6648143830243498e-05, -9.454203973291442e-05, 4.397697921376675e-06, -3.10087671095971e-05, -0.0010571974562481046, 0.0011668133083730936, -2.276086888741702e-05, 0.00027860203408636153, -0.0012394323712214828, -5.7987499531009234e-06, 2.6040177090180805e-06, 0.00072242203168571, 0.00016583451360929757, -4.30018098995788e-06, 6.501153620774858e-06, -6.471163214882836e-05, 0.0013022745260968804, -0.0003035246336366981, -0.00028501692577265203, -7.3721712396945804e-06, -0.00025370155344717205, -7.185019512689905e-06, 0.000706799270119518, 0.0006900281878188252, -2.4936061890912242e-05, -0.0006092965486459434, -8.140080171870068e-05, 0.00032253042445518076, -0.00015273063036147505, -0.00014358818589244038, -3.281798490206711e-05, 0.0008913926430977881, -5.798504571430385e-05, 0.0003906174679286778, -3.717253639479168e-05], [0.0480746291577816, -0.011558451689779758, -0.0022479314357042313, 0.021515654399991035, 0.019707273691892624, 0.0005332552827894688, 0.03091982565820217, 0.002498044166713953, 0.0010460414923727512, 0.08178099989891052, -0.06595579534769058, 0.008529137820005417, -0.028955131769180298, 0.09419681876897812, -0.0028086439706385136, -0.0017806695541366935, -0.09475362300872803, -0.00864934828132391, 0.0019992280285805464, -0.0019635462667793036, 0.005255180411040783, -0.09638379514217377, -0.05640874430537224, 0.05292325094342232, -0.002281835535541177, 0.06756560504436493, -0.004157340619713068, -0.005223958753049374, -0.06313116103410721, 0.0007935230969451368, 0.02189003862440586, -0.08299897611141205, 0.06671997159719467, 0.02298031374812126, 0.025551287457346916, 0.0005606311024166644, -0.06059329956769943, -0.008848726749420166, 0.05418853461742401, -0.006717584561556578], [-0.0003256700001657009, 4.6358116378542036e-05, 9.831641364144161e-06, -0.0003941380709875375, 0.00020327088714111596, -1.1009693480446003e-05, 0.0002979700220748782, 4.146959327044897e-07, -8.302020432893187e-06, 6.586387462448329e-05, 5.972427607048303e-05, 2.0655212210840546e-05, 0.0002578852290753275, 1.8994212950929068e-05, -2.052320633083582e-05, 1.635708031244576e-05, -0.0003390811034478247, -8.771209104452282e-05, -1.185142173198983e-05, 1.1616472875175532e-05, 5.344313831301406e-05, -5.687033080903348e-06, 0.00025259816902689636, 0.00037046411307528615, 2.41811230807798e-05, 0.00023829647398088127, -8.570020145270973e-05, 9.859929377853405e-06, -0.00012616468302439898, -5.403948307503015e-06, 0.00016730776405893266, -7.32711487216875e-05, -0.0003969486278947443, 8.964659770072103e-08, -0.00024574450799264014, -1.124081973102875e-05, -0.00022992893354967237, 0.0002502941933926195, -0.0004966220003552735, -0.00023510002938564867], [0.015989933162927628, -0.05475660786032677, -0.011413286440074444, 0.030016569420695305, -0.09792380779981613, 0.0011178834829479456, -0.01136067695915699, 0.0034779636189341545, 0.003696529660373926, -0.043596334755420685, 0.03635196015238762, 0.03036235086619854, 0.05541929975152016, -0.09396465867757797, -0.006766460370272398, -0.0017728322418406606, 0.0476069338619709, -0.0012634653830900788, 0.0029967965092509985, -0.0027599544264376163, -0.017311090603470802, 0.22596392035484314, -0.054939378052949905, 0.028774388134479523, -0.006301875691860914, -0.07593311369419098, -0.009785455651581287, -0.05733924359083176, 0.3682608902454376, 0.0023384171072393656, 0.10357210785150528, 0.2079085111618042, 0.05405884236097336, -0.03074449859559536, -0.17281636595726013, 0.0030395961366593838, 0.003106377087533474, 0.07869619876146317, -0.003169907256960869, -0.0032391613349318504], [0.013894237577915192, -0.010735777206718922, 0.0016638539964333177, 0.054870620369911194, 0.015017420053482056, -0.003247480373829603, 0.006795181892812252, 0.0037391756195575, -0.003202224150300026, 0.08337997645139694, -0.049078911542892456, 0.00629825284704566, -0.014813936315476894, 0.12394697219133377, -0.004154573194682598, -0.003313606372103095, -0.030123643577098846, 0.004212267231196165, 0.0013855670113116503, -0.0020141834393143654, -0.02421557530760765, -0.13083215057849884, 0.10596288740634918, 0.07117437571287155, 0.0032058418728411198, -0.07487909495830536, -0.0036600425373762846, -0.013459650799632072, -0.013027354143559933, -0.0034064296633005142, 0.07839733362197876, 0.047197382897138596, -0.023540474474430084, 0.03694988414645195, 0.02678777277469635, -0.0029298283625394106, -0.040449801832437515, -0.009066581726074219, -0.04684815555810928, -0.00393763417378068], [-0.00023010688892100006, -3.202102016075514e-05, 1.5827332390472293e-05, -0.00016127937124110758, 1.0316973202861845e-05, -1.5712183085270226e-05, -0.00015367935702670366, 9.528482223686296e-06, -1.533730755909346e-05, -0.0007934601162560284, 0.0007221692940220237, -7.657771493541077e-05, 0.0005402683163993061, -0.0009470534278079867, -6.221962394192815e-06, -1.0109005415870342e-05, 0.00046228535939008, 7.712162187090144e-05, 3.681338284877711e-06, -4.3375212044338696e-06, 7.95577398093883e-06, 0.0010014718864113092, -0.0001576648064656183, -1.6023792341002263e-05, -9.757802672538674e-07, -0.0001018003313220106, 1.2575364053191151e-05, 0.0009140718611888587, 0.0006540984031744301, -1.6571237210882828e-05, -0.00043654412729665637, 9.068920189747587e-05, 8.741333294892684e-05, -0.00015114322013687342, -0.0002770165156107396, -1.6443742424598895e-05, 0.00038599464460276067, -0.0002055055374512449, 0.00013512892473954707, 4.813027771888301e-05], [0.039598435163497925, -0.20604605972766876, -0.0015885599423199892, 0.008866562508046627, -0.02565249614417553, 6.423541344702244e-05, 0.1285513937473297, 0.0034356466494500637, 0.0002280590997543186, 0.08315972238779068, -0.029677893966436386, -0.052190329879522324, -0.22064712643623352, 0.19508640468120575, -0.0038472432643175125, -0.002293225144967437, -0.05378452688455582, -0.03187764436006546, 0.0013705953024327755, -0.0012983344495296478, -0.1654459834098816, -0.23785793781280518, 0.0062117367051541805, -0.10084939002990723, -0.000674133247230202, 0.049582939594984055, -0.004364083055406809, -0.028621921315789223, -0.10019798576831818, 9.525846689939499e-05, -0.04128343611955643, -0.06987157464027405, -0.11971868574619293, 0.050888460129499435, -0.040642693638801575, -0.00020669933292083442, 0.006355642806738615, 0.05813561752438545, -0.0926264300942421, -0.004111059475690126], [0.008720540441572666, 0.026428431272506714, 0.001426377217285335, 0.006560498382896185, 0.005424792878329754, -0.0036016509402543306, 0.03772471845149994, 0.004768777173012495, -0.002551367273554206, 0.08825677633285522, 0.030901266261935234, -0.0073542604222893715, -0.005315654445439577, 0.10810428112745285, -0.005470718257129192, -0.0034474865533411503, 0.009625043720006943, -0.002990234177559614, 0.0010777806164696813, -0.0015382930869236588, 0.015767814591526985, -0.11208215355873108, -0.016205165535211563, -0.053466834127902985, 0.0024702369701117277, -0.001685171970166266, -0.0050430274568498135, -0.005199060775339603, -0.05217503756284714, -0.0028777006082236767, 0.0004155476053711027, 0.020241592079401016, 0.028285402804613113, 0.005535203963518143, 0.025384768843650818, -0.0029720242600888014, -0.018357906490564346, 0.0067156641744077206, -0.054039910435676575, -0.00575674744322896], [0.06001552566885948, -0.04346093535423279, -0.0024319763761013746, -0.02168765477836132, 0.015334246680140495, 0.00016489210247527808, 0.09759771078824997, 0.0057434942573308945, 0.0020412891171872616, 0.1213526576757431, -0.0028490801341831684, -0.013253855518996716, -0.1209322139620781, 0.23034456372261047, -0.00736562954261899, -0.003228112356737256, -0.08323592692613602, -0.009399971924722195, 0.0025388370268046856, -0.002283118199557066, -0.01929044909775257, -0.30154475569725037, 0.049430474638938904, -0.08298961073160172, -0.0036756452172994614, 0.2755606472492218, -0.010785493068397045, 0.047610025852918625, -0.17726047337055206, 0.0013130620354786515, -0.08498700708150864, -0.21832405030727386, -0.10061853379011154, 0.0940324142575264, 0.05918589606881142, 0.0008840177906677127, -0.048823654651641846, -0.03005162999033928, -0.00970735214650631, -0.018497081473469734], [-0.0924314484000206, 0.22247733175754547, -0.0024901258293539286, -0.005078899674117565, -0.008769592270255089, 0.0006765101570636034, 0.03884240239858627, 0.0024431762285530567, 0.0015615219017490745, 0.23194250464439392, -0.01011455338448286, -0.047159574925899506, -0.1501886397600174, 0.2517682611942291, -0.004852847661823034, 0.0007494388264603913, -0.04186487942934036, 0.002539911074563861, 0.0001630022597964853, -3.787659443332814e-05, 0.19797614216804504, -0.2577870786190033, -0.041193507611751556, -0.045591749250888824, -0.0001398081221850589, 0.3051094114780426, -0.012376964092254639, 0.04145156219601631, -0.13762646913528442, 0.000955009541939944, -0.09213906526565552, -0.12890830636024475, -0.024346716701984406, 0.0072162034921348095, -0.0229636337608099, 0.0021915221586823463, -0.07372242212295532, -0.036941174417734146, -0.08966629952192307, -0.031613681465387344], [0.011300118640065193, -0.10816407948732376, -0.007109255064278841, -0.03582838177680969, -0.0077838050201535225, 0.007760187610983849, 0.11810321360826492, 0.0017819496570155025, 0.007953018881380558, 0.11420207470655441, 0.004268968943506479, -0.07202447950839996, 0.02237691916525364, 0.11829525977373123, -0.004660776350647211, 0.0028557360637933016, -0.15894168615341187, 0.07183033972978592, 0.0023251089733093977, -6.597071478608996e-05, -0.050725940614938736, -0.1199193075299263, -0.20904554426670074, 0.015827784314751625, -0.01025705598294735, 0.7093928456306458, -0.015597294084727764, -0.029816066846251488, -0.17484650015830994, 0.008285079151391983, -0.2226422131061554, -0.5654817819595337, -0.19646500051021576, 0.08636734634637833, -0.02313779667019844, 0.007272567134350538, -0.05989970266819, 0.004132467322051525, -0.05636488273739815, -0.0351845920085907], [-9.664837853051722e-05, -0.00015066495689097792, 1.3438996575132478e-05, -8.276572043541819e-05, 6.208610284375027e-05, -2.2362777599482797e-05, -7.94310835772194e-05, 1.4601495422539301e-05, -2.069010770355817e-05, -0.0007180347456596792, 0.000529906596057117, -0.0001472005242248997, 0.0005365806864574552, -0.000868861039634794, -1.3326976841199212e-05, -1.844602229539305e-05, 0.00028512865537777543, 0.00014135579112917185, 6.1578025452035945e-06, -8.046802577155177e-06, -7.104859832907096e-05, 0.0009216647013090551, -0.00010115978511748835, 2.797587512759492e-06, 5.741516815760406e-06, -7.570485468022525e-05, 1.977447254830622e-06, 0.0009158862521871924, 0.0005213143303990364, -2.257689629914239e-05, -0.00021676774485968053, 0.00017814722377806902, 4.408400855027139e-05, -5.597881317953579e-05, -0.00023863863316364586, -2.1751984604634345e-05, 0.00023970927577465773, -0.0002561897272244096, 0.00011733653809642419, 3.981292320531793e-05], [0.014846337027847767, 0.04593028873205185, -0.0013277088291943073, 0.027221661061048508, -0.007138135842978954, -0.000862407498061657, 0.023275552317500114, 0.001844892161898315, -0.000634936208371073, 0.1241590678691864, -0.0994894728064537, -0.023970598354935646, -0.10204905271530151, 0.14205755293369293, -0.0022072596475481987, -0.0016805881168693304, -0.035463180392980576, 0.005251631140708923, 0.001171489479020238, -0.0012309510493651032, 0.04525827243924141, -0.14748409390449524, 0.06476034969091415, 0.015712622553110123, 0.00025088456459343433, -0.008866499178111553, -0.003325734520331025, -0.014467550441622734, -0.05762954428792, -0.0007049466948956251, 0.04548399895429611, -0.03431035205721855, -0.04316937178373337, 0.04588450863957405, -0.01726381853222847, -0.0008440683595836163, -0.05631402134895325, 0.006827722303569317, 0.12206222116947174, -0.004379303194582462], [0.01707020215690136, 0.049127575010061264, -0.005586742423474789, 0.005725863855332136, -0.007599677890539169, 0.002736984519287944, 0.09543395042419434, 0.006103216670453548, 0.0031232452020049095, 0.27505502104759216, 0.016783911734819412, -0.052189942449331284, -0.0972263291478157, 0.3242558240890503, -0.00826114509254694, -0.0025310502387583256, 0.008839237503707409, 0.007143381517380476, 0.002280845306813717, -0.0017736044246703386, 0.012930378317832947, -0.3361443877220154, 0.023749075829982758, -0.09101145714521408, -0.004356438294053078, 0.15797564387321472, -0.014695770107209682, 0.0209368746727705, -0.1775413453578949, 0.0029153889045119286, 0.0034629704896360636, -0.07332678139209747, -0.04103703424334526, 0.07577035576105118, -0.03507807105779648, 0.0033185798674821854, -0.06642090529203415, 0.015461623668670654, 0.03623294085264206, -0.02855178527534008], [0.009088007733225822, 0.009991123341023922, -0.0009702792158350348, -0.0019234222127124667, 0.016278723254799843, 0.0007392364204861224, 0.03432341665029526, 0.0001748546928865835, 0.0011891040485352278, 0.06528319418430328, -0.024920754134655, -0.02037261240184307, -0.03720669448375702, 0.08243631571531296, -0.0015553475823253393, 0.0010267408797517419, 0.026200776919722557, 0.01779363490641117, 0.00011381786316633224, 0.00015834701480343938, -0.01493666972965002, -0.08670588582754135, 0.006480544805526733, -0.013290762901306152, -0.0005827616550959647, -0.032305508852005005, -0.00410433067008853, 0.032967694103717804, -0.009752839803695679, 0.0009018902201205492, 0.014659257605671883, 0.015247638337314129, 0.03502431511878967, 0.027773117646574974, 0.006230121478438377, 0.0012309940066188574, -0.02363673597574234, -0.01113962847739458, -0.03675787150859833, -0.00872692372649908], [-0.0008339376072399318, -0.00036543660098686814, 0.0002454337663948536, -9.857407712843269e-05, -0.0008424331899732351, -8.95977282198146e-05, -0.00019704352598637342, -8.751616405788809e-05, -0.00013204470451455563, 3.44840700563509e-05, 0.000901120132766664, -0.001052261795848608, -0.00029262760654091835, -7.058984192553908e-05, 3.5184282751288265e-05, 0.00012850265193264931, 0.0018895167158916593, -0.00014545950398314744, -7.944270328152925e-05, 7.81717462814413e-05, -0.0002671938273124397, 0.0001038071932271123, 0.00040324009023606777, 0.0015298525104299188, 0.00011649268708424643, 0.0013139033690094948, -8.613661339040846e-05, 0.0006879083230160177, 0.00033782230457291007, -0.00013920976198278368, 0.0008428264409303665, -0.0006292825564742088, -0.0003062657197006047, -0.0009272267343476415, -0.0018470963696017861, -7.170414028223604e-05, -0.0007633521454408765, 0.0008269816753454506, -0.00193183240480721, -0.000299427832942456], [0.008060692809522152, 0.16116073727607727, -0.0050712102092802525, 0.018297115340828896, -0.01770649291574955, 0.0021166938822716475, 0.022060830146074295, 0.009456614032387733, 0.0030330591835081577, 0.10872124880552292, 0.008335823193192482, 0.05724633112549782, -0.06335140019655228, 0.18204370141029358, -0.012731535360217094, -0.004605939146131277, 0.044730525463819504, 0.07931338995695114, 0.003111582715064287, -0.002803860232234001, 0.15736064314842224, -0.19613036513328552, 0.017443431541323662, -0.01724649965763092, -0.005024320911616087, 0.08155184984207153, -0.020042063668370247, 0.002776453970000148, -0.07479486614465714, 0.002986568957567215, -0.00519184023141861, -0.008632254786789417, -0.08788896352052689, -0.043549783527851105, -0.08342939615249634, 0.002326442627236247, -0.008771521039307117, 0.012546139769256115, 0.15400169789791107, -0.03243708610534668], [0.021358879283070564, 0.06986095756292343, 0.000665556057356298, 0.003975581843405962, 0.04965151101350784, -0.002216830849647522, 0.03322302922606468, 0.006749387830495834, -0.0024424376897513866, 0.14983759820461273, -0.017997676506638527, -0.050196610391139984, -0.14768192172050476, 0.2139720916748047, -0.006965629756450653, -0.005567229352891445, -0.054652873426675797, -0.030478941276669502, 0.0031783096492290497, -0.0035370788536965847, 0.0370338149368763, -0.2262580245733261, 0.02171386405825615, -0.04488794878125191, 0.003332503605633974, -0.01360449381172657, -0.00944345910102129, 0.013895509764552116, -0.10456063598394394, -0.004110116511583328, -0.029513463377952576, 0.016614289954304695, 0.05439577251672745, 0.051941968500614166, 0.11396785825490952, -0.0013168021105229855, -0.062344990670681, -0.042994409799575806, -0.05552658811211586, -0.020764943212270737], [-0.00024258614575956017, -0.00027496146503835917, 6.605339876841754e-06, -0.00018352230836171657, 6.436686817323789e-05, -9.437518201593775e-06, -0.0001276879193028435, -3.0425651402765652e-06, -8.624287147540599e-06, -0.0008217142312787473, 0.0006213019951246679, 8.900796092348173e-05, 0.00020791843417100608, -0.0009725090931169689, 7.015563824097626e-06, -2.124890215782216e-06, 0.0004366700886748731, 0.0002493636275175959, 2.4156026938726427e-06, -3.3321734917990398e-06, -0.00021360645769163966, 0.0010242905700579286, -0.00015281634114217013, 3.248858411097899e-05, -1.111673441300809e-06, -0.00018282941891811788, 1.937662818818353e-05, 0.0005852801841683686, 0.0005557092954404652, -8.518054528394714e-06, -0.00023447528656106442, 0.00018789942259900272, 0.00014130842464510351, -2.9680442821700126e-05, -0.00018954160623252392, -8.990828064270318e-06, 0.0002337336482014507, -4.9414993554819375e-05, -0.0002811353770084679, 6.836898683104664e-05], [0.029623549431562424, -0.10361423343420029, -0.00192449358291924, -0.03280876949429512, -0.011118200607597828, 0.0014298014575615525, -0.03813201189041138, 0.0006143648643046618, 0.0009461214649491012, -0.19546349346637726, -0.08782168477773666, 0.062401819974184036, 0.25148671865463257, -0.22516292333602905, -0.00021713443857152015, -0.0017225382616743445, -0.0035961344838142395, -0.007228424772620201, 0.0019032048294320703, -0.0020285339560359716, -0.08750725537538528, 0.23282894492149353, -0.03357211872935295, 0.08992991596460342, -0.0016088426345959306, 0.029237404465675354, 0.0014658839209005237, -0.028809331357479095, 0.07457331568002701, 0.0014727424131706357, -0.0335121713578701, -0.058320507407188416, -0.04354329779744148, -0.06478238105773926, 0.029688479378819466, -2.3656373741687275e-05, -0.003599785501137376, -0.00764125119894743, -0.053738001734018326, 0.007430122699588537], [-0.03812701255083084, 0.09421121329069138, 0.00604450237005949, -0.0013795930426567793, 0.0014711573021486402, -0.0015480044530704618, -0.1139693483710289, -0.006557920482009649, -0.0022673900239169598, -0.18143226206302643, 0.020012350752949715, 0.03825041651725769, 0.2952817380428314, -0.2026659995317459, 0.00816414412111044, 0.003736406099051237, -0.014749503694474697, -0.006851179990917444, -0.0031372408848255873, 0.002984698861837387, 0.0922078862786293, 0.20711800456047058, -0.011646827682852745, 0.07602281123399734, 0.004749459680169821, -0.19866012036800385, 0.012177170254290104, -0.04563320800662041, 0.10264920443296432, -0.0020608690101653337, -0.02490786649286747, 0.039541177451610565, 0.06534326821565628, -0.07908117026090622, -0.007027542218565941, -0.0014898391673341393, 0.04187300056219101, 0.03298855572938919, 0.008321741595864296, 0.017954209819436073], [-7.863545761210844e-05, -0.00014060435933060944, 1.1755144441849552e-05, -8.321445056935772e-05, 7.835753785911947e-05, -1.1177285159646999e-05, -0.0002457020746078342, -3.882388682541205e-06, -1.2362647794361692e-05, -0.0011284409556537867, 0.0005456743529066443, -9.881081496132538e-05, 0.0009572250419296324, -0.0013434443389996886, 1.0322550224373117e-05, -1.1891464737345814e-06, 0.00038585919537581503, 0.00011759680637624115, -9.44353018894617e-07, 9.170141197500925e-07, -4.913457451038994e-05, 0.0014188461937010288, -0.0002408356813248247, 0.00019297792459838092, -7.383517299786035e-07, -5.1542476285248995e-05, 2.9407699912553653e-05, 0.0008244194905273616, 0.0007157349027693272, -1.2964772395207547e-05, -0.0002641159517224878, 0.00017551147902850062, -1.923743366205599e-05, -0.00020380721252877265, -0.0001422985951649025, -1.1761014320654795e-05, 0.0003356747911311686, -0.00030179889290593565, 0.00024718893109820783, 7.616079528816044e-05], [0.00950989592820406, -0.03943200781941414, -0.0033530325163155794, 0.0023486874997615814, 0.007031112909317017, 0.0008145535830408335, 0.04509435221552849, 0.0032677333801984787, 0.0012616525636985898, 0.06935728341341019, -0.016721248626708984, -0.02130988985300064, -0.051995787769556046, 0.07391327619552612, -0.00450719753280282, -0.001645707176066935, -0.02573091723024845, 0.027840161696076393, 0.0019042580388486385, -0.001531035639345646, -0.03136376664042473, -0.07560496032238007, -0.030755246058106422, -0.013064359314739704, -0.001969962613657117, 0.10757414996623993, -0.007497985381633043, -0.0006278170039877295, -0.04711894690990448, 0.0011095372028648853, -0.0036049301270395517, -0.047817379236221313, -0.04034372419118881, 0.05227487534284592, -0.0026933506596833467, 0.0013606944121420383, -0.028179790824651718, -0.011398173868656158, -0.07150294631719589, -0.013021809980273247], [0.0001544918050058186, -0.00022463119239546359, -1.7901178580359556e-05, -4.362893014331348e-05, 0.00014390793512575328, 9.088788829103578e-06, 5.607728962786496e-05, 7.76331580709666e-06, 1.3557915735873394e-05, -0.0002055815130006522, 5.504436558112502e-05, 4.080976214027032e-05, 0.0003520777390804142, -0.00022290076594799757, -1.0250179911963642e-05, -3.2823215860844357e-06, -7.312390516744927e-05, -6.399252742994577e-05, 3.187021548001212e-06, -2.1390451365732588e-06, -0.0001826452644309029, 0.0002278712927363813, 5.513506039278582e-05, 0.00011644767073448747, -1.303150929743424e-05, -2.2433419871958904e-05, -1.936248918354977e-05, 0.00010340462176827714, 0.00017674799892120063, 1.3985718396725133e-05, 0.00017671070236247033, 0.00021291853045113385, -0.00025941073545254767, 7.4064897489734e-05, 3.306689905002713e-06, 6.79125059832586e-06, -1.8192986317444593e-05, 9.985498763853684e-05, -0.00022835310664959252, -3.320060932310298e-05], [-0.00024487817427143455, -6.058389408281073e-05, 2.0498584490269423e-05, -0.0001588045561220497, 8.631023774796631e-06, -2.144555764971301e-05, -0.00020670969388447702, 6.028254119883059e-06, -1.9785638869507238e-05, -0.000986857688985765, 0.0007011847337707877, -9.478421998210251e-05, 0.0006407580222003162, -0.0011646762723103166, -1.041222276398912e-06, -8.629866897535976e-06, 0.0004390207177493721, 0.00015569572860840708, 1.923568788697594e-06, -2.4541070615669014e-06, -4.104483195987996e-06, 0.0012269116705283523, -0.00015901199367363006, 7.309752982109785e-05, 1.5962781390044256e-06, -0.0002094306400977075, 2.0869640138698742e-05, 0.0010153590701520443, 0.0007697481196373701, -2.1901038053329103e-05, -0.0003621975483838469, 0.00020602050062734634, 2.7989150112261996e-05, -0.00020870841399300843, -0.00030952628003433347, -2.0548657630570233e-05, 0.0004070912254974246, -0.0002657450386323035, 0.0003051002277061343, 6.813362415414304e-05], [0.014989758841693401, 0.054110631346702576, -0.001067951787263155, 0.017256787046790123, -0.003887714585289359, -0.00089791149366647, 0.053111761808395386, 0.0019046883098781109, -0.00022623313998337835, 0.1737755686044693, -0.007804438006132841, -0.011374641209840775, -0.06638149917125702, 0.1930863857269287, -0.0027398744132369757, -0.0009918303694576025, -0.040685877203941345, 0.010485815815627575, 0.000696381670422852, -0.0008126162574626505, 0.03586806729435921, -0.19974757730960846, 0.048914551734924316, -0.0519694983959198, 0.00025900284526869655, 0.02400156855583191, -0.004399052821099758, 0.00843319483101368, -0.08616028726100922, -0.00045889054308645427, -0.00723247742280364, -0.01812480390071869, -0.0014775162562727928, 0.034092456102371216, -0.00011696234287228435, -0.00046603221562691033, -0.05978868156671524, -0.011559443548321724, 0.020769869908690453, -0.007357410155236721], [0.04299137741327286, 0.23395445942878723, 0.0035275856498628855, -0.03143541142344475, 0.06378281861543655, 0.011139062233269215, 0.006549481768161058, -0.015282770618796349, 0.008883596397936344, -0.010633246973156929, 0.0024799907114356756, 0.045352816581726074, 0.5586753487586975, -0.01615000143647194, 0.014437852427363396, 0.013471444137394428, -0.1896039992570877, 0.002064574509859085, -0.00819567870348692, 0.008957675658166409, 0.1907694786787033, 0.04800393432378769, 0.10810626298189163, -0.09090813249349594, -0.001278340583667159, -0.015404614619910717, 0.013410581275820732, 0.05092446133494377, -0.005248398054391146, 0.010454303584992886, -0.02039106748998165, 0.0821148008108139, 0.025384876877069473, -0.10074695199728012, 0.00911315530538559, 0.009261779487133026, -0.05881085619330406, 0.0034421610180288553, 0.026137635111808777, 0.00725506292656064], [0.1406489908695221, 0.13014493882656097, -0.014186471700668335, 0.11251257359981537, -0.04463179409503937, -0.0023627399932593107, 0.044565651565790176, 0.010269473306834698, 0.0019941062200814486, 0.1696312129497528, -0.05405227094888687, 0.0317024327814579, 0.12480461597442627, 0.548691987991333, -0.011655380949378014, -0.009408933110535145, -0.07354532182216644, 0.05011126399040222, 0.007340436801314354, -0.007537384517490864, 0.13199570775032043, -1.0395864248275757, 0.22044366598129272, -0.1837494969367981, -0.007940918207168579, 0.09760507196187973, -0.012781507335603237, 0.006946823559701443, 0.10809487104415894, 0.0013749164063483477, -0.04759855940937996, 0.03504505008459091, -0.01211294624954462, 0.053250860422849655, -0.012973660603165627, -0.0014333435101434588, -0.2608814537525177, 0.013464991934597492, 0.17202883958816528, -0.014288011007010937], [0.02021920122206211, 0.10671595484018326, 0.001739404397085309, 0.010849598795175552, 0.0011781570501625538, 0.00030971955857239664, 0.050111524760723114, 0.0015355502255260944, -0.004216575063765049, 0.19547009468078613, -0.05415571480989456, 0.005857723765075207, -0.10305372625589371, 0.24605992436408997, -0.0036520573776215315, 0.004629474598914385, -0.08244836330413818, -0.054555755108594894, -0.006632369011640549, 0.006522966083139181, 0.07297314703464508, -0.25661998987197876, 0.06700225919485092, -0.10200661420822144, 0.01157116424292326, -0.12358401715755463, -0.005728849209845066, -0.009675202891230583, -0.13351856172084808, -0.0017022272804751992, -0.025945773348212242, 0.03404076769948006, 0.05242877081036568, 0.036851849406957626, -0.0017699050949886441, -0.0043863290920853615, -0.08172918111085892, 0.006480920594185591, 0.05141853541135788, -0.010077820159494877], [0.028439858928322792, 0.05334370210766792, -0.0009847350884228945, 0.01380310021340847, -0.005096095148473978, -0.0010332961101084948, 0.0658138245344162, 0.002202053787186742, -0.00033035024534910917, 0.20429673790931702, -0.005851313937455416, -0.004332954529672861, -0.05853450670838356, 0.22828461229801178, -0.0029924518894404173, -0.001250759931281209, -0.027982346713542938, 0.010150665417313576, 0.0008512556669302285, -0.0009822623105719686, 0.03132714703679085, -0.23656414449214935, 0.056964945048093796, -0.08514156192541122, 0.00046103299246169627, -0.0034117011819034815, -0.0043026055209338665, 0.004734072834253311, -0.09966383129358292, -0.0006257453933358192, -0.027028026059269905, -0.01653851754963398, 0.037534892559051514, 0.03804215416312218, 0.0012747287983074784, -0.0006665164255537093, -0.06058197468519211, -0.0040759313851594925, 0.03605392575263977, -0.006263831630349159], [0.00018063686729874462, -0.0002600954321678728, -1.9598986909841187e-05, -0.00011380246724002063, 0.00016250567568931729, 9.934018635249231e-06, 0.00020083064737264067, 9.664063327363692e-06, 1.5195421838143375e-05, -8.864802657626569e-05, 7.258973255375167e-06, 4.62273383163847e-05, 0.00032887441921047866, -0.00010858876339625567, -1.773046278685797e-05, -8.216581477427098e-07, -0.00021082248713355511, -0.000126439961604774, 2.1757259673904628e-06, -1.1173427765243105e-06, -0.00023676316777709872, 0.00011423535761423409, 0.00013364269398152828, 0.00015984430501703173, -1.0114019460161217e-05, 4.893849836662412e-05, -4.2730567656690255e-05, -2.8837097488576546e-05, 5.302886347635649e-05, 1.6171077731996775e-05, 0.00024387225857935846, 0.00016057265747804195, -0.00035380147164687514, 0.00013561102969106287, 2.015324389503803e-05, 7.686036951781716e-06, -0.00010827870573848486, 0.00017439409566577524, -0.0002941427519544959, -9.305994171882048e-05], [0.00019873722339980304, -0.00022685948351863772, -1.50082960317377e-05, -4.372187322587706e-05, 9.348606545245275e-05, 9.791619049792644e-06, 5.205197521718219e-05, 5.180126208870206e-06, 1.2749601410178002e-05, -0.00022278353571891785, 9.937827417161316e-05, -1.1347596228006296e-05, 0.00033435138175264, -0.00024052175285760313, -7.1575182118976954e-06, -5.301595820128568e-07, -8.751912901061587e-06, -1.8213855582871474e-05, 2.1078694771858864e-06, -1.7894581105792895e-07, -0.00017589228809811175, 0.0002459863026160747, -0.00013702930300496519, 8.126961620291695e-05, -1.4159493730403483e-05, 0.00024771987227723, -1.3795533050142694e-05, 0.0002592875389382243, 0.00021027593174949288, 1.2041767149639782e-05, 0.0001254115777555853, 7.824748172424734e-05, -0.00025537857436574996, 0.00013433398271445185, -4.018653999082744e-05, 9.836044227995444e-06, 1.8063030438497663e-05, -8.570970749133267e-06, -6.158249016152695e-05, -1.4047292097529862e-05], [-0.04446115344762802, 0.09201615303754807, 0.0025624020490795374, -0.01507283840328455, 0.024436751380562782, -0.002582167973741889, -0.009993942454457283, -0.0008412075112573802, -0.0026703595649451017, -0.02240152284502983, 0.060316234827041626, 0.06206194683909416, 0.13873130083084106, -0.09286116808652878, 0.0010052081197500229, -0.0009750877507030964, -0.09509941935539246, 0.06554421782493591, -0.0010640789987519383, -0.00020014938490930945, 0.03714050352573395, 0.13800370693206787, 0.00352455023676157, -0.018979454413056374, 0.004167382605373859, 0.06723051518201828, 0.0004102208185940981, 0.03323834761977196, 0.04197528213262558, -0.002955592703074217, -0.04190389811992645, 0.037698518484830856, -0.17220787703990936, 0.07859747856855392, -0.023061184212565422, -0.0030324154067784548, 0.00951391737908125, -0.038749124854803085, -0.0816541463136673, -0.008008070290088654], [0.013028853572905064, 0.11185281723737717, -0.002083989093080163, 0.05214466154575348, -0.029802462086081505, -0.0027408869937062263, 0.07016021758317947, 0.007950641214847565, -0.0016759587451815605, 0.1957731992006302, -0.0410926528275013, -0.039684344083070755, -0.06474875658750534, 0.42449620366096497, -0.008391939103603363, -0.004312213510274887, -0.014029952697455883, -0.022529367357492447, 0.0016613032203167677, -0.0017122029094025493, 0.031228840351104736, -0.5229087471961975, 0.13984568417072296, -0.09601147472858429, -0.0015895182732492685, 0.0682530477643013, -0.010813101194798946, 0.012946134433150291, -0.11743493378162384, -0.0025883973576128483, -0.004280117340385914, -0.04159875959157944, 0.07288117706775665, 0.06973765790462494, -0.0011736907763406634, -0.0018068489152938128, -0.12552201747894287, 0.025165600702166557, 0.006357360165566206, -0.013563638553023338], [0.0001372281985823065, -0.000289236573735252, -4.389562036521966e-06, -0.00011458557128207758, 4.2316481994930655e-05, 2.797706201818073e-06, 0.00013268236943986267, 6.60440946376184e-06, 3.739744897757191e-06, -7.700104470131919e-05, 0.0001908499252749607, 9.276772470911965e-05, 7.168191950768232e-05, -9.290549496654421e-05, -9.481645065534394e-06, -2.7267003588349326e-06, 6.339171522995457e-05, 1.2680832696787547e-05, 1.0166313586523756e-06, -1.3451162885758094e-06, -0.00026981550035998225, 9.878097625914961e-05, -6.65419502183795e-05, -8.367513510165736e-05, -1.4647231409981032e-06, 0.000155905494466424, -1.5262112356140278e-05, -2.2213513148017228e-05, -7.38108553832717e-07, 3.7760462419100804e-06, 1.561271164973732e-05, -5.8674911997513846e-05, -0.00010919106716755778, 0.0001484831009292975, -1.1661881217150949e-05, 8.834336995278136e-07, 9.037738345796242e-05, 9.294267510995269e-05, -0.0001705810718704015, -2.4848890461726114e-05], [0.00016155037155840546, -0.00025815112167038023, -8.618188985565212e-06, -8.461237302981317e-05, 6.724095874233171e-05, 4.804322998097632e-06, 0.000141347962198779, 7.5122020462004e-06, 6.245530585147208e-06, -3.6101755540585145e-05, 8.938078099163249e-05, 5.388424324337393e-05, 9.690540173323825e-05, -4.8061781853903085e-05, -1.026774862111779e-05, -3.769077466131421e-06, -2.1230853235465474e-05, -6.814551852585282e-06, 2.7279083951725625e-06, -2.5629981337260688e-06, -0.00024091656086966395, 5.213179247220978e-05, -4.1803297790465876e-05, -1.808761226129718e-05, -5.644371867674636e-06, 0.00021712442685384303, -1.7301857951679267e-05, 6.997655873419717e-06, -1.30871994770132e-05, 5.8565988183545414e-06, 6.486925849458203e-05, -5.911631160415709e-05, -0.0001766683126334101, 0.00016461969062220305, 1.2471454283513594e-05, 3.581239525374258e-06, 1.767173330335936e-06, 4.8749228881206363e-05, -0.00012111993419239298, -2.689605207706336e-05], [-0.0006689208676107228, -0.013232875615358353, -0.0029086649883538485, 0.012654450722038746, -0.01757211796939373, 0.0019613599870353937, 0.055134762078523636, 0.00455506332218647, 0.0017216387204825878, 0.129701629281044, -0.006048527546226978, -0.03230169788002968, -0.07480090111494064, 0.16167160868644714, -0.0062798322178423405, -0.0022776778787374496, -0.032897867262363434, -0.006980395410209894, 0.0027353393379598856, -0.002298312960192561, -0.020426152274012566, -0.1678312122821808, 0.029481658712029457, 0.005341414827853441, -0.0006599159678444266, 0.1262366622686386, -0.01075766421854496, -0.0038082271348685026, -0.11502128094434738, 0.0012834331719204783, 0.025318019092082977, -0.0709252804517746, -0.0948949083685875, 0.04331206530332565, -0.021267332136631012, 0.0025166203267872334, -0.04940693452954292, -0.003715645521879196, -0.10751158744096756, -0.024126773700118065], [0.02776026912033558, 0.06015390157699585, 1.452992273698328e-05, 0.014951539225876331, -0.0045737274922430515, -0.001944347401149571, 0.06444863229990005, 0.002725696424022317, -0.0011588355991989374, 0.21323874592781067, 0.0038931607268750668, -0.0014123390428721905, -0.057500313967466354, 0.24289382994174957, -0.0033872469794005156, -0.0017232380341738462, -0.029104625806212425, 0.014740786515176296, 0.0008283799979835749, -0.0010755134280771017, 0.03725508227944374, -0.2519010901451111, 0.06612420827150345, -0.09367431700229645, 0.0011601133737713099, -0.015551256015896797, -0.004083671607077122, 0.005586942657828331, -0.1055317148566246, -0.001483430969528854, -0.028614293783903122, -0.012150365859270096, 0.044373735785484314, 0.03833015263080597, 0.0010883102659136057, -0.001415131613612175, -0.06098341569304466, -0.004809038247913122, 0.043167777359485626, -0.0055036647245287895], [-0.1406235545873642, 0.05319475010037422, 0.0011958158574998379, -0.006759903393685818, 0.07847355306148529, 0.0068505448289215565, -0.038195908069610596, -0.0021492023952305317, 0.0065294490195810795, 0.010884344577789307, -0.01426316611468792, -0.05904681608080864, 0.11562368273735046, -0.10072948038578033, 0.002587582916021347, 0.002319843042641878, -0.033463284373283386, -0.07095351815223694, -0.001949066063389182, 0.0019060025224462152, 0.04881075397133827, 0.1694551408290863, 0.2108708769083023, -0.0059435805305838585, -0.0034573443699628115, 0.17142078280448914, 0.001405692775733769, 0.05641387403011322, 0.0279284305870533, 0.00630471995100379, 0.020845724269747734, -0.07475876063108444, -0.11475183814764023, 0.005014553666114807, 0.0089392876252532, 0.005719192326068878, 0.0507996566593647, 0.02896795980632305, -0.0589611642062664, -0.004717827774584293], [0.030958853662014008, -0.07719115912914276, 0.003524492960423231, -0.059621188789606094, 0.04024912044405937, -0.004799026995897293, 0.048023778945207596, -0.001414434751495719, -0.005125768017023802, -0.0151143167167902, 0.13353890180587769, -0.018838007003068924, 0.055814001709222794, 0.015192607417702675, 0.002190033672377467, -0.0014022247632965446, 0.030292898416519165, 0.046761106699705124, -0.0014519994147121906, 0.000491510087158531, -0.07675260305404663, -0.02091052569448948, -0.12276967614889145, -0.179216668009758, 0.007118990179151297, -0.09953074902296066, 0.005528763402253389, 0.08851394802331924, 0.098741814494133, -0.005526450928300619, -0.03633265569806099, 0.16765253245830536, -0.0682743638753891, -0.00803976971656084, 0.01836409792304039, -0.005011960864067078, 0.039298854768276215, -0.030390238389372826, -0.06279148161411285, 0.015939125791192055], [-0.0004269707133062184, -0.00016006312216632068, 2.8141041184426285e-05, -0.0003463728353381157, 0.0002068417816190049, -2.4623161152703688e-05, -7.366163481492549e-05, 1.5812847777851857e-06, -2.841181958501693e-05, -0.000988661777228117, 0.0011036732466891408, 3.0229127787606558e-06, 0.00020137519459240139, -0.0011692163534462452, -1.4104849697105237e-06, 4.24426480094553e-06, 0.0007015838054940104, 0.00017555295198690146, -3.751050599021255e-06, 6.159635177027667e-06, -6.30820359219797e-05, 0.0012316599022597075, -0.0003832678485196084, -0.00028679455863311887, -6.574352937604999e-06, -0.0001725117617752403, 2.3500065253756475e-06, 0.0007137592183426023, 0.0006361788255162537, -2.2445310605689883e-05, -0.0006890405784361064, -0.00022389869263861328, 0.0003893749963026494, -0.00018317221838515252, -0.00015676027396693826, -3.064513293793425e-05, 0.0008716945885680616, -7.464902591891587e-05, 0.00035381742054596543, -2.0742560081998818e-05], [0.08071891963481903, -0.04760074242949486, -0.005020910408347845, -0.006710489746183157, 0.002850131131708622, 0.002402391517534852, 0.06730318069458008, 0.0076658884063363075, 0.004048285540193319, 0.14819636940956116, -0.09206309914588928, 0.016061021015048027, -0.04661760479211807, 0.20182529091835022, -0.009015307761728764, -0.00476366700604558, -0.02737884782254696, -0.008031351491808891, 0.004242439288645983, -0.004243434406816959, -0.007657991256564856, -0.20758704841136932, -0.07227229326963425, -0.10387133806943893, -0.005197567865252495, 0.18145976960659027, -0.012805805541574955, 0.036879025399684906, -0.12376820296049118, 0.0034698019735515118, -0.12423039227724075, -0.19340698421001434, 0.040208447724580765, 0.01786099746823311, -0.01757296361029148, 0.0025862115435302258, -0.14145515859127045, -0.0005357214831747115, 0.06361939758062363, -0.01976837031543255], [-0.00032482901588082314, 8.137112308759242e-05, 1.1256820471317042e-05, -0.00037541482015512884, 0.00017039861995726824, -9.636994946049526e-06, 0.000341232429491356, 3.3605811040615663e-06, -8.690307367942296e-06, 0.00014165061293169856, 1.8250935681862757e-05, -2.605529743959778e-06, 0.0002620361337903887, 9.7695279691834e-05, -2.488958307367284e-05, 1.5373349015135318e-05, -0.00039677825407125056, -8.716549928067252e-05, -9.159301043837331e-06, 9.735610547068063e-06, 8.038841042434797e-05, -8.535259257769212e-05, 0.0003094299172516912, 0.0003749858005903661, 1.8421069398755208e-05, 0.00021789864695165306, -9.171838610200211e-05, 2.5931094569386914e-05, -0.00020183257583994418, -5.8808627727557905e-06, 0.00016283818695228547, -0.00015658872143831104, -0.00037616651388816535, -2.156906521122437e-05, -0.00029026172705926, -9.799521649256349e-06, -0.00026605374296195805, 0.0002608720678836107, -0.0004625469446182251, -0.00023889727890491486], [0.07977349311113358, 0.11671328544616699, 0.00013624502753373235, 0.055778857320547104, -0.03327871114015579, -0.004373765550553799, 0.052627082914114, 0.004991814959794283, -0.003725967137143016, 0.13441063463687897, 0.11131523549556732, 0.08347306400537491, 0.010172528214752674, 0.35192984342575073, -0.006544841453433037, -0.004146437160670757, -0.07787700742483139, 0.06834112852811813, 0.001990137854591012, -0.0033724536187946796, 0.043334200978279114, -0.6193240880966187, 0.08167966455221176, -0.09522100538015366, 0.005762998480349779, 0.11218507587909698, -0.00965457409620285, 0.08526661992073059, -0.033694274723529816, -0.0044389148242771626, -0.008561254478991032, -0.01427327562123537, -0.012688794173300266, 0.041423775255680084, -0.10736842453479767, -0.003593344707041979, -0.1023627445101738, -0.02894635684788227, 0.07144365459680557, -0.012748449109494686], [0.005466004367917776, 0.029156047850847244, 0.0009247766574844718, 0.03325976803898811, 0.02137041836977005, -0.0023780507035553455, 0.01618334650993347, 0.005222116596996784, -0.0012893214588984847, 0.10068872570991516, 0.05804422125220299, 0.03649602085351944, 0.005663248710334301, 0.14722840487957, -0.006695310119539499, -0.0032938243821263313, 0.021191518753767014, 0.018147649243474007, 0.0022576937917619944, -0.00251592556014657, 0.02133314684033394, -0.1550678014755249, -0.0395074300467968, 0.002042710781097412, 0.0002425755374133587, 0.08458541333675385, -0.007972131483256817, 0.09009768813848495, 0.024182608351111412, -0.0015229650307446718, -0.12675754725933075, -0.15323340892791748, 0.05764973536133766, -0.008413644507527351, -0.051614802330732346, -0.0025787856429815292, -0.0499572679400444, 0.03535667806863785, -0.015953412279486656, -0.01163491327315569], [-0.00024261097132693976, 1.8242040823679417e-05, 2.066884917439893e-05, -0.0001501440565334633, 6.24965105089359e-06, -1.7212454622494988e-05, -0.00022433875710703433, 2.1263761027512373e-06, -1.7179016140289605e-05, -0.0008967782487161458, 0.0006938769365660846, -5.782721927971579e-05, 0.0006551580154336989, -0.0010558016365393996, 4.03233843826456e-06, -5.2590253289963584e-06, 0.0004852249985560775, 8.416872879024595e-05, 6.512481149911764e-07, -1.2103390645279433e-06, 5.6616656365804374e-05, 0.0011116975219920278, -0.0001596399088157341, 4.208466270938516e-05, 2.7898313419427723e-06, -0.0002012779441429302, 2.8718739486066625e-05, 0.0009045822080224752, 0.0007364854100160301, -1.831969348131679e-05, -0.0004218081012368202, 0.0001802289334591478, 9.891797526506707e-05, -0.00023255312407854944, -0.0002546734467614442, -1.716325459710788e-05, 0.00039695148007012904, -0.00021155193098820746, 0.0002245218784082681, 8.13123260741122e-05], [-0.09981724619865417, 0.17631004750728607, -0.0023981695994734764, -0.00012647215044125915, -0.06320413947105408, 0.003826974891126156, -0.02857610210776329, 0.005662885494530201, 0.005892213899642229, -0.02188839763402939, -0.009641419164836407, -0.0026369087863713503, 0.2838146388530731, -0.08405642211437225, -0.008471652865409851, -0.00013678694085683674, -0.09708577394485474, -0.029808783903717995, -6.3089792092796415e-06, 5.2963398047722876e-05, 0.09513344615697861, 0.1045667752623558, -0.10030607134103775, 0.0023022103123366833, -0.0035841958597302437, 0.10031677037477493, -0.012565860524773598, -0.03817884996533394, 0.014027598313987255, 0.0053337374702095985, -0.07271818071603775, 0.05767083168029785, -0.12880931794643402, -0.19664618372917175, -0.0767139345407486, 0.004937281366437674, 0.07579584419727325, 0.03168288990855217, -0.12320535629987717, -0.021090280264616013], [-0.008095119148492813, 0.10554828494787216, 0.00561142060905695, 0.001567305764183402, 0.023885875940322876, -0.009774906560778618, 0.05589151754975319, 0.009664427489042282, -0.007246237713843584, 0.1430879682302475, 0.024859873577952385, 0.0006587148527614772, -0.008553991094231606, 0.20974649488925934, -0.010447409935295582, -0.008005117997527122, 0.012692585587501526, -0.004091658629477024, 0.002059242222458124, -0.0037178758066147566, 0.06370605528354645, -0.2197425663471222, -0.054494548588991165, -0.11206559091806412, 0.00704938592389226, 0.026922045275568962, -0.010015917010605335, -0.004582355264574289, -0.10988644510507584, -0.008630774915218353, -0.0384787917137146, 0.035135671496391296, 0.08066931366920471, -0.015675168484449387, 0.08062360435724258, -0.00761015759781003, -0.06622746586799622, -0.013028434477746487, -0.1327418088912964, -0.013570643030107021], [-0.002223361749202013, 0.10969963669776917, 0.0035893006715923548, -0.043942540884017944, -0.05209950730204582, 0.004626321606338024, -0.04203804209828377, -0.00596896605566144, 0.004426188301295042, -0.008729257620871067, -0.044312138110399246, 0.07825277745723724, 0.07770736515522003, -0.11196255683898926, 0.005638218484818935, 0.004388671834021807, -0.0560457706451416, -0.053112998604774475, -0.003047073259949684, 0.0025778987910598516, 0.08805002272129059, 0.18679507076740265, -0.0009006587788462639, 0.07436882704496384, 0.0030056757386773825, 0.14946873486042023, 0.0030256465543061495, 0.021524691954255104, 0.03884221240878105, 0.004178973846137524, -0.1533806473016739, -0.1363321840763092, 0.12400226294994354, -0.030290300026535988, -0.03713345527648926, 0.004976930562406778, -0.025834504514932632, -6.161574128782377e-05, -0.07729252427816391, 0.0003058989532291889], [0.08719710260629654, -0.25343671441078186, 0.00026310959947295487, -0.0012413335498422384, -0.057456765323877335, 0.0010703983716666698, 0.002818273613229394, -0.002119167009368539, 0.0005169656942598522, -0.19051185250282288, -0.08956064283847809, 0.028863413259387016, 0.2734360694885254, -0.20943477749824524, 0.0026477717328816652, 0.00046495135757140815, 0.02033354341983795, -0.0034774611704051495, -0.00010125528933713213, -7.92775972513482e-05, -0.22717465460300446, 0.2147080898284912, -0.09180749952793121, 0.06036759540438652, 0.00021944007312413305, -0.0610290989279747, 0.00609839241951704, -0.0006771982298232615, 0.14535781741142273, 0.0010126987472176552, -0.02299690619111061, 0.05186108872294426, -0.025651773437857628, 0.05209661275148392, -0.10313057154417038, 4.2564948671497405e-05, 0.006622552406042814, -0.010584767907857895, -0.05837905779480934, 0.01644929125905037], [-0.10690080374479294, 0.10327104479074478, 0.00425682170316577, -0.05491730943322182, 0.01828855462372303, 0.004108125809580088, 0.0051916311495006084, -0.0037301061674952507, 0.003703333204612136, -0.08272571861743927, -0.015662681311368942, 0.024173015728592873, 0.1345500349998474, -0.17707552015781403, 0.0023806907702237368, 0.00489730853587389, -0.1346663534641266, 0.00677140336483717, -0.004579894244670868, 0.004476914182305336, 0.07574910670518875, 0.2085152268409729, 0.100494384765625, -0.02028760500252247, -0.0009521093452349305, 0.16874657571315765, -0.0004416941956151277, 0.048437315970659256, -0.0031776174437254667, 0.0038280177395790815, -0.17431145906448364, -0.17568561434745789, 0.12054600566625595, -0.010517630726099014, -0.022542908787727356, 0.002164672827348113, -0.03034638985991478, -0.005620955023914576, -0.06094202771782875, -0.0037729667965322733], [-0.00013386859791353345, -6.287059659371153e-05, 1.9064978914684616e-05, -6.901310553075746e-05, 5.388155477703549e-05, -2.408656473562587e-05, -0.00016263453289866447, 6.885269613121636e-06, -2.296125421707984e-05, -0.0008142964215949178, 0.0004932508454658091, -0.0001339002774329856, 0.0006368059548549354, -0.0009701797971501946, -2.346015662624268e-06, -1.3166783901397139e-05, 0.00029791489941999316, 0.00013805287017021328, 2.2436902327171993e-06, -4.1274142859037966e-06, 1.1627379535639193e-05, 0.0010241924319416285, -0.00010433723946334794, 6.913182005519047e-05, 1.0462622412887868e-05, -0.00017359953199047595, 2.0610372303053737e-05, 0.0008874099003151059, 0.000601824140176177, -2.4893863155739382e-05, -0.00019062953651882708, 0.0002679356257431209, 6.194021261762828e-05, -0.00014211369853001088, -0.0002284157380927354, -2.237445005448535e-05, 0.0002502232964616269, -0.0002556019462645054, 0.00020581184071488678, 7.550725422333926e-05], [-0.05046609789133072, 0.03372882306575775, 0.0008562663570046425, 0.018229931592941284, -0.015151336789131165, -0.0025071280542761087, -0.00831944216042757, 8.448315202258527e-05, -0.002593488432466984, 0.007140646688640118, -0.08040432631969452, -0.006848951801657677, -0.13522107899188995, 0.01160184945911169, 0.00040296398219652474, -0.001048480742610991, -0.128151997923851, -0.027482448145747185, 1.3610714631795418e-05, -0.00034492090344429016, 0.04165647178888321, -0.013927302323281765, 0.027648374438285828, 0.033805206418037415, 0.0039294264279305935, -0.12928354740142822, 0.0006862932350486517, -0.029264451935887337, 0.07285558432340622, -0.0028861372265964746, 0.029089342802762985, 0.14209991693496704, -0.017654981464147568, -0.040921781212091446, 0.022260501980781555, -0.0020020287483930588, -0.009574628435075283, -0.007678888738155365, -0.07733315229415894, -0.0012168821413069963], [-0.08895686268806458, 0.13658443093299866, -0.0005037912633270025, 0.013812419027090073, 0.005549487192183733, 0.009142558090388775, -0.05628462880849838, -0.007780550979077816, 0.006769991014152765, -0.07988178730010986, 0.04915042221546173, 0.057813551276922226, 0.08812211453914642, -0.1260063499212265, 0.005267895292490721, 0.006654819939285517, 0.009696343913674355, -0.011261598207056522, -0.004254430066794157, 0.003961277659982443, 0.13526786863803864, 0.13370798528194427, -0.07789289951324463, 0.029186008498072624, -0.0009557531448081136, 0.07229451835155487, 0.002702805446460843, -0.015308957546949387, 0.009834645316004753, 0.008033203892409801, -0.025545943528413773, -0.033518750220537186, -0.009246810339391232, -0.045098308473825455, -0.09191650152206421, 0.0079289386048913, 0.050016410648822784, 0.0961640477180481, 0.015115085989236832, -0.0008401073282584548], [-0.008454779163002968, 0.06418582051992416, -0.0029922290705144405, 0.0006101930048316717, -0.005697330459952354, 0.00047036109026521444, 0.06566796451807022, 0.004606383386999369, 0.0027422942221164703, 0.14685386419296265, -0.051281046122312546, -0.05744946002960205, -0.1098375990986824, 0.21199147403240204, -0.007791906129568815, -0.001104838214814663, 0.02312614396214485, 0.019068773835897446, 0.0008520160336047411, -0.0009771488839760423, 0.014354667626321316, -0.22300267219543457, 0.0246735829859972, -0.05597943067550659, 0.00042916813981719315, -0.013435455970466137, -0.013561896979808807, 0.07081613689661026, -0.0650530457496643, 0.000991604058071971, 0.008813139982521534, -0.005687522701919079, 0.03653997927904129, 0.030956590548157692, -0.03404013812541962, 0.0023164565209299326, -0.07175848633050919, -0.00897776335477829, -0.06125423684716225, -0.026168007403612137], [-0.0007572071044705808, -0.00037164759123697877, 0.00023823489027563483, 2.4647044483572245e-05, -0.0009720848174765706, -6.606079114135355e-05, 2.332141957595013e-05, -6.469798245234415e-05, -9.804543515201658e-05, 0.00036207365337759256, 0.000780286849476397, -0.0012011051876470447, -0.00047993072075769305, 0.00028869759989902377, 1.535488809167873e-05, 0.00010989618021994829, 0.001722608576528728, -0.0001230708439834416, -5.4454736527986825e-05, 5.7404671679250896e-05, -0.0003481741587165743, -0.00026648881612345576, 0.0005781608633697033, 0.0016306804027408361, 4.806132346857339e-05, 0.001448039198294282, -9.209002746501938e-05, 0.0007086122059263289, 6.38757337583229e-05, -0.00011845249537145719, 0.0008677416481077671, -0.0009110947139561176, -0.00027224517543800175, -0.0008245975477620959, -0.0020058462396264076, -5.689498721039854e-05, -0.0009204249363392591, 0.0008122556027956307, -0.0020969922188669443, -0.00028996975743211806], [0.2167331874370575, -0.2669835090637207, -0.0032665240578353405, -0.1381707489490509, 0.048201411962509155, 0.002110134344547987, 0.08079525083303452, 0.0045648422092199326, 0.007852484472095966, -0.014643784612417221, -0.24379511177539825, 0.05167325586080551, -0.016348615288734436, 0.05319542810320854, -0.003989537712186575, -0.006119855213910341, 0.20719370245933533, -0.0026878523640334606, 0.005902447737753391, -0.005161661189049482, -0.08175630867481232, 0.0021088109351694584, 0.11607146263122559, -0.06359568983316422, -0.007568560540676117, -0.042882680892944336, -0.003664785996079445, -0.03405033424496651, 0.017138337716460228, 0.00399065250530839, -0.11612524837255478, 0.04282141476869583, -0.09397870302200317, 0.3187970221042633, 0.08840213716030121, 0.004839014261960983, -0.22804053127765656, -0.04695763438940048, 0.1501615345478058, -0.0006732775364071131], [-0.0698171928524971, 0.34439101815223694, -0.006654214113950729, 0.028902508318424225, -0.015481628477573395, -0.008111760951578617, -0.09225452691316605, -0.005233383271843195, -0.004935540724545717, 0.025493156164884567, 0.04556380584836006, 0.04062896594405174, -0.0038442127406597137, 0.05221843719482422, 0.005505081731826067, 0.00739579601213336, 0.019745035097002983, 0.04996059462428093, 0.0025474950671195984, 0.00016802595928311348, 0.19414110481739044, -0.09564274549484253, 0.1409803032875061, 0.046065449714660645, -0.00402788445353508, 0.0025106233078986406, 0.003922635689377785, 0.027546076104044914, -0.011237743310630322, -0.0043386295437812805, 0.04038695618510246, 0.02222234383225441, -0.043372347950935364, -0.11886533349752426, -0.0857861116528511, -0.006692538969218731, -0.006150891538709402, -0.04720718786120415, 0.2594553828239441, 0.0043505155481398106], [-0.004405385348945856, -0.005175432655960321, -0.001178690348751843, -0.0010962076485157013, -0.002082779072225094, 0.0009027272462844849, -0.0004632278869394213, 0.00016664268332533538, 0.0010483810910955071, -0.00035209106863476336, -0.007520952727645636, 0.0003644571406766772, -0.00480713602155447, -0.0010870975675061345, -0.00015922094462439418, -0.00011085040750913322, 0.00039489506161771715, 0.0008012859034352005, 0.00019421639444772154, -0.000154841152834706, 0.0032015482429414988, 0.0014149894705042243, 0.006797640584409237, -0.0045156520791351795, -0.0012636639876291156, -0.010654567740857601, -0.0003417434636503458, 0.00470309890806675, -0.0038359060417860746, 0.0007826590444892645, 0.003949739038944244, 0.003183106193318963, 0.014414974488317966, -0.002297127852216363, -0.0006013543461449444, 0.0011138359550386667, 0.007154335733503103, 0.004159956239163876, -0.006858262233436108, -0.0006876846891827881], [-0.28261375427246094, -0.09636001288890839, -0.004370592534542084, -1.230631947517395, -0.10044809430837631, 0.0018449198687449098, 0.019226977601647377, 0.0010665504960343242, 0.0033693762961775064, 0.01286059059202671, 0.24622584879398346, -0.03865393251180649, 0.07643266022205353, 0.020918650552630424, -0.0008634657715447247, -0.0020286596845835447, -0.06725640594959259, 0.06578515470027924, 0.0016743997111916542, -0.0013404430355876684, 0.00860932469367981, -0.078467957675457, 0.0822993665933609, 0.3072974681854248, -0.0027057447005063295, -0.055749598890542984, -0.000821608176920563, 0.08413966745138168, 0.16884036362171173, 0.0030764106195420027, 0.36885586380958557, 0.004586266819387674, -0.0351678766310215, 0.01585501991212368, 0.20809964835643768, 0.0021743427496403456, -0.3082404136657715, 0.20469528436660767, 0.09847263246774673, 0.0015442975563928485], [-0.09240595996379852, -0.021782390773296356, 0.0013080115895718336, -0.5128234028816223, -1.4138882160186768, -0.009928287006914616, -0.0024649822153151035, 0.0027152462862432003, -0.008111022412776947, -0.007631240878254175, -0.0016539747593924403, -0.11802197247743607, 0.025884123519062996, 0.010606984607875347, -0.0024571334943175316, -0.003548565786331892, -0.04720930755138397, 0.06775544583797455, 0.0053384145721793175, -0.005358376540243626, 0.001744166249409318, -0.0035700900480151176, 0.10909852385520935, 0.0640847310423851, 0.0016666128067299724, -0.0027871544007211924, -0.0002933799696620554, 0.22866570949554443, -0.05748213082551956, -0.008459020406007767, -0.11053647845983505, -0.007063084281980991, -0.07983308285474777, -0.05499511957168579, 1.2166907787322998, -0.008522892370820045, 0.07515296339988708, -1.0138851404190063, 0.03793836757540703, 0.0042398544028401375], [0.007040301337838173, 0.0036699895281344652, 0.0013478872133418918, -0.0008562053553760052, 0.00043605739483609796, -0.0017044170526787639, 0.004175638779997826, 2.4100554583128542e-05, -0.0016132135642692447, -0.002634658245369792, -0.002947369823232293, -0.0013907997636124492, 0.004943826701492071, -0.0029936423525214195, 0.00023518851958215237, -2.3096157747204416e-05, -0.0029158832039684057, 7.897630712250248e-05, -0.00023536778462585062, 0.00018648695549927652, 0.0015042447485029697, 0.003150802105665207, 0.0062346141785383224, 0.0036859409883618355, 0.0014041241956874728, 0.005971517879515886, 0.0010695348028093576, -0.0005180214648135006, -0.0011678322916850448, -0.001301526790484786, -0.014622677117586136, -0.01605381816625595, -0.0036456165835261345, 0.004385723266750574, -0.001186415203846991, -0.001884174533188343, 0.0032955820206552744, -0.001516637858003378, 0.004788932856172323, 0.0023728355299681425], [0.06203531101346016, -0.14187972247600555, -0.0046360124833881855, -0.03148479759693146, 0.005756650120019913, -0.0015808469615876675, 0.0884130597114563, -0.00045803000102750957, -0.0010344177717342973, 0.04387279227375984, -0.028458261862397194, -0.022267725318670273, 0.016001194715499878, 0.05177323520183563, 0.0031398406717926264, -0.0017045432468876243, -0.13589462637901306, -0.0005451105535030365, 0.0002109957713400945, -0.0008068304159678519, -0.11494631320238113, -0.054486025124788284, -0.061868131160736084, -0.19572480022907257, 0.0011068348539993167, 0.01647009886801243, 0.007911741733551025, -0.02793942019343376, 0.012296658009290695, -0.002001682296395302, -0.061377864331007004, 0.030293984338641167, -0.026327941566705704, 0.1216072216629982, 0.019648471847176552, -0.0004973640316165984, 0.020009005442261696, 0.03186448663473129, 0.0015692351153120399, 0.028027908876538277], [0.0014928195159882307, -0.0016319035785272717, -0.0004271404759492725, 0.0035405734088271856, 0.0007595083443447948, 0.000236013118410483, 0.0002773808955680579, -0.00024795930949039757, 0.00027519912691786885, 0.004280114080756903, 0.006647532805800438, 0.001711637363769114, -0.0011972136562690139, 0.005298115313053131, 9.223016968462616e-05, 0.00023099867394194007, 0.01244358066469431, 0.0028749483171850443, 2.9192065994720906e-05, -8.297481144836638e-06, -0.002510777674615383, -0.0055903480388224125, -0.008739156648516655, 0.0046819355338811874, -0.00012696017802227288, 0.008976730518043041, -0.00026957818772643805, -0.003771619638428092, 0.002803274430334568, 0.00028360323631204665, 0.010393367148935795, 0.010666237212717533, -0.008278404362499714, -0.0048948852345347404, 0.002094722120091319, 0.0002089024637825787, -0.008165443316102028, -0.004531148821115494, -0.003645502496510744, -0.0007541108061559498], [0.009539637714624405, 0.003325867699459195, 0.0012484765611588955, -0.0008053253404796124, 0.0015014621894806623, -0.0013085054233670235, 0.004042457789182663, 6.645665280302637e-07, -0.0014591794461011887, -0.0018868055194616318, -0.001157932449132204, -0.0009590177796781063, 0.004879603162407875, -0.001931160455569625, 0.00020854025206062943, -9.328221494797617e-05, -0.0018656207248568535, 0.000601438048761338, -0.0002709549735300243, 0.00019360154692549258, 0.005082578398287296, 0.0018733093747869134, 0.0030905490275472403, 0.004731429740786552, 0.001527047366835177, 0.0048791090957820415, 0.0008948746253736317, -0.001840599812567234, -0.00017254360136575997, -0.0011498547391965985, -0.01227708999067545, -0.015247245319187641, -0.002239326946437359, 0.00660694669932127, -0.0018876183312386274, -0.0015417071990668774, 0.0013530998257920146, -0.0012194447917863727, 0.0034061053302139044, 0.001982645830139518], [0.01717604324221611, 0.050313252955675125, -0.00050433847354725, 0.01587533950805664, -0.0037056226283311844, -0.0009990048129111528, 0.04307504743337631, 0.0012296184431761503, -0.0004316223203204572, 0.14561808109283447, -0.008563932031393051, -0.006570414174348116, -0.04033927246928215, 0.16236405074596405, -0.001777758589014411, -0.0006489244406111538, -0.033312343060970306, 0.009987841360270977, 0.00038323603803291917, -0.0005215181736275554, 0.03316587954759598, -0.16828413307666779, 0.051238689571619034, -0.04720219597220421, 0.0005925818695686758, -0.002583975438028574, -0.002752429572865367, 0.008020424284040928, -0.06948130577802658, -0.0006225000252015889, -0.00776088610291481, -0.0031604652758687735, 0.011283954605460167, 0.025356782600283623, 0.00012190119741717353, -0.000641609716694802, -0.05156036838889122, -0.009436354972422123, 0.02894596755504608, -0.004123957362025976], [-0.25884485244750977, 0.16481445729732513, 0.00090620550327003, -0.5102322101593018, 0.05276604741811752, -0.0019527132390066981, -0.02423279918730259, 0.003974910359829664, -0.0025715292431414127, -0.00913808774203062, 0.03334944695234299, 0.028919288888573647, 0.03649238497018814, -0.05821327492594719, -0.0027925660833716393, -0.004429100546985865, 1.1491281986236572, 0.12884990870952606, 0.0002637081197462976, 0.00010220438707619905, 0.1179465800523758, 0.1034395769238472, 0.04490155354142189, -0.38948631286621094, 0.0007733447127975523, -0.10397034883499146, -0.0007309001521207392, 0.2724766135215759, 0.04818877950310707, -0.0029119844548404217, -0.9954478144645691, -0.169903963804245, -0.1578267216682434, 1.2850263118743896, 0.029449129477143288, -0.002388318069279194, -0.1812249720096588, 0.29774999618530273, 0.09817791730165482, -0.0004474077722989023], [0.07359785586595535, 0.05348670110106468, -0.0003048291546292603, -0.05519837886095047, -0.10061658173799515, 0.0005571292713284492, -0.005893757101148367, 4.757316128234379e-05, 0.0006616677856072783, -0.0004404763749334961, -0.36612457036972046, 0.38176751136779785, 0.0039334469474852085, 0.007891581393778324, -9.958346345229074e-05, 9.311814937973395e-05, 0.017905117943882942, -0.15384361147880554, 0.00011274290591245517, -0.00012390699703246355, -0.017938274890184402, -0.03663275018334389, 0.02262452431023121, 0.007526048459112644, -0.0003480456070974469, 0.019307466223835945, -0.0003295796050224453, -0.05632203072309494, -0.08313386887311935, 0.000675962888635695, -0.041334155946969986, 0.06360339373350143, -0.024781661108136177, 0.02740868180990219, -0.03619547560811043, 0.0003437936247792095, 0.08682096749544144, 0.35364288091659546, -0.00863546784967184, -0.001148074516095221], [0.10799802839756012, 0.040286872535943985, -0.02435164898633957, 0.02365904487669468, 0.0016615663189440966, -0.006294704508036375, -0.003047420410439372, 0.009536915458738804, 0.008517278358340263, -0.03188208118081093, 0.013599056750535965, -0.062488920986652374, 0.4598330557346344, -0.03461843356490135, 0.006559453904628754, -0.008297175168991089, 0.002380910562351346, 0.05404684692621231, 0.007517182268202305, -0.007669415790587664, 0.016787096858024597, 0.030418405309319496, -0.02581181190907955, 0.01686237007379532, -0.015521978959441185, -0.01605857163667679, 0.01156038511544466, -0.03841858357191086, -0.01742812804877758, -0.004718929994851351, -0.06954585760831833, 0.0021800182294100523, 0.011809310875833035, -0.008107322268188, 0.03352389112114906, 0.0021240822970867157, 0.0021502028685063124, 0.009240926243364811, 0.12157919257879257, 0.021305007860064507], [0.024425918236374855, 0.04498490318655968, -0.0005808848654851317, 0.01194094680249691, -0.005057875532656908, -0.0009881339501589537, 0.04717428982257843, 0.0013443169882521033, -0.00044608733151108027, 0.15150734782218933, -0.0071641793474555016, 0.0002983732847496867, -0.029499752447009087, 0.16881318390369415, -0.0018399858381599188, -0.000821276567876339, -0.01922455243766308, 0.007995805703103542, 0.0006532284896820784, -0.0007711371290497482, 0.026991726830601692, -0.17500367760658264, 0.04898310452699661, -0.06364097446203232, 0.000538574589882046, -0.01661445014178753, -0.0026063767727464437, 0.002179403556510806, -0.0737188309431076, -0.0006492112297564745, -0.020154166966676712, -0.0030032212380319834, 0.035957757383584976, 0.024393558502197266, -0.00036644370993599296, -0.0006975592114031315, -0.04708976298570633, -0.002268302021548152, 0.035895273089408875, -0.0033223715145140886], [0.00017516023945063353, 0.0010069184936583042, 0.0005099860136397183, -0.004885753616690636, 0.00013984627730678767, -0.00024611823027953506, -0.0015052701346576214, 0.00022336174151860178, -0.00030365175916813314, -0.004851737059652805, -0.007911426946520805, -0.002128689084202051, 0.0009386894525960088, -0.005916974041610956, -0.00013496892643161118, -0.0001793604897102341, -0.011477945372462273, -0.0029512951150536537, -4.9688063882058486e-05, 3.470708543318324e-05, 0.0018890071660280228, 0.00632478715851903, 0.0106815742328763, -0.004916199017316103, 0.00010507795377634466, -0.011477029882371426, 0.00017058500088751316, 0.004727685824036598, -0.0038926347624510527, -0.000311517680529505, -0.011054928414523602, -0.010265463031828403, 0.009459401480853558, 0.0034441514872014523, -0.0008981095743365586, -0.00021175341680645943, 0.01126631535589695, 0.004777258727699518, 0.0074318815022706985, 0.0006243870011530817], [-0.0023675141856074333, 0.0027015169616788626, 0.0003808243782259524, -0.002129251603037119, 0.00043435420957393944, -0.00019491718558128923, 0.0002121166471624747, 0.00017152570944745094, -0.0002639340818859637, -0.003364949021488428, -0.0021257896441966295, -0.004450484178960323, 0.001965438714250922, -0.0042233760468661785, 2.1519270376302302e-05, -0.0002642257895786315, -0.007264735177159309, -0.00464041531085968, -6.638325430685654e-05, 1.0732583177741617e-05, 0.003412241116166115, 0.004612972494214773, 0.006286748219281435, 6.234347529243678e-05, 0.00029004967655055225, -0.005541075486689806, 0.0004171750333625823, 0.001995502505451441, -0.0020738504827022552, -0.00027464638696983457, -0.009000621736049652, -0.0124130854383111, 0.0088557293638587, 0.005758332088589668, -0.0006905695772729814, -0.00018677690241020173, 0.006917152553796768, 0.0035936557687819004, 0.0011745486408472061, 0.0009368124301545322], [0.11154770851135254, -0.22842788696289062, 0.0057204472832381725, 0.027244722470641136, -0.30511474609375, -0.00693854782730341, 0.08457142114639282, -0.0020869355648756027, -0.005747158546000719, -0.011811366304755211, -0.06622623652219772, 0.023571249097585678, -0.04206889122724533, 0.013324618339538574, 0.001663813367486, 0.002356047974899411, 0.4293113350868225, -0.05027186498045921, -0.000599217542912811, -0.001018067356199026, -0.09979840368032455, -0.015990687534213066, -0.9333238005638123, 0.23050592839717865, 0.005333826877176762, 0.1183488667011261, 0.0039711822755634785, 0.058428164571523666, -0.03365207090973854, -0.0035444488748908043, 0.3483303189277649, 0.1406935602426529, 0.839085578918457, -0.9268376231193542, -0.1887192577123642, -0.010097135789692402, 0.029710672795772552, 0.03763476386666298, -0.012206328101456165, 0.005881668999791145], [0.06700486689805984, 0.005319107789546251, -0.004174138884991407, 0.12586334347724915, -0.10373415797948837, 0.003353793639689684, 0.029498154297471046, -0.0013885018415749073, 0.005653728730976582, 0.0022252793423831463, 0.4564623236656189, 0.014275393448770046, -0.011550410650670528, 0.025888266041874886, 