{"model_data": {"model": "SimpleRNN", "input_size": 3, "skip": 1, "output_size": 1, "unit_type": "LSTM", "num_layers": 1, "hidden_size": 40, "bias_fl": true}, "state_dict": {"rec.weight_ih_l0": [[1.7359989215037785e-05, -0.0004125068662688136, -0.0001435324375052005], [-0.01892080157995224, 0.01583908125758171, 0.013959073461592197], [-0.06351478397846222, 0.5884894728660583, 0.11507350951433182], [0.011153241619467735, 0.09748858958482742, 0.14025096595287323], [-0.00014642102178186178, -0.00019114773022010922, -0.00019122438970953226], [0.037153687328100204, -0.31804993748664856, -0.1802370548248291], [-0.00023410652647726238, 0.00012089680967619643, -0.00014596882101614028], [8.088447066256776e-05, -0.00021679181372746825, -9.547694935463369e-05], [0.00010256666428176686, -7.961338269524276e-05, -0.00010726832988439128], [-0.013478681445121765, 0.3142295777797699, 0.2811834514141083], [-0.01150528248399496, 0.019470004364848137, 0.05910755693912506], [-6.591793862753548e-06, -0.0003891554952133447, -0.0001232759968843311], [-0.04371815547347069, 0.08015886694192886, 0.022551795467734337], [-0.000149624960613437, -0.0002070274786092341, 8.188149513443932e-05], [-3.72014801541809e-06, -0.0004113389877602458, -0.0001397444139001891], [-0.004247403237968683, 0.04817047715187073, 0.038305625319480896], [-0.00017644866602495313, 0.00021719824871979654, -8.204026926250663e-06], [-1.0051932804344688e-05, -0.00030098637216724455, -5.918183524045162e-05], [0.027595099061727524, 0.04624497517943382, 0.023944368585944176], [0.0012651404831558466, -0.2343239039182663, -0.01163390651345253], [-4.9592235882300884e-05, -1.2467996384657454e-05, 1.7949967514141463e-05], [-6.439709522965131e-06, -0.0003656814224086702, -0.0001092613601940684], [-0.010041284374892712, 0.08690033853054047, 0.29892927408218384], [0.018960459157824516, 0.2895806133747101, 0.21252131462097168], [-0.01811765879392624, 0.3548460304737091, 0.1987691968679428], [-3.308691884740256e-05, -0.00027115727425552905, -6.683417450403795e-05], [0.027020679786801338, 0.05950780585408211, 0.04342584311962128], [0.035941921174526215, -0.08835300803184509, -0.052662577480077744], [0.004159508738666773, -0.3291293680667877, -0.3352167308330536], [-0.00021941313752904534, -2.2339276256388985e-05, -0.0004794340638909489], [-0.01428061444312334, 0.3362603783607483, 0.24061402678489685], [0.007428240496665239, 0.08467602729797363, 0.688877522945404], [-0.04751230403780937, 0.22083577513694763, -0.09808774292469025], [-1.4646043382526841e-05, -0.00028023525374010205, -6.380142440320924e-05], [-0.06323441863059998, 0.028575394302606583, -0.1708907186985016], [0.051071714609861374, -0.39689475297927856, -0.18603987991809845], [-4.2484316509217024e-05, -4.892833749181591e-05, 1.6466856322949752e-05], [1.4953727259126026e-05, -0.0004465982492547482, -0.00034676596987992525], [-0.0050354511477053165, 0.25373655557632446, 0.22208644449710846], [-5.2069644880248234e-05, -1.1902861842827406e-05, 7.24427763998392e-06], [2.5968327463488095e-05, -0.0003785048902500421, -0.00013440374459605664], [-0.11307217180728912, 0.06772797554731369, 0.11358856409788132], [-0.035696450620889664, 0.1311791092157364, -0.09604527801275253], [0.054557204246520996, -0.05624384060502052, 0.03391919285058975], [-0.00014409114373847842, -0.00017993178335018456, -0.00020294841669965535], [-0.06541392207145691, 0.18472832441329956, 0.24075178802013397], [-0.0002502236748114228, 0.00013689584739040583, -0.0001637196692172438], [6.925765774212778e-05, -0.00019127321138512343, -8.783423982094973e-05], [7.52975611248985e-05, -6.13200681982562e-05, -0.00010599300003377721], [0.008277093060314655, 0.31485259532928467, -0.17290350794792175], [-0.008256048895418644, -0.05816027894616127, 0.16629377007484436], [2.574796553744818e-06, -0.00035854402813129127, -0.00011896603245986626], [-0.08058623969554901, 0.2283855676651001, 0.11707315593957901], [-0.00016332685481756926, -0.0001669452467467636, 8.65239417180419e-05], [6.276630756474333e-06, -0.00038024611421860754, -0.00013411023246590048], [-0.012182756327092648, 0.11937673389911652, 0.11525563895702362], [-0.00019273658108431846, 0.000215700245462358, -2.7344240152160637e-05], [3.9238136650965316e-07, -0.00027367789880372584, -5.610887455986813e-05], [0.0916065201163292, 0.0702238604426384, 0.0703897699713707], [-0.04329834133386612, 0.11588355898857117, 0.15524150431156158], [-5.020889875595458e-05, -1.2154197065683547e-05, 1.5701480151619762e-05], [2.7582075290411012e-06, -0.0003357155073899776, -0.00010465068044140935], [0.011157281696796417, -0.01100612711161375, -0.23904725909233093], [-0.023922117426991463, 0.27116137742996216, -0.13105343282222748], [0.014816232025623322, -0.051468633115291595, -0.16691039502620697], [-2.3724411221337505e-05, -0.00024962786119431257, -6.988862151047215e-05], [0.032404106110334396, 0.13425733149051666, 0.036932460963726044], [0.06523365527391434, 0.6117669939994812, 0.09702334553003311], [-0.02177642658352852, 0.18005819618701935, 0.07565710693597794], [-0.00021248245320748538, -4.4223481381777674e-05, -0.0005103300791233778], [0.005927490070462227, 0.11016442626714706, -0.13315385580062866], [-0.030268313363194466, 0.3487122654914856, -0.3436592221260071], [-0.03261423856019974, -0.17420047521591187, 0.014324775896966457], [-8.043040907068644e-06, -0.0002534762897994369, -6.119362660683692e-05], [-0.08237887918949127, 0.1338820904493332, -0.06145165488123894], [-0.054286129772663116, 0.4729979336261749, 0.2603186070919037], [-6.376502278726548e-05, -4.145864295423962e-05, 1.0966371519316453e-05], [-9.449469871469773e-06, -0.00041677808621898293, -0.00033377690124325454], [0.014885010197758675, 0.11364080011844635, -0.17743581533432007], [-5.311710629030131e-05, -1.1128132427984383e-05, 5.241762664809357e-06], [0.0003674019535537809, -0.0007278263219632208, 0.00022687201271764934], [0.3221738934516907, 0.05624011531472206, 0.021168667823076248], [-1.5508710145950317, 0.03236357495188713, -0.05494055151939392], [-0.3947811424732208, 0.1371479332447052, 0.3019271194934845], [-5.4374366300180554e-05, -0.0013184909475967288, 0.001255574868991971], [-0.07613353431224823, 0.019908225163817406, 0.006933033000677824], [-0.00016359570145141333, 0.0013609337620437145, -0.0012386140879243612], [6.598392792511731e-05, -0.00014114381338004023, 0.00034142640652135015], [0.0006208422128111124, 0.0010359258158132434, -0.0002605113841127604], [0.3389766216278076, -0.044395189732313156, -0.008981820195913315], [-0.16972412168979645, 0.01618632860481739, -0.45678916573524475], [-0.00017669312364887446, 0.0009101039031520486, -0.0004683045553974807], [-0.05681953579187393, 0.4297015964984894, 0.015787869691848755], [-0.00030447784229181707, 0.0007006707601249218, -0.002217343542724848], [-0.0002065785665763542, 0.0009177849278785288, -0.00038594548823311925], [-0.003425785806030035, 0.0738423690199852, 0.042364612221717834], [-0.00019195904314983636, -0.0006766008445993066, 0.0016050842823460698], [-0.0002674777351785451, 0.0007434402941726148, -0.0003541707119438797], [0.17166173458099365, -0.03645076975226402, 0.012164575047791004], [0.0371752567589283, 0.29095494747161865, -0.04886728525161743], [0.00016050667909439653, -0.00102449010591954, 0.0008840604568831623], [-0.00024853419745340943, 0.0008903433918021619, -0.00045022822450846434], [0.21192339062690735, 0.01868295483291149, -0.04769047349691391], [0.0876997709274292, -0.44350218772888184, -0.04438038170337677], [-0.08911997079849243, -0.0011624027974903584, -0.009824305772781372], [9.288352885050699e-05, -0.0010654015932232141, 0.0005719122127629817], [0.06822216510772705, 0.026851652190089226, 0.641593337059021], [-0.36873483657836914, 0.022941360250115395, -0.03687446564435959], [0.18716725707054138, 0.08855552971363068, 0.02203746885061264], [-0.00018065307813230902, 0.0009856203105300665, -0.001272794441320002], [-2.0447580814361572, 0.11114548146724701, -0.026613229885697365], [0.1732918918132782, 0.0782015323638916, 0.0634383112192154], [-0.10123728960752487, 0.010645406320691109, 0.04050073400139809], [0.00025890892720781267, -0.00104653334710747, 0.000698316318448633], [-0.07662911713123322, 0.06860295683145523, 0.0736912414431572], [0.15065060555934906, 0.00907149724662304, 0.0025543824303895235], [0.0001946188131114468, -0.000629753340035677, 0.0008195962873287499], [-0.00036420312244445086, 0.001481548766605556, -0.0005607286584563553], [0.12559641897678375, 0.3835936486721039, -0.05533992871642113], [-2.3184653400676325e-05, -0.0012484571198001504, 0.0009555944707244635], [3.083383126067929e-05, -0.00041262482409365475, -0.0001434543519280851], [-0.06918983906507492, 0.2080862671136856, 0.17712126672267914], [-0.08877541869878769, 0.7528539896011353, -0.042701344937086105], [0.053766146302223206, 0.13040798902511597, 0.15563629567623138], [-0.00013776564446743578, -0.00019106855324935168, -0.00019127513223793358], [0.07157236337661743, 0.17083439230918884, 0.09823062270879745], [-0.00023659005819354206, 0.00012153327406849712, -0.00014595146058127284], [8.754741429584101e-05, -0.00021669176931027323, -9.532970580039546e-05], [0.00010122184903593734, -7.955788169056177e-05, -0.00010732185182860121], [-0.014880320988595486, 0.303372859954834, 0.28645509481430054], [-0.013020307756960392, -0.004562675021588802, 0.17433565855026245], [6.543766630784376e-06, -0.00038929079892113805, -0.00012327893637120724], [-0.013682053424417973, 0.2617606520652771, 0.11691787838935852], [-0.0001547553256386891, -0.0002074962540064007, 8.151461224770173e-05], [1.0609664059302304e-05, -0.00041148706804960966, -0.00013974223111290485], [-0.05901287868618965, 0.20522375404834747, 0.19025404751300812], [-0.00018155024736188352, 0.00021769273735117167, -8.299410183099099e-06], [3.6866044865746517e-06, -0.00030115590197965503, -5.919410250498913e-05], [0.0023629534989595413, 0.20602627098560333, 0.17270813882350922], [0.020606685429811478, 0.2496153563261032, 0.213258758187294], [-5.128657721797936e-05, -1.2652929399337154e-05, 1.776517638063524e-05], [6.892102646816056e-06, -0.00036583319888450205, -0.00010927097901003435], [-0.009887265972793102, 0.10339342802762985, 0.3067854642868042], [-0.021655326709151268, 0.3133455514907837, 0.2404162734746933], [-0.01889711804687977, 0.3458578884601593, 0.20701394975185394], [-2.0869323634542525e-05, -0.00027129516820423305, -6.692008901154622e-05], [0.048582419753074646, 0.15046662092208862, 0.07027291506528854], [0.17407722771167755, 0.2739039361476898, 0.1857592612504959], [0.038333699107170105, 0.046990424394607544, -0.11026740819215775], [-0.00021574232960119843, -2.193290310970042e-05, -0.0004795445129275322], [-0.014843189157545567, 0.3319018483161926, 0.25161421298980713], [-0.001152822282165289, -0.2923237085342407, 0.47330647706985474], [-0.03016037866473198, 0.27633053064346313, -0.2788754403591156], [-4.320253538026009e-06, -0.00028038336313329637, -6.38100245851092e-05], [-0.06173371151089668, 0.12945899367332458, -0.09267204254865646], [-0.026774952188134193, -0.038274720311164856, -0.04036210849881172], [-4.803919364348985e-05, -4.968540815752931e-05, 1.579458694322966e-05], [8.093034011835698e-06, -0.0004468063125386834, -0.00034739330294542015], [-0.005295843351632357, 0.16901303827762604, 0.12924373149871826], [-5.300996417645365e-05, -1.2010201317025349e-05, 7.097895377228269e-06]], "rec.weight_hh_l0": [[-1.8421582126393332e-06, 0.0007401796756312251, -2.5309718694188632e-05, 8.455396891804412e-05, -2.824486273311777e-06, 5.141755082149757e-06, 1.7324231293969206e-06, 2.141875938832527e-06, -2.76395235232485e-06, -9.203109220834449e-05, 0.00021636685414705426, 2.030786390605499e-06, -0.00044666207395493984, 1.366844799122191e-06, 1.96550126929651e-06, -0.0008927496382966638, -1.4850703564661671e-06, 1.925460310303606e-06, -0.0008686482906341553, -0.00018041043949779123, -1.404867589371861e-06, 1.977649390028091e-06, -1.207167406391818e-05, 0.00011712867126334459, -2.8241342079127207e-05, -2.19349976759986e-06, 0.00028978727641515434, 0.00012564059579744935, 0.00010323712922399864, 1.6590603308941354e-06, 4.0431561501463875e-05, -2.5401015591342002e-05, 2.5597018975531682e-05, -2.0584552657965105e-06, -8.359814819414169e-05, -5.9971596783725545e-05, 1.4196274378264206e-06, -1.6078269027275383e-06, 9.887608757708222e-05, -1.6155404409801122e-06], [-0.001045963610522449, -0.1076543927192688, -0.04857102409005165, -0.07478071749210358, -0.0006896837730892003, 0.020419232547283173, -6.0739461332559586e-05, 0.0004287499759811908, -0.00027942104497924447, -0.12291821837425232, -0.027526021003723145, 0.0010560634545981884, -0.010610898956656456, -0.0006775878719054163, 0.0010959911160171032, 0.1258624792098999, 0.0004763509496115148, 0.0010604884009808302, 0.11507517844438553, 0.023558801040053368, -0.0007110590231604874, 0.0010775700211524963, -0.003499187994748354, 0.03177180513739586, 0.09890364110469818, -0.0010269831400364637, -0.05530182644724846, 0.011201365850865841, 0.00014898036897648126, 0.00035571481566876173, -0.02974875457584858, 0.09910255670547485, -0.11388950049877167, -0.0010109090944752097, -0.0007357192225754261, -0.0339176170527935, 0.00040571627323515713, -0.00029244457255117595, -0.03569760173559189, -0.0007061823853291571], [0.0019389798399060965, -0.27401721477508545, 0.030422380194067955, 0.008711835369467735, 0.0010868030367419124, 0.044954314827919006, -7.220906263682991e-05, -0.00220187078230083, 0.0019181948155164719, 0.0013780150329694152, -0.08468334376811981, -0.001838676747865975, 0.35913702845573425, 0.0008800529176369309, -0.001869437750428915, 0.18675221502780914, -0.0005413729231804609, -0.001723332330584526, 0.17424115538597107, 0.8878659009933472, 0.00013390969252213836, -0.0018011861247941852, 0.023709235712885857, -0.02783268876373768, -0.06261155009269714, 0.0015493021346628666, -0.02401173859834671, 0.005970060359686613, -0.022744331508874893, -0.0005905518773943186, 0.007494513411074877, 0.011282037012279034, 0.009928562678396702, 0.001612042193301022, 0.08009186387062073, 0.01127027440816164, -0.0018569184467196465, 0.0024055487010627985, -0.09079065173864365, 0.0002181948657380417], [0.0002569817006587982, -0.21915890276432037, 0.018007930368185043, -0.045133352279663086, 0.0009417532128281891, -0.010880635119974613, -0.0008151585352607071, 0.00022978580091148615, -0.000609745504334569, 0.019799334928393364, -0.11868256330490112, -0.00042331527220085263, 0.09323333203792572, -0.0010493830777704716, -0.00039401944377459586, 0.264720618724823, 0.0007688220357522368, -0.00031576224137097597, 0.25731807947158813, -0.11332373321056366, 0.0004781080351676792, -0.00037440581945702434, -0.0022138727363198996, -0.035402439534664154, -0.008983573876321316, 0.0004986794665455818, -0.10734178870916367, -0.05844452977180481, 0.014450350776314735, -0.0008262182236649096, 0.0022665655706077814, 0.005950157530605793, 0.05421516299247742, 0.00026887113926932216, 0.0018081320449709892, -0.0347377248108387, 0.0009068932849913836, -0.0006943214102648199, 0.007180104497820139, 0.0005230304086580873], [-4.072420779266395e-06, 0.0003896244743373245, 7.68839890952222e-06, -0.00010662526619853452, -4.44444913227926e-06, 9.70297769526951e-05, 4.568501935864333e-06, 2.327196170881507e-06, -1.0837906074812054e-06, -2.43824215431232e-05, 0.0003922638134099543, 4.144312242715387e-06, -0.00020582070283126086, 4.8142705963982735e-06, 4.010312750324374e-06, -0.0004999154480174184, -4.614832505467348e-06, 3.836085397779243e-06, -0.0004846736846957356, -0.00020385731477290392, -3.6389819797477685e-06, 4.013035777461482e-06, -4.8412497562821954e-05, 1.7578962797415443e-05, -7.926423131721094e-05, -4.089461071998812e-06, 0.00015467623597942293, 0.00029410337447188795, 0.0001272787048947066, 3.833365553873591e-06, 3.890819425578229e-05, -3.221766746719368e-05, 6.770785694243386e-05, -3.9563951759191696e-06, -0.0002871574542950839, 0.00012231063737999648, -1.263775061488559e-06, 1.0912638259696905e-07, 0.00017661416495684534, -3.6193350752000697e-06], [-0.0006949472008273005, 0.5462644696235657, -0.018214533105492592, 0.19765086472034454, 0.0007729522767476737, -0.14081509411334991, -0.0012839394621551037, 0.001411924255080521, -0.0025200103409588337, -0.023278767243027687, -0.013003550469875336, 0.00034784612944349647, -0.3061428368091583, -0.0012313993647694588, 0.0004111086018383503, -0.6473075151443481, 0.001513753435574472, 0.00037251043249852955, -0.8043996095657349, -0.010182822123169899, 0.0014771681744605303, 0.00038585782749578357, 0.0004275744140613824, -0.40371325612068176, -0.012830611318349838, -1.983510264835786e-05, 0.1748572438955307, 0.088560551404953, 0.019105274230241776, -0.0009435865213163197, -0.0010256980312988162, 0.012739033438265324, -0.03140667453408241, -0.00025892394478432834, -0.1188846081495285, -0.09193543344736099, 0.001564448932185769, -0.0014228475047275424, 0.4851844608783722, 0.0014834166504442692], [-2.524253204683191e-06, 0.00029198016272857785, -1.4028953955858015e-05, -0.0001100626977859065, -5.623391189146787e-06, 0.00021593259589280933, 7.47150124880136e-06, -1.0580326943454565e-06, 3.12014185510634e-06, 6.352116179186851e-05, 0.0003501122700981796, 3.0910991881683003e-06, 9.31205868255347e-05, 8.907519259082619e-06, 2.866710929083638e-06, -0.000390035129385069, -8.563302799302619e-06, 2.6607615382090444e-06, -0.000372748269001022, 9.7493059001863e-05, -5.2291775318735745e-06, 2.942504806924262e-06, -7.607373845530674e-05, -8.31133802421391e-05, -7.491908763768151e-05, -3.583311581678572e-06, -0.0001303542376263067, 7.073706365190446e-05, -8.901546607376076e-06, 5.952761057415046e-06, 8.884413546184078e-06, 0.00020362371287774295, -0.00013132827007211745, -2.997714318553335e-06, -0.00022933946456760168, 0.0003374886582605541, -5.3137414397497196e-06, 4.428264674061211e-06, -0.00020677727297879755, -5.143893758940976e-06], [-5.183869689062703e-07, 0.0006367177702486515, -1.0673426004359499e-05, 6.023623063811101e-05, -1.6700960259186104e-06, -3.7753470678580925e-05, -4.35198437287454e-08, -3.281933516063873e-07, -6.823991043347633e-07, 3.8646550819976255e-05, 0.00012516269634943455, 8.970588964984927e-07, -0.0002754977031145245, -1.2454572697606636e-06, 8.838274538902624e-07, -0.0007792353862896562, 7.738840963611437e-07, 8.327115210704505e-07, -0.0007513097953051329, 0.00010182247933698818, -7.887114747973101e-07, 8.955992711889849e-07, 1.793701267160941e-05, 1.583775519975461e-05, 6.805735210946295e-06, -1.2503800235208473e-06, 0.0001443655346520245, -5.90601448493544e-05, 2.007465263886843e-05, 6.982048716963618e-07, -2.3854141545598395e-05, 0.00017589404887985438, -0.00016834754205774516, -9.674304237705655e-07, 9.494094410911202e-05, -0.00011867425200762227, 1.3085910950394464e-06, -8.825255122246745e-07, -0.00012926073395647109, -1.0301965858161566e-06], [1.7498574322871718e-07, 0.0005335952155292034, -2.613856122479774e-05, -7.149499651859514e-06, -1.0340145308873616e-06, -3.6017183447256684e-05, -5.030997840549389e-07, -1.2725643045996549e-06, 1.8614238115333137e-06, 0.00011058012023568153, 0.00014756788732483983, 3.685796912122896e-07, -0.00013025428052060306, -1.7726873693391099e-06, 3.5429511058282515e-07, -0.0006659898208454251, 1.3858800684829475e-06, 4.055871443142678e-07, -0.0006317240768112242, 0.0002426102146273479, -5.042253974352207e-07, 3.9848214328230824e-07, 3.169875708408654e-05, -0.00015538623847533017, 4.6451736125163734e-05, -8.726324267627206e-07, 1.0313541679352056e-05, -0.00016458050231449306, -4.627277667168528e-05, 6.537842409670702e-07, -9.788393072085455e-05, 0.0004176013171672821, -0.0003776595985982567, -4.670388307204121e-07, 0.0001586305588716641, -0.0001308788632741198, -9.333083611506865e-11, 1.032623458741e-06, -0.0003247551794629544, -7.592444717374747e-07], [0.0003125483635812998, -0.361555814743042, -0.0006886821938678622, -0.030347714200615883, -0.00017359846970066428, 0.004115305840969086, 0.0004935148754157126, -0.000640713784378022, 0.0006910239462740719, 0.018792372196912766, -0.2477540671825409, -0.00021989054221194237, 0.27687662839889526, 0.00090691918740049, -0.00024830203619785607, 0.3939206600189209, -0.0007886197417974472, -0.0002935955417342484, 0.38306567072868347, 0.2443164736032486, -9.736769425217062e-05, -0.0002446266880724579, -0.0005855178460478783, 0.03715340420603752, -0.02067544125020504, 0.00014641285815741867, -0.11116529256105423, -0.1137402281165123, -0.027688726782798767, 0.0001604440767550841, 0.008739091455936432, -0.04601127281785011, 0.05604621022939682, 0.00021909724455326796, 0.07899656891822815, 0.0027368052396923304, -0.000841060362290591, 0.0009623062796890736, -0.048728883266448975, -0.0001422479108441621], [-7.90176127338782e-05, -0.1196228414773941, -0.002510623773559928, -0.05413837358355522, -5.867660729563795e-05, 0.010163730941712856, 0.0005562157602980733, 0.001002296805381775, -0.001585843856446445, 0.019716743379831314, -0.025994541123509407, -1.7293808923568577e-05, 0.05554136261343956, 0.00034883542684838176, -3.628913691500202e-05, 0.1482783555984497, -0.0007865361403673887, 2.2819669993623393e-06, 0.14206641912460327, -0.029271122068166733, 0.00023328315000981092, -2.1482981537701562e-05, 0.007863374426960945, -0.00527901342138648, 0.01346177514642477, 5.317690738593228e-05, -0.06881208717823029, -0.05103505402803421, 0.033189333975315094, 0.00042508335900492966, 0.013553098775446415, 0.004771023988723755, -0.017338557168841362, -1.1744737093977164e-05, -0.02491190657019615, 0.02014676108956337, 0.001390886609442532, -0.0018537383293733, -0.005028922110795975, 0.00019254136714152992], [-2.745397068792954e-06, 0.0006412329385057092, -2.1017045582993887e-05, 5.868700100108981e-05, -2.9335790259210626e-06, 2.1155388822080567e-05, 1.8330792954657227e-06, 3.085537628066959e-06, -3.3880021419463446e-06, -9.737233631312847e-05, 0.00022642164549324661, 2.7433591185399564e-06, -0.0004050775314681232, 1.5921048088785028e-06, 2.699842525544227e-06, -0.0007875156006775796, -1.6529811546206474e-06, 2.6269601676176535e-06, -0.0007652347558178008, -0.00023480290838051587, -1.530603299215727e-06, 2.685349954845151e-06, -1.800324571377132e-05, 0.00010593134356895462, -3.747371010831557e-05, -2.7056939870817587e-06, 0.0002981122524943203, 0.000197548812138848, 0.00011904738494195044, 1.710123683551501e-06, 4.4363328925101086e-05, -6.447784835472703e-05, 6.742041296092793e-05, -2.690746669031796e-06, -0.00015492706734221429, -3.573669528122991e-05, 1.5737001604065881e-06, -2.1505677523236955e-06, 0.00017453449254389852, -1.7142941715064808e-06], [-0.001907522906549275, -0.053721483796834946, -0.0015224015805870295, -0.03384435176849365, -0.0007079739007167518, 0.03167440742254257, -0.000553421035874635, 0.0019757035188376904, -0.0015153870917856693, -0.006802980322390795, 0.06835395097732544, 0.0017893820768222213, 0.06513085961341858, -0.0009003121522255242, 0.0018109010998159647, 0.08687236160039902, 0.0007639455725438893, 0.0018109497614204884, 0.07478100806474686, 0.02186942659318447, -0.0007198767852969468, 0.0017837672494351864, -0.013412507250905037, 0.03145564720034599, -0.0015979398740455508, -0.0016322499141097069, -0.0024789527524262667, 0.019650083035230637, -0.013276931829750538, 0.000382869562599808, 0.007200734224170446, -0.03631723299622536, 0.004201396368443966, -0.0017071082256734371, 0.016357937827706337, 0.012381180189549923, 0.0010964672546833754, -0.0013034807052463293, 0.0017116260714828968, -0.0007660127594135702], [-6.890814461257833e-07, 0.0006237846682779491, -1.6474707081215456e-05, -4.814213752979413e-05, -3.758169896173058e-06, 4.926234396407381e-05, 5.367161065805703e-06, -1.7864070969153545e-06, 3.2406260288553312e-06, 0.00018189808179158717, 4.6852110244799405e-05, 1.3187997183194966e-06, -0.0002602342574391514, 5.939971288171364e-06, 1.1368972536729416e-06, -0.000790851772762835, -5.267753749649273e-06, 9.361430102217128e-07, -0.0007431874983012676, -3.859933713101782e-05, -2.8695080800389405e-06, 1.188555302178429e-06, 1.4884480151522439e-05, -4.964380423189141e-05, -6.373904034262523e-05, -1.8234053413834772e-06, 0.0001302747114095837, -8.620620792498812e-05, -7.162192923715338e-05, 3.825296062132111e-06, -5.7083765568677336e-05, 0.000535955186933279, -0.00036466377787292004, -1.1947005305046332e-06, 2.305821362824645e-05, 1.3908611435908824e-05, -4.075733158970252e-06, 3.884136276610661e-06, -0.0003707696741912514, -2.9958596314827446e-06], [-2.508063744244282e-06, 0.0006779734394513071, -2.0833880626014434e-05, 5.9457688621478155e-05, -2.767155592664494e-06, 2.187729478464462e-05, 1.7178251709992765e-06, 2.971257799799787e-06, -3.374050038473797e-06, -9.732026956044137e-05, 0.00024311410379596055, 2.5352760530950036e-06, -0.00042958473204635084, 1.5339529682023567e-06, 2.4738135380175663e-06, -0.0008250611717812717, -1.582984737069637e-06, 2.4283815491799032e-06, -0.0008025955758057535, -0.00022617142531089485, -1.4602037481381558e-06, 2.4747130282776197e-06, -1.717239138088189e-05, 0.0001106404306483455, -3.9929549529915676e-05, -2.5292893042205833e-06, 0.0003119732136838138, 0.0001919612113852054, 0.00012040459114359692, 1.5976337408574182e-06, 4.385425563668832e-05, -6.739159289281815e-05, 7.386571815004572e-05, -2.5218403152393876e-06, -0.00014868035214021802, -3.984602517448366e-05, 1.5969025071171927e-06, -2.0879454041278223e-06, 0.0001709181087790057, -1.6372323443647474e-06], [0.0008767599356360734, -0.09658371657133102, 0.0007089129067026079, -0.024706972762942314, 0.000722892873454839, -0.0019858188461512327, -0.0003370119084138423, -0.0005764132947660983, 0.00040752964559942484, 0.0037045569624751806, -0.02842240408062935, -0.0008927047601900995, 0.04876357689499855, -5.379052527132444e-05, -0.0008932218770496547, 0.11166897416114807, 8.945272566052154e-05, -0.0008275893633253872, 0.10818144679069519, -0.02471374347805977, 0.00033814902417361736, -0.0008739276672713459, 0.0010609241435304284, 0.009101005271077156, 0.0053821224719285965, 0.0008283113711513579, -0.049073152244091034, -0.027430562302470207, -0.010621177963912487, -0.00043588157859630883, -0.00040462781907990575, -0.010962285101413727, 0.00307118589989841, 0.0008040529792197049, 0.015275445766746998, 0.005120361689478159, -0.00034855917328968644, 0.00045440971734933555, -0.026347558945417404, 0.0003926205390598625], [-2.0849613520113053e-06, 6.761480472050607e-05, -4.708383130491711e-05, -3.375597589183599e-05, -6.1703954088443425e-06, 0.0001472108269808814, 9.007951121020596e-06, -1.5780578905832954e-06, 3.32227023136511e-06, 2.8784443202312104e-05, 0.00015869553317315876, 2.7481391953187995e-06, 0.00017886317800730467, 9.54505867412081e-06, 2.5181939236063045e-06, -0.0001580993557581678, -9.152112397714518e-06, 2.2069166334404144e-06, -0.0001348964578937739, 7.865182124078274e-05, -4.59981310996227e-06, 2.5659353468654444e-06, -5.015995338908397e-05, -0.00012184090883238241, -7.489854760933667e-05, -3.2519710657652467e-06, -0.00026038038777187467, 5.8178306062472984e-05, -2.2867583538754843e-05, 6.363648481055861e-06, -1.29507434394327e-05, 0.0003149795811623335, -0.00022740197891835123, -2.5389849724888336e-06, -0.00019684890867210925, 0.0003110445977654308, -5.680225967807928e-06, 5.175278602109756e-06, -0.00031913258135318756, -4.622321739589097e-06], [-2.2559590888704406e-06, 0.0004997163196094334, -1.648513898544479e-05, 6.421993748517707e-05, -2.2861499928694684e-06, 1.8441452994011343e-05, 1.2111316891605384e-06, 2.5750152872205945e-06, -3.0641417652077507e-06, -8.418728248216212e-05, 0.00013126218982506543, 2.257640971947694e-06, -0.000301187188597396, 9.138398695540673e-07, 2.218632516814978e-06, -0.0006280470406636596, -1.052240463650378e-06, 2.091064288833877e-06, -0.0006080286111682653, -0.00021839278633706272, -1.041422024172789e-06, 2.1909986571699847e-06, -1.141614393418422e-05, 0.00010269197809975594, -3.077770088566467e-05, -2.178407385144965e-06, 0.00022884909412823617, 0.00017000731895677745, 9.690010483609512e-05, 1.1960976280533941e-06, 3.847556945402175e-05, -5.412691825767979e-05, 6.341753760352731e-05, -2.1748528524767607e-06, -0.00014559333794750273, -2.845775270543527e-05, 1.6981799717541435e-06, -2.2669041754852515e-06, 0.0001493247546022758, -1.2077363180651446e-06], [-9.272695024264976e-05, -0.09509652853012085, -0.014060783199965954, -0.0450647734105587, 9.914184192894027e-05, -0.062036193907260895, -0.0002997355768457055, 0.00010468832624610513, 1.5798375898157246e-05, 0.004799071699380875, 0.0005658841109834611, 8.911883196560666e-05, 0.043706975877285004, 0.0002535074017941952, 7.00332602718845e-05, 0.12609551846981049, 0.00017391744768247008, 0.0001260320859728381, 0.12109236419200897, -0.024602359160780907, -0.0004040321509819478, 9.112184488913044e-05, 0.0024885095190256834, 0.00854212511330843, 0.006474789697676897, -0.00013118702918291092, -0.0631733238697052, -0.05711929500102997, -0.007770674303174019, -0.00018982340407092124, 0.0046935491263866425, -0.029292499646544456, 0.011133861728012562, -0.00014054425992071629, 0.0009442822774872184, -0.04457465559244156, -0.0002320584753761068, 0.00015745351265650243, 0.014996412210166454, -0.00033143447944894433], [-0.0008551254286430776, 0.06230263411998749, 0.09466922283172607, -0.1479213833808899, -0.0014791333815082908, -0.030589483678340912, 0.001325278077274561, -0.0002707802632357925, 0.0009888587519526482, 0.4956267476081848, 0.07137537002563477, 0.0009672883898019791, -0.09820558875799179, 0.0007625801954418421, 0.0010065933456644416, -0.03115018643438816, -0.0009721009409986436, 0.0008904001442715526, -0.026363041251897812, 0.19200213253498077, -0.0008755122544243932, 0.0009755055652931333, -0.04852711409330368, 0.3411882221698761, -0.36428648233413696, -0.000991565058939159, 0.1388823539018631, -0.04651295021176338, -0.04076159745454788, 0.0013004064094275236, 0.0765376016497612, -0.06082294136285782, -0.0017159286653622985, -0.0008630168158560991, -0.07976461946964264, -0.043291863054037094, -0.0008363494416698813, 0.0012963723856955767, 0.1914316713809967, -0.0008926141890697181], [-5.63743185466592e-07, 6.785434379708022e-05, 1.4890587408444844e-05, -9.894632967188954e-06, -1.0057557346954127e-06, 2.8250935429241508e-05, 9.506087508270866e-07, -1.0056833588123482e-07, 3.5033593803746044e-07, 7.963306416058913e-06, 5.085520342618111e-07, 7.074851851029962e-07, -2.9339757020352408e-05, 6.534385761369776e-07, 6.826121534686536e-07, -0.00010702643339755014, -6.888038797114859e-07, 6.258450184759567e-07, -0.00010121060768142343, -3.4049789974233136e-05, -6.587331426999299e-07, 6.828311143181054e-07, -6.185688903315167e-07, 1.9461200281511992e-05, -1.3705522178497631e-05, -7.925864906610514e-07, 2.8697344532702118e-05, 3.969775571022183e-05, 4.570889814203838e-06, 8.729476803637226e-07, 2.7282346763968235e-06, 5.691296610166319e-05, -4.7286812332458794e-05, -6.52702510706149e-07, 7.137415991564922e-07, 8.001367177712382e-07, -3.837613178347965e-07, 4.5506934043260117e-07, -6.153004960651742e-06, -7.27957001345203e-07], [-2.4668886453582672e-06, 0.000607910449616611, -2.027968548645731e-05, 6.148303509689867e-05, -2.6520294795773225e-06, 2.1816729713464156e-05, 1.6066020407379256e-06, 2.8534698230942013e-06, -3.2484651910635876e-06, -9.314862109022215e-05, 0.0002011169563047588, 2.4760990982031217e-06, -0.0003783071879297495, 1.3780698964183102e-06, 2.4288376607728424e-06, -0.0007486990070901811, -1.449710339329613e-06, 2.3522586616309127e-06, -0.0007271303911693394, -0.000227825585170649, -1.3485821455105906e-06, 2.4155124265234917e-06, -1.5803452697582543e-05, 0.00010726841719588265, -3.630294668255374e-05, -2.443125367790344e-06, 0.00027613318525254726, 0.0001876867754617706, 0.00011456449283286929, 1.5048931345518213e-06, 4.102201637579128e-05, -6.363990542013198e-05, 6.918347207829356e-05, -2.430294443911407e-06, -0.00015103581245057285, -3.356343222549185e-05, 1.5866424973864923e-06, -2.1161429231142392e-06, 0.00016383695765398443, -1.5254105392159545e-06], [-3.623594238888472e-05, -0.26240774989128113, -0.0007693031802773476, -0.0007958411006256938, -0.0008739732438698411, 0.01598753221333027, 0.00158443592954427, -0.0006948852678760886, 0.0009338852250948548, -0.005494584795087576, -0.2994508147239685, 0.00017276500875595957, 0.024389686062932014, 0.002095631090924144, 0.0001314345427090302, 0.29092076420783997, -0.001957875909283757, 7.355187699431553e-05, 0.28161752223968506, -0.04075795039534569, -0.0003943808260373771, 0.00013071135617792606, 0.003651665523648262, 0.030418602749705315, 0.01345465611666441, -0.0002707706589717418, -0.024746349081397057, -0.09081115573644638, -0.045482099056243896, 0.0005588408675976098, -0.007499507162719965, 0.005907056387513876, 0.008207020349800587, -0.00011244761844864115, 0.07086504995822906, 0.02274150401353836, -0.001728665316477418, 0.0013536057667806745, -0.01883775182068348, -0.00039796106284484267], [-0.0006972004775889218, -0.26480886340141296, 0.004588694777339697, -0.04310086369514465, -0.0004857128660660237, -0.013555758632719517, -4.027188697364181e-05, 0.0008820451912470162, -0.000996490241959691, -0.041965361684560776, -0.15995492041110992, 0.0006416771211661398, 0.16046977043151855, -0.0006186824175529182, 0.0006694631301797926, 0.28665974736213684, -0.00017031370953191072, 0.0006562090711668134, 0.28493550419807434, 0.35065650939941406, -0.0005138888373039663, 0.0006240364746190608, 0.022812487557530403, -0.013808546587824821, -0.05735417827963829, -0.0005500572733581066, -0.07543861120939255, -0.1044369786977768, 0.004607006907463074, 0.000546471041161567, -0.0020806703250855207, -0.06539514660835266, 0.13778412342071533, -0.0006009622593410313, 0.03410126268863678, 0.03075345978140831, 0.0009779941756278276, -0.001103301765397191, -0.10317892581224442, -0.00040702696423977613], [7.917411858215928e-05, -0.2585086226463318, -0.0018530477536842227, -0.02838972769677639, -0.0001461569918319583, 0.01996949315071106, 0.00011749027180485427, -0.00020413313177414238, 0.0001830958208302036, -0.0019391450332477689, -0.1867494434118271, -4.566556526697241e-06, 0.31714239716529846, -0.00019375236297491938, -1.411740686307894e-05, 0.28521859645843506, 0.00010066084360005334, 6.387776465999195e-06, 0.2776513993740082, 0.23423679172992706, -2.693292663025204e-05, -1.1434245834607282e-06, 0.000698501302395016, -0.0013542594388127327, -0.008836346678435802, -7.018935139058158e-05, -0.044018395245075226, -0.06633981317281723, -0.0072441138327121735, 0.00033415842335671186, 0.00361252692528069, -0.014862078242003918, 0.012812952511012554, -1.1191810699529015e-05, 0.07053215801715851, -0.001964372815564275, -4.6454111725324765e-05, 7.782261673128232e-05, 0.016382362693548203, -5.4262160119833425e-05], [-3.0134021926642163e-06, 0.00040143111255019903, -1.1373378583812155e-05, 1.9346936824149452e-05, -2.5775284484552685e-06, 3.6315861507318914e-05, 1.6053960507633747e-06, 3.1990425668482203e-06, -3.1906979529594537e-06, -8.507604070473462e-05, 0.0001652889623073861, 2.901873813243583e-06, -0.0002634151023812592, 1.4510612800222589e-06, 2.868332103389548e-06, -0.0005190506926737726, -1.474629698350327e-06, 2.730864025579649e-06, -0.0005024225101806223, -0.0002294103760505095, -1.355060135210806e-06, 2.8289402962400345e-06, -1.822691956476774e-05, 8.901400724425912e-05, -3.7037541915196925e-05, -2.6871930458582938e-06, 0.00022082678333390504, 0.00023287668591365218, 0.00010544084216235206, 1.4810669881626382e-06, 4.219162656227127e-05, -7.707275653956458e-05, 8.799048373475671e-05, -2.761214091151487e-06, -0.00020136065722908825, -3.377978600838105e-06, 1.4486981854133774e-06, -2.2159067611937644e-06, 0.0002128877822542563, -1.4882607501931489e-06], [0.002216542372480035, -0.11771022528409958, 0.014003193005919456, -0.043784722685813904, 0.0019526361720636487, 0.008362659253180027, -0.0011500694090500474, -0.001958302455022931, 0.0012496024137362838, -0.020450575277209282, -0.03807720169425011, -0.002280194079503417, 0.0709788128733635, -0.0013501194771379232, -0.002249295823276043, 0.12277810275554657, 0.0008960834238678217, -0.0020326937083154917, 0.12059464305639267, -0.03436261788010597, 0.0007408537203446031, -0.002188520273193717, 0.005825348664075136, 0.012046948075294495, 0.005311994813382626, 0.0021195518784224987, -0.03818557783961296, -0.018499717116355896, -0.06406507641077042, -0.0011227623326703906, -0.03286849707365036, 0.008449429646134377, 0.0030018489342182875, 0.0020110108889639378, 0.03265509381890297, -0.0633120983839035, 6.589217082364485e-05, 0.0007557406206615269, -0.030637113377451897, 0.0009667171398177743], [0.00029679512954317033, 0.4048151671886444, 0.030509917065501213, 0.0598340779542923, 5.823249011882581e-05, -0.0830443799495697, 0.0008838092908263206, -0.00036389552406035364, 0.0018701199442148209, 0.13416558504104614, 0.07313162088394165, -0.0002891576732508838, 0.21412207186222076, 0.0009587142849341035, -0.00029783559148199856, -0.20687855780124664, -0.000518971006385982, -5.725997107219882e-05, -0.28641143441200256, -0.18478040397167206, -0.0005173172685317695, -0.00021245627431198955, 0.009499159641563892, 0.022286225110292435, 0.020687585696578026, 0.00015488587087020278, 0.0516844280064106, -0.027399368584156036, 0.16280396282672882, 0.00042728212429210544, 0.05372831970453262, -0.00889329332858324, -0.06761141121387482, 0.00013207478332333267, -0.02952585369348526, 0.00046723076957277954, -0.0018008829792961478, 0.0021474265959113836, 0.04152412340044975, -0.0003126979572698474], [0.0016972640296444297, 0.35699892044067383, -0.025574933737516403, 0.11434497684240341, 0.001497838064096868, -0.05371323227882385, -0.002016685903072357, -0.0022134927567094564, 0.0013701110146939754, 0.07596519589424133, 0.1712171882390976, -0.0015240843640640378, -0.42586320638656616, 0.00015414862718898803, -0.001602917443960905, -0.3378514349460602, 0.001239763107150793, -0.0017710805404931307, -0.3716466724872589, 0.031012926250696182, 0.0005599939613603055, -0.001596148475073278, -0.018142646178603172, -0.05624784529209137, -0.0007468296098522842, 0.0014150175265967846, -0.11268796771764755, 0.046920206397771835, -0.03620551526546478, -0.0019381922902539372, 0.0536993145942688, -0.03538704290986061, -0.023633446544408798, 0.0014827311970293522, -0.06672214716672897, 0.027034178376197815, -0.0014113914221525192, 0.0014784748200327158, -0.054068420082330704, 0.00045949037303216755], [-1.9145393252983922e-06, 0.0001395079743815586, 2.4073526219581254e-05, -0.00010723006562329829, -3.6456569887377555e-06, 0.00017222123278770596, 4.574455488182139e-06, 3.405149016089126e-07, 7.212176456050656e-07, 1.7141537682618946e-05, 0.0006357002421282232, 2.1812056729686446e-06, -9.493662946624681e-05, 4.348288712208159e-06, 2.0683353341155453e-06, -0.00017657072748988867, -4.454564077605028e-06, 1.947686087078182e-06, -0.00017405192193109542, 0.00012951869575772434, -2.8615629616979277e-06, 2.0938157376804156e-06, -6.887540803290904e-05, -7.189336611190811e-05, -5.451345714391209e-05, -2.398598326180945e-06, -0.00011998337140539661, 0.0003610720159485936, 0.0001381560432491824, 3.6629344322136603e-06, 4.075135802850127e-05, -7.834025745978579e-05, 7.974918116815388e-05, -2.1191219730098965e-06, -0.00033986588823609054, 0.0002905626897700131, -2.1342352738429327e-06, 1.7412413626516354e-06, 0.00018063231254927814, -2.8350648335617734e-06], [6.923208275111392e-05, -0.35524797439575195, 0.015526567585766315, -0.0315258726477623, -0.00046422251034528017, 0.003119818167760968, 0.000977451098151505, -0.0005355098401196301, 0.0008315566228702664, 0.02904624119400978, -0.20978692173957825, 1.2974477613170166e-05, 0.2637641131877899, 0.001691163401119411, -2.4455186576233245e-05, 0.39412060379981995, -0.0013926394749432802, -6.849098281236365e-05, 0.3858138918876648, 0.2112894356250763, -0.00023279259039554745, -2.0641416995204054e-05, -0.0037310156039893627, -0.027445364743471146, -0.015458879992365837, -5.8111607359023765e-05, -0.13777978718280792, -0.10579611361026764, -0.026724008843302727, 0.00015718612121418118, 0.0011003217659890652, -0.01860956847667694, 0.025875436142086983, 2.8662900149356574e-05, 0.06871958822011948, -0.014751437120139599, -0.0012928600190207362, 0.001305391313508153, 0.020399069413542747, -0.000257120409514755], [-0.001223955419845879, -0.04303769767284393, 0.01294268760830164, -0.020240653306245804, 4.4802734919358045e-05, -0.07828529179096222, -0.0007144684204831719, 0.0023901539389044046, -0.0008708385867066681, 0.03836940601468086, -0.4602097272872925, 0.001108653494156897, 0.141234889626503, -0.0017721131443977356, 0.0010833035921677947, 0.05412582680583, 0.0013518857304006815, 0.0014991260832175612, -0.004132464993745089, 0.16706985235214233, -0.0018812499474734068, 0.0011922915000468493, 0.009180918335914612, 0.0796859860420227, -0.021815281361341476, -0.001259655924513936, 0.8562694191932678, -0.013464350253343582, 0.04294766113162041, 0.001036445377394557, 0.04829714074730873, 0.10903926193714142, 0.09325013309717178, -0.0014510819455608726, 0.18148764967918396, 0.06198577582836151, 0.0015023123705759645, -0.0014061464462429285, -0.1371700018644333, -0.0017810702556744218], [-0.0005147983902134001, -0.20090577006340027, 0.03436652943491936, -0.08327911794185638, -0.0004160081734880805, 0.022972753271460533, 0.0002505611628293991, 4.538996654446237e-05, -0.00021451736392918974, 0.037324048578739166, 0.049000684171915054, 0.0004651960334740579, 0.2203327715396881, 0.001309445477090776, 0.00045282236533239484, 0.20139841735363007, -0.0008319994667544961, 0.0003324902500025928, 0.19525940716266632, -0.07980406284332275, -0.00021721379016526043, 0.0004193687636870891, 0.022581633180379868, -0.033111538738012314, -0.00603314395993948, -0.00034068123204633594, -0.1603931486606598, 0.000979420612566173, -0.03650205209851265, -0.00028091450803913176, 0.01582680083811283, -0.026559624820947647, 0.03292039409279823, -0.000318160600727424, -0.04611342400312424, 0.03441149741411209, -0.0007924488163553178, 0.00027552235405892134, -0.07739565521478653, -0.00019530722056515515], [-2.19174785343057e-06, 0.0004911458236165345, -1.7729720639181323e-05, 7.140164962038398e-05, -2.405990016995929e-06, 2.2894069843459874e-05, 1.4278388107413775e-06, 2.4221519652201096e-06, -2.802090193654294e-06, -8.277883171103895e-05, 0.0001267946936422959, 2.191086650782381e-06, -0.0002916728553827852, 1.0599504776109825e-06, 2.1743976503785234e-06, -0.0006204635137692094, -1.198643531097332e-06, 2.0575498638208956e-06, -0.0006002910668030381, -0.00020137584942858666, -1.0846873692571535e-06, 2.1395098883658648e-06, -1.3682676581083797e-05, 0.00010487737017683685, -2.5032341000041924e-05, -2.14483225136064e-06, 0.0002004756242968142, 0.0001591515465406701, 0.00010081631626235321, 1.380214825985604e-06, 3.4762077120831236e-05, -5.4572345106862485e-05, 5.305837112246081e-05, -2.0900199615425663e-06, -0.00012954368139617145, -2.9162712962715887e-05, 1.4766824278922286e-06, -2.0038019101775717e-06, 0.0001288639905396849, -1.2615756759259966e-06], [-0.00014215898409020156, 0.02762175165116787, 0.004094397649168968, -0.05714861676096916, -0.0015265073161572218, -0.025715745985507965, 0.001807490480132401, -0.0005788184353150427, 0.001775221317075193, 0.03665091097354889, 0.2232160121202469, 0.0004521265800576657, -0.04979214817285538, 0.0013073048321530223, 0.0004032971046399325, -0.006679362617433071, -0.0015100007876753807, 0.00031811255030333996, -0.0003197276091668755, -0.04829326272010803, -0.0011719291796907783, 0.0003923377371393144, -0.0011466137366369367, -0.14165708422660828, 0.03873833641409874, -0.0006143632926978171, -0.07605986297130585, 0.00021932439994998276, 0.006909905467182398, 0.001999586122110486, 0.07646314799785614, 0.0799970030784607, 0.03747885301709175, -0.00038979112287051976, -0.020290814340114594, -0.08228598535060883, -0.0013396034482866526, 0.001313346321694553, -0.08552656322717667, -0.0010943342931568623], [0.00012938839790876955, 0.42705512046813965, 0.011547393165528774, 0.1153014525771141, 0.001880540745332837, 0.013160337693989277, -0.0017117307288572192, 0.0012643082300201058, -0.0013141630915924907, -0.04185591638088226, -0.0006218684138730168, -0.0004872682620771229, -0.3787371516227722, -0.0018642119830474257, -0.0004825652576982975, -0.6197803020477295, 0.0018299950752407312, -0.00012455640535335988, -0.675953209400177, 0.05656791478395462, 0.0005067125894129276, -0.00037697984953410923, 0.0028963182121515274, -0.15497951209545135, -0.010213942267000675, 0.0006061789463274181, 0.2917611598968506, 0.15905681252479553, 0.11246760189533234, -0.0015374469803646207, 0.021851561963558197, 0.04315773770213127, -0.011555882170796394, 4.562006870401092e-05, -0.07304588705301285, -0.034667983651161194, 0.0015065474435687065, -0.0015271080192178488, 0.13647790253162384, 0.0007424110663123429], [1.853608068813628e-06, 0.0004679398552980274, 5.014358976040967e-05, -3.185352397849783e-05, 2.098181994369952e-06, 2.8312677386566065e-05, -3.7736558624601457e-06, -2.528072400309611e-06, 2.2835517938801786e-06, 0.0002035995275946334, 4.275272294762544e-05, -1.3998545682625263e-06, -6.927023059688509e-05, -4.407196229294641e-06, -1.375333795294864e-06, -0.0006531570688821375, 4.660313607018907e-06, -1.1990930488536833e-06, -0.0006067400681786239, 0.0001936760381795466, 1.4017767853147234e-06, -1.3107477343510254e-06, 8.239961607614532e-05, -0.00022413497208617628, 3.153082070639357e-05, 9.169988857138378e-07, 0.00011137050023535267, -6.986007065279409e-05, -2.1595795260509476e-05, -1.795749426491966e-06, -0.00010942829976556823, 0.0005232018302194774, -0.0003968163800891489, 1.1286086873951717e-06, 0.00016523800150025636, -0.00017600161663722247, 1.1058189386403683e-07, 1.6470117998323985e-06, -0.00037356087705120444, 1.108368792301917e-06], [2.5624676709412597e-06, 0.0011359578929841518, 2.6540654289419763e-05, -8.618640276836231e-05, 1.211494463859708e-06, -1.864761179604102e-05, -2.5197575723723276e-06, -3.233109509892529e-06, 3.2183711482502986e-06, 0.00017570858472026885, 0.00038850135751999915, -1.6746281517043826e-06, -0.0006054528057575226, -3.4877120924647897e-06, -1.7650653489909018e-06, -0.0013618005905300379, 3.6925207496096846e-06, -1.2911301610074588e-06, -0.0013155050110071898, 0.0005624107434414327, 7.247465418913634e-07, -1.5757560731799458e-06, 9.009529458126053e-05, -0.0001623162825126201, 4.5580720325233415e-05, 6.843146138635348e-07, 0.00029067497234791517, -0.00010308779019396752, -7.078903763613198e-06, -4.116463401260262e-07, -0.0001244864979526028, 0.0003733605262823403, -0.000343007268384099, 1.11053520868154e-06, 0.00011961682321270928, -0.00022412110411096364, -6.094113587096217e-07, 3.5413870591582963e-06, -0.00020291874534450471, 3.2363894320042164e-07], [0.0005239066085778177, -0.2858951687812805, 0.02133360132575035, -0.0074826013296842575, 0.000326185894664377, 0.0016228763852268457, 9.181606401398312e-06, -0.000794504361692816, 0.0008894518250599504, -0.027548588812351227, -0.20896314084529877, -0.00045249564573168755, 0.18120077252388, 0.0001845824153861031, -0.0004710436624009162, 0.3091539740562439, 0.0002244710922241211, -0.0004239651025272906, 0.30399665236473083, 0.328032910823822, 0.00010025915980804712, -0.0004290798678994179, -0.004161386284977198, 0.02828865870833397, 0.09577992558479309, 0.0003025697951670736, -0.08254582434892654, -0.10771798342466354, -0.03635358810424805, -0.00024005000886972994, -0.00029083312256261706, 0.02568662352859974, -0.07541424036026001, 0.00038423744263127446, 0.056978415697813034, -0.024829259142279625, -0.0008811813895590603, 0.0011288885725662112, -0.048347946256399155, 1.2510027772805188e-05], [-7.705417601755471e-07, 8.537454414181411e-05, 1.4251771972340066e-05, -1.543640246381983e-05, -1.2350673159744474e-06, 3.304084384581074e-05, 1.1735078260244336e-06, -8.002967177844766e-09, 3.3957329037548334e-07, 6.505341843876522e-06, 1.4206655578163918e-05, 9.147760806627048e-07, -3.304515121271834e-05, 9.881176765702548e-07, 8.849025903145957e-07, -0.00013012881390750408, -9.489698413744918e-07, 8.060608251980739e-07, -0.00012264953693374991, -5.496703670360148e-05, -8.153058388415957e-07, 8.801582112027972e-07, -4.478135451790877e-06, 4.603743218467571e-05, -1.989434713323135e-05, -9.84961275207752e-07, 1.5546071153949015e-05, 4.0528193494537845e-05, 1.5045160580484662e-05, 9.98395307760802e-07, 3.661574282887159e-06, 3.477803693385795e-05, -2.6366573365521617e-05, -8.339534929291403e-07, 1.6415320942542166e-06, 8.101936145976651e-06, -5.531135798264586e-07, 5.6041159268716e-07, 3.1179331472230842e-06, -8.786645366853918e-07], [-1.8876788772104192e-06, 0.0007033245638012886, -3.785312583204359e-05, 9.304599370807409e-05, -2.7765238428401062e-06, 6.962611678318353e-06, 1.7483805550000397e-06, 2.2621975404035766e-06, -2.8838937851105584e-06, -7.110713340807706e-05, 0.0002117872645612806, 2.0516299628070556e-06, -0.000412927707657218, 1.2557513855426805e-06, 1.9926108052459313e-06, -0.0008518211543560028, -1.4589694501410122e-06, 1.9508663626766065e-06, -0.0008282649214379489, -0.00019185048586223274, -1.3002299965592101e-06, 2.002160044867196e-06, -1.418338251824025e-05, 8.48137351567857e-05, -3.069788363063708e-05, -2.1868393105251016e-06, 0.0002506200107745826, 0.0001245285093318671, 0.00010547752026468515, 1.6638955457892735e-06, 6.640510491706664e-06, -3.576244489522651e-05, 4.5152097300160676e-05, -2.0783627405762672e-06, -9.188398689730093e-05, -5.2626495744334534e-05, 1.5870488141445094e-06, -1.7933836033989792e-06, 6.927605136297643e-05, -1.5183037476163008e-06], [-0.0015663114609196782, -0.12409606575965881, 0.07881990075111389, -0.1331169456243515, -0.0009436996188014746, 0.009251903742551804, -0.00021424313308671117, 0.0007252519717440009, -0.00036127871135249734, 0.09739384055137634, -0.08786033093929291, 0.0015619349433109164, -0.00588400661945343, -0.0007931685540825129, 0.0016111002769321203, 0.24986547231674194, 0.0007055805181153119, 0.0015899809077382088, 0.23455490171909332, 0.12039072811603546, -0.0011818177299574018, 0.0016035207081586123, -0.04179767891764641, 0.1492026001214981, 0.00019011898257303983, -0.0015639904886484146, -0.018303923308849335, -0.07560014724731445, -0.003623714204877615, 0.0004225140146445483, 0.12413905560970306, -0.06351928412914276, -0.025116082280874252, -0.0015080542070791125, 0.033186692744493484, -0.039017461240291595, 0.0004236573586240411, -0.00020333976135589182, -0.031745512038469315, -0.0012041489826515317], [0.0013087403494864702, 0.0677880048751831, 0.06013534963130951, 0.048322394490242004, 0.0007291738293133676, 0.01166639756411314, -0.0007627811864949763, -0.0016092881560325623, 0.0018143010092899203, -0.014336002059280872, 0.057100262492895126, -0.0011689930688589811, -0.03926770016551018, -0.0006511964020319283, -0.0011648923391476274, -0.22855813801288605, 0.0008568699122406542, -0.0009633333538658917, -0.21467354893684387, 0.22912181913852692, -0.0003526529180817306, -0.0011014781193807721, 0.00865661259740591, 0.15780024230480194, -0.05723373219370842, 0.0008443445549346507, 0.12100308388471603, 0.08672643452882767, -0.01122650969773531, -6.734752241754904e-05, -0.002428264357149601, 0.006005636416375637, 0.02414160780608654, 0.0009005623287521303, -0.006009199656546116, 0.06786880642175674, -0.0011796718463301659, 0.002102414844557643, -0.09528359025716782, -0.0003325201105326414], [0.0018827924504876137, 0.030387679114937782, 0.06816007196903229, -0.031532805413007736, 0.002558369655162096, 0.014582131989300251, -0.0025973503943532705, -0.000857737788464874, 6.608053809031844e-06, 0.03515556827187538, 0.013604932464659214, -0.0020781431812793016, -0.006623794790357351, -0.0028684157878160477, -0.0020310808904469013, -0.0011155999964103103, 0.002432414563372731, -0.0016851965337991714, -0.012184296734631062, -0.34068214893341064, 0.0007964309770613909, -0.0019417476141825318, -0.013529473915696144, -0.02210552990436554, 0.005896127782762051, 0.001949023106135428, 0.09289064258337021, 0.029479172080755234, 0.1237783133983612, -0.0014512964989989996, 0.018160996958613396, 0.05567064508795738, 0.10100921243429184, 0.0016359083820134401, -0.06056288257241249, 0.004929514601826668, 0.001202701241709292, -0.00012791769404429942, -0.04530933126807213, 0.0010364213958382607], [-4.174562945991056e-06, 0.0003647640405688435, -1.7412497982149944e-05, -9.091536776395515e-05, -4.480797542782966e-06, 0.00010142442624783143, 4.631326646631351e-06, 2.522032445995137e-06, -1.2622643907889142e-06, -4.8426896682940423e-05, 0.0004052257863804698, 4.22119592258241e-06, -0.00019338386482559144, 4.671994702221127e-06, 4.102121692994842e-06, -0.00046465109335258603, -4.607926257449435e-06, 3.9215733522723895e-06, -0.000451068626716733, -0.00020156071695964783, -3.517662207741523e-06, 4.095618351129815e-06, -6.305620627244934e-05, -2.7285029773338465e-06, -4.4745629566023126e-05, -4.135400104132714e-06, 0.00014142747386358678, 0.0003147439274471253, 0.00013313392992131412, 3.898057002515998e-06, 1.513229562988272e-05, -3.756590012926608e-05, 6.869810749776661e-05, -4.01540455641225e-06, -0.00030841355328448117, 0.000130042593809776, -1.0521547437747358e-06, -1.1897753893208574e-07, 0.00016704534937161952, -3.5103985283058137e-06], [-0.0018987293587997556, -0.8487327694892883, 0.05125446617603302, -0.3426516354084015, 0.0009253639145754278, -0.058084312826395035, -0.0024460216518491507, 0.0014805810060352087, -0.004483405500650406, -0.052669595927000046, -0.034683141857385635, 0.001407395931892097, 0.18429973721504211, -0.0029933550395071507, 0.0014879659283906221, 0.8854754567146301, 0.0028893728740513325, 0.0013164702104404569, 0.716116189956665, 0.11451825499534607, 0.0006997697637416422, 0.0014453313779085875, -0.008548025041818619, 0.2786374092102051, 0.0012989253737032413, -0.0009495485574007034, -0.21027043461799622, -0.1059405580163002, -0.10842356830835342, -0.0020818780176341534, -0.02723884955048561, -0.05488700419664383, -0.013370998203754425, -0.0012987798545509577, 0.07468891143798828, -0.020396362990140915, 0.0038089891895651817, -0.003907514736056328, -0.25143754482269287, 0.0006483980687335134], [-2.652215471243835e-06, 0.00025187042774632573, -1.6870468243723735e-05, -0.00010315783583791927, -5.676480668626027e-06, 0.00022247144079301506, 7.524059583374765e-06, -8.559687785236747e-07, 2.9571949653472984e-06, 2.072309325740207e-05, 0.00036428688326850533, 3.1912725262372987e-06, 0.00010088666022056714, 8.749396329221781e-06, 2.9827845082763815e-06, -0.0003361171984579414, -8.534706466889475e-06, 2.7773241981776664e-06, -0.0003209679271094501, 0.00010485178790986538, -5.162125034985365e-06, 3.050062787224306e-06, -0.00010470223787706345, -6.584606308024377e-05, -3.8537484215339646e-05, -3.6551182347466238e-06, -0.0001448765688110143, 9.903036698233336e-05, 6.621839929721318e-07, 6.040395419404376e-06, 3.3419561077607796e-05, 0.0002008965821005404, -0.00014026620192453265, -3.0821738619124517e-06, -0.00025163739337585866, 0.00034222836256958544, -5.109329777042149e-06, 4.227911176712951e-06, -0.00017537990061100572, -5.075713033875218e-06], [-6.27509052719688e-07, 0.0006053008255548775, -1.676477950240951e-05, 6.681386730633676e-05, -1.685374513726856e-06, -3.42352177540306e-05, 3.2672446081960516e-08, -1.6452619888696063e-07, -8.421656048085424e-07, 2.4701574147911742e-05, 0.00011877906217705458, 9.790655894903466e-07, -0.00024845468578860164, -1.244518671228434e-06, 9.694537084214971e-07, -0.0007444741786457598, 7.113774245226523e-07, 9.139716325989866e-07, -0.0007170516182668507, 8.060230902628973e-05, -7.702562356826093e-07, 9.77525814960245e-07, 1.2366931514407042e-05, 1.067318044079002e-05, 2.0721643522847444e-05, -1.301379597862251e-06, 0.00011273680865997449, -6.153525464469567e-05, 1.9155411791871302e-05, 7.538280897279037e-07, -2.7513429813552648e-05, 0.00018792423361446708, -0.00017963229038286954, -1.039363723975839e-06, 8.905632421374321e-05, -0.00011753838043659925, 1.4412540849662037e-06, -1.0523738183110254e-06, -0.000137262002681382, -1.0095736797666177e-06], [4.69519463308643e-08, 0.0005069833132438362, -2.2305008315015584e-05, -6.660806775471428e-06, -1.1490743645481416e-06, -3.3792093745432794e-05, -3.3516036523906223e-07, -1.150839239016932e-06, 1.7597437818039907e-06, 8.296911255456507e-05, 0.00014207181811798364, 4.833072466681188e-07, -0.00011315822484903038, -1.6599055925325956e-06, 4.726532836230035e-07, -0.0006330159958451986, 1.2256600712134968e-06, 5.111846235195117e-07, -0.0005993809900246561, 0.00022940915368963033, -5.36826746611041e-07, 5.103121338834171e-07, 1.869678271759767e-05, -0.00014335582091007382, 7.344222831306979e-05, -9.642847089708084e-07, -1.9156865164404735e-05, -0.00016358452558051795, -4.678089317167178e-05, 7.85927966262534e-07, -8.024847193155438e-05, 0.00042395610944367945, -0.000387040083296597, -5.580839683716476e-07, 0.00015149969840422273, -0.00013247350580058992, 4.6471441805806535e-08, 9.487400234320376e-07, -0.00031301716808229685, -7.869741125432483e-07], [0.0012481840094551444, 0.07079640030860901, 0.05330931022763252, 0.01352644246071577, 0.0016034258296713233, -0.022692862898111343, -0.0013341187732294202, -0.0012944636400789022, 0.001986304298043251, 0.0604180172085762, 0.196402445435524, -0.0012718918733298779, 0.13852716982364655, -0.0005316751776263118, -0.0013152401661500335, -0.1376664936542511, 0.0013145062839612365, -0.0009400168783031404, -0.13685064017772675, 0.3956735134124756, -0.0007660964620299637, -0.0011735651642084122, 0.018607959151268005, 0.014038603752851486, -0.04319225251674652, 0.0009777818340808153, 0.04793801158666611, 0.019143734127283096, 0.027163363993167877, -0.0013832439435645938, 0.040608085691928864, -0.037023745477199554, 0.012359454296529293, 0.0008159892167896032, -0.050314635038375854, 0.044244248420000076, -0.0015222952933982015, 0.002120290882885456, -0.05602341145277023, -0.0005550432251766324], [-0.0005329379928298295, -0.17272037267684937, -0.025132164359092712, -0.09492374956607819, -0.00031490979017689824, 0.04159558191895485, 0.0010259037371724844, 0.0016852812841534615, -0.0026607606559991837, 0.018185963854193687, -0.10751506686210632, 0.0003646472468972206, 0.005811684764921665, 0.00028962036594748497, 0.00035201795981265604, 0.22136782109737396, -0.001309093669988215, 0.0004235875094309449, 0.2079053670167923, -0.00670283567160368, 0.00015455068205483258, 0.00036875123623758554, 0.03483068570494652, -0.06395377963781357, 0.038641754537820816, -0.00029168312903493643, -0.04310844838619232, -0.09952457249164581, 0.07699108868837357, 0.0008550031925551593, -0.013367868028581142, 0.009690472856163979, -0.04332350939512253, -0.0003787446767091751, -0.07035748660564423, 0.06165526062250137, 0.0024951414670795202, -0.003225383348762989, -0.04510580748319626, 0.00011766375246224925], [-2.7911939923797036e-06, 0.0006053889519535005, -3.382891372893937e-05, 6.885608308948576e-05, -2.8918429961777292e-06, 2.294732621521689e-05, 1.8471718021828565e-06, 3.2053544600785244e-06, -3.503273319438449e-06, -7.459668995579705e-05, 0.00022746925242245197, 2.7668233997246716e-06, -0.000374224764527753, 1.470235588385549e-06, 2.7301719001116e-06, -0.0007466556853614748, -1.6225526451307815e-06, 2.655151320141158e-06, -0.0007251692586578429, -0.00024127276265062392, -1.4192565913617727e-06, 2.7126397981191985e-06, -2.1252912119962275e-05, 6.849231431260705e-05, -3.919549999409355e-05, -2.7026817406294867e-06, 0.0002620764134917408, 0.00020107861200813204, 0.00012237827468197793, 1.7167744772450533e-06, 8.15003295429051e-06, -7.776083657518029e-05, 9.001798753160983e-05, -2.712047489694669e-06, -0.00016662741836626083, -2.7346279239282012e-05, 1.7437693031752133e-06, -2.3395491552946623e-06, 0.00014284347707871348, -1.6114837535496918e-06], [-0.002659295918419957, -0.1817067265510559, -0.004387955646961927, -0.07877623289823532, -0.0013934706803411245, 0.057817503809928894, -0.00017372958245687187, 0.0022314563393592834, -0.0010174202034249902, -0.019701287150382996, 0.08205903321504593, 0.0025722237769514322, 0.2046080380678177, -0.0005126906908117235, 0.00258867209777236, 0.24729453027248383, 0.0003108591481577605, 0.002601990941911936, 0.22187848389148712, 0.00553791644051671, -0.0015997055452317, 0.0025674744974821806, -0.031107645481824875, 0.10754253715276718, 0.001498945290222764, -0.0024747145362198353, -0.009778335690498352, 0.015505989082157612, -0.026192644611001015, 0.00086574925808236, 0.014546877704560757, -0.0765870064496994, 0.013635211624205112, -0.002470159437507391, 0.050502240657806396, 0.036633748561143875, 0.0004780865856446326, -0.0007938533090054989, -0.003007233142852783, -0.0016361656598746777], [-8.424991619904176e-07, 0.0005661228788085282, -1.87634868780151e-05, -4.469680425245315e-05, -3.887082584697055e-06, 5.314484951668419e-05, 5.4114757404022384e-06, -1.6788478660600958e-06, 3.185969262631261e-06, 0.0001141058310167864, 3.6932367947883904e-05, 1.4712079519085819e-06, -0.00022049872495699674, 5.832898295921041e-06, 1.302234750255593e-06, -0.0007194070494733751, -5.2483269428194035e-06, 1.0895258810705855e-06, -0.0006743180565536022, -5.421521564130671e-05, -2.8810627554776147e-06, 1.342136101811775e-06, 1.2021600070966088e-07, -3.6271329008741304e-05, -5.1008069021918345e-06, -1.961280304385582e-06, 0.00011820850340882316, -6.751178443664685e-05, -6.659543578280136e-05, 3.93083291783114e-06, -3.31096671288833e-05, 0.0005424663540907204, -0.0003885172482114285, -1.3127753391017905e-06, 8.245006938523147e-06, 1.7764215954230167e-05, -4.0021923268795945e-06, 3.827734417427564e-06, -0.00034542926005087793, -3.0120745577733032e-06], [-2.552493697294267e-06, 0.0006425052415579557, -3.577219831640832e-05, 7.089711289154366e-05, -2.7208013761992333e-06, 2.419972042844165e-05, 1.7322195162705611e-06, 3.0961459742684383e-06, -3.5000787192984717e-06, -7.736357656540349e-05, 0.00024239100457634777, 2.5553540581313428e-06, -0.00039883150020614266, 1.4072559224587167e-06, 2.5012150217662565e-06, -0.0007847686647437513, -1.5508956039411714e-06, 2.4538896923331777e-06, -0.0007630680338479578, -0.0002328572591068223, -1.344167003480834e-06, 2.4989628855109913e-06, -2.0055116692674346e-05, 7.303459278773516e-05, -4.0146282117348164e-05, -2.5219037524948362e-06, 0.0002761810028459877, 0.00019514905579853803, 0.00012374762445688248, 1.6051910733949626e-06, 6.793207376176724e-06, -7.865218503866345e-05, 9.381650306750089e-05, -2.5404347070434596e-06, -0.00016007982776500285, -3.116687366855331e-05, 1.776918566065433e-06, -2.286724338773638e-06, 0.00013847164518665522, -1.5303594409488142e-06], [0.0006574781727977097, -0.229486346244812, 0.002989220665767789, -0.054267507046461105, 0.001244893646799028, -0.004087826702743769, -0.0009381095878779888, 9.326375584350899e-05, -0.00019248305761720985, 0.010227799415588379, -0.07422401010990143, -0.0008164687315002084, 0.11674380302429199, -0.0007603418198414147, -0.0008238935261033475, 0.2660595178604126, 0.0007853077840991318, -0.0006493081455118954, 0.25728562474250793, -0.054419517517089844, 0.00036778923822566867, -0.0007786306669004261, 0.002619938924908638, 0.01930471882224083, 0.0097147012129426, 0.0008332438301295042, -0.11168476194143295, -0.06410835683345795, -0.024428969249129295, -0.0010110209695994854, 0.00014855751942377537, -0.023953892290592194, 0.006154928356409073, 0.0006804389995522797, 0.03474282845854759, 0.011719045229256153, 0.00015875700046308339, -0.0002325076056877151, -0.06332509219646454, 0.0005060485564172268], [-2.2086469471105374e-06, 5.2913499530404806e-05, -4.6896893763914704e-05, -3.129521428490989e-05, -6.231659426703118e-06, 0.00015348909073509276, 9.030520232045092e-06, -1.434758246432466e-06, 3.228531568311155e-06, -9.64434821071336e-06, 0.00017236043640878052, 2.857130994016188e-06, 0.0001726158952806145, 9.409650374436751e-06, 2.641248784129857e-06, -0.00013176945503801107, -9.121939910983201e-06, 2.324840579603915e-06, -0.00011063260899391025, 9.602091449778527e-05, -4.551786332740448e-06, 2.6802674710779684e-06, -7.303833990590647e-05, -9.892674279399216e-05, -3.2626539905322716e-05, -3.3396420349163236e-06, -0.00025234700297005475, 7.779228326398879e-05, -2.0586616301443428e-05, 6.437684533011634e-06, 1.1930639630008955e-05, 0.0003164772060699761, -0.00023968398454599082, -2.6273962703271536e-06, -0.00019939194316975772, 0.00031511636916548014, -5.5456735026382376e-06, 5.045975740358699e-06, -0.000282073364360258, -4.579474079946522e-06], [-2.2868159703648416e-06, 0.0004697860567830503, -2.8350725187920034e-05, 7.254897354869172e-05, -2.2360761704476317e-06, 2.1164483769098297e-05, 1.2170837635494536e-06, 2.681946853044792e-06, -3.174479843437439e-06, -6.645944085903466e-05, 0.0001334560802206397, 2.2658207399217645e-06, -0.00027404894353821874, 8.112764362522285e-07, 2.2326205453282455e-06, -0.0005944515578448772, -1.0249774504700326e-06, 2.1052373995189555e-06, -0.0005750132258981466, -0.00022286409512162209, -9.468021744396538e-07, 2.2029373667464824e-06, -1.419777709088521e-05, 6.887967902002856e-05, -3.308663872303441e-05, -2.163524641218828e-06, 0.0001962020032806322, 0.0001717420236673206, 9.973223495762795e-05, 1.1935956081288168e-06, 6.047370789019624e-06, -6.382406718330458e-05, 8.017469372134656e-05, -2.183488049922744e-06, -0.0001553374604554847, -2.1169678802834824e-05, 1.8484161046217196e-06, -2.43535146182694e-06, 0.00011955372610827908, -1.11943552383309e-06], [5.280537880025804e-05, -0.22749526798725128, -0.03438185155391693, -0.12305203825235367, 0.0002641465107444674, -0.16449910402297974, -0.0005068879690952599, 0.00010001125338021666, -0.00039080489659681916, 0.01709473505616188, -0.002093726769089699, -5.925198638578877e-05, 0.06710013747215271, 9.095141285797581e-05, -7.786828791722655e-05, 0.3032013475894928, 0.0003174323064740747, -4.814736166736111e-05, 0.2969438135623932, -0.05795544385910034, -2.0739813407999463e-05, -6.666646368103102e-05, 0.01409708708524704, 0.0019573690369725227, 0.01971741020679474, 4.8882648115977645e-05, -0.14685247838497162, -0.16832880675792694, -0.00033277960028499365, -0.00029944375273771584, 0.0094586918130517, -0.038223423063755035, -0.0015280619263648987, 4.536458072834648e-05, -0.014605125412344933, -0.12704400718212128, 0.00011494762293295935, -0.00032236057450063527, 0.01481441967189312, 3.0680312192998827e-05], [-0.000948642729781568, -0.4139102101325989, 0.06798204034566879, -0.13208985328674316, -0.0015727807767689228, -0.023700566962361336, 0.001085069845430553, 6.408715125871822e-05, 0.0009651948348619044, 0.1431695818901062, -0.05498996376991272, 0.0010951224248856306, 0.2833203077316284, 0.0009713993640616536, 0.0010982021922245622, 0.41738051176071167, -0.0009204864618368447, 0.001033630222082138, 0.40998536348342896, 0.22826312482357025, -0.0013149037258699536, 0.0010817181318998337, 0.07222580909729004, -0.10594386607408524, -0.062044888734817505, -0.0011656821006909013, -0.0839531421661377, -0.05451691895723343, -0.03599966689944267, 0.0014855088666081429, -0.008582242764532566, -0.17837437987327576, 0.1251714676618576, -0.0010413096752017736, -0.1136578693985939, -0.09096039086580276, -0.0012006500037387013, 0.001505394233390689, -0.3863576650619507, -0.0013823675690218806], [-5.862861485184112e-07, 6.208754348335788e-05, 1.2081550266884733e-05, -9.95733353192918e-06, -1.002215753942437e-06, 2.6581998099572957e-05, 9.30220153350092e-07, -7.061557028009702e-08, 3.301568085589679e-07, 6.40537973595201e-06, 5.466639322548872e-06, 7.26390055660886e-07, -2.5150009605567902e-05, 6.255673383748217e-07, 7.038916578494536e-07, -9.873952512862161e-05, -6.667730758636026e-07, 6.456872938542801e-07, -9.318399679614231e-05, -4.551097299554385e-05, -6.428379037970444e-07, 7.018795713520376e-07, -3.7466970752575435e-06, 1.5056159099913202e-05, -3.734538040589541e-06, -8.059130323090358e-07, 2.207742909376975e-05, 4.127974534640089e-05, 6.6148854784842115e-06, 8.57137422372034e-07, -2.1229088815744035e-06, 5.482462074724026e-05, -4.466917016543448e-05, -6.646422434641863e-07, -4.5144324758439325e-06, 1.522127718089905e-06, -3.7007472997174773e-07, 4.276938909697492e-07, -9.26963912206702e-06, -7.147056635403715e-07], [-2.5053159333765507e-06, 0.0005737876635976136, -3.350494080223143e-05, 7.096918852766976e-05, -2.603377652121708e-06, 2.3800590497558005e-05, 1.6153396700246958e-06, 2.970095920318272e-06, -3.365423481227481e-06, -7.461171480827034e-05, 0.00020170836069155484, 2.491342229404836e-06, -0.00034824959584511817, 1.2580239854287356e-06, 2.450728743497166e-06, -0.0007100158836692572, -1.4167270592224668e-06, 2.373209781580954e-06, -0.000689142441842705, -0.0002345762331970036, -1.2408291922838544e-06, 2.4347946236957796e-06, -1.9152899767505005e-05, 7.180710235843435e-05, -3.6873425415251404e-05, -2.4328821837116266e-06, 0.00024086912162601948, 0.00019011828408110887, 0.0001177350859506987, 1.507011916146439e-06, 6.920030045876047e-06, -7.439688488375396e-05, 8.798852650215849e-05, -2.4448522708553355e-06, -0.00016172512550838292, -2.5470890250289813e-05, 1.7551753899169853e-06, -2.302170969414874e-06, 0.00013323606981430203, -1.4251982065616176e-06], [4.704502862296067e-05, 0.23921164870262146, 0.0018753786571323872, -0.012546239420771599, 0.000979569391347468, -0.018883859738707542, -0.001768417190760374, 0.0008270425605587661, -0.001057419111020863, -0.0019997553899884224, 0.26968953013420105, -0.00019696752133313566, 0.015403838828206062, -0.002264285460114479, -0.00015504741168115288, -0.24807356297969818, 0.002101570600643754, -6.902411405462772e-05, -0.24045877158641815, 0.018375566229224205, 0.00040566467214375734, -0.00014481852122116834, 0.0017764969961717725, -0.020462442189455032, -0.004824691917747259, 0.0002892478951252997, 0.08409587293863297, 0.07866784185171127, 0.04455181956291199, -0.0006829511257819831, 0.010174104943871498, 0.019110266119241714, -0.02687394805252552, 9.620199853088707e-05, -0.036400165408849716, -0.018023312091827393, 0.0019070476992055774, -0.0015620647463947535, 0.02362154982984066, 0.0004112131427973509], [-0.0010251301573589444, 0.10268236696720123, -0.028645049780607224, 0.018864989280700684, -0.0012215260649099946, 0.058084722608327866, 0.00021109099907334894, 0.0009841974824666977, -0.00011986109893769026, -0.03622882813215256, 0.04381130263209343, 0.0011188762728124857, 0.015983818098902702, -0.0005690068355761468, 0.001137996674515307, -0.13028010725975037, -0.00019542750669643283, 0.0011065019061788917, -0.126504585146904, 0.2562917470932007, -0.0012794600334018469, 0.0010925482492893934, 0.05339961126446724, -0.08354175090789795, 0.012230782769620419, -0.001150712720118463, -0.05680884048342705, 0.052769072353839874, 0.06470854580402374, 0.0017416756600141525, -0.01872732676565647, 0.04889065772294998, 0.041607387363910675, -0.0011324757942929864, -0.11501401662826538, 0.12311623990535736, 0.0006384008447639644, -0.0003733747289516032, -0.22450660169124603, -0.0013432659907266498], [1.6874537323019467e-05, 0.2359473556280136, 0.0014261433389037848, 0.0036953906528651714, 0.00036104509490542114, -0.001507739769294858, -0.0003950542595703155, 0.00017004922847263515, -0.0001778054138412699, 0.03760463744401932, 0.19232840836048126, -7.747895870124921e-05, -0.07941658794879913, -0.0006341272965073586, -7.239352271426469e-05, -0.23942513763904572, 0.000542165245860815, 2.815076913975645e-05, -0.23511730134487152, -0.008867998607456684, -0.00011126403114758432, -3.855549584841356e-05, -0.007383682299405336, -0.02042464166879654, -0.04073081538081169, 6.192150613060221e-05, 0.09946420043706894, 0.06591767072677612, 0.039702899754047394, -0.00016977096674963832, 0.0071429964154958725, -0.026876304298639297, 0.008703291416168213, -4.054908640682697e-05, -0.02934352308511734, 0.03365706279873848, 0.0003720597014762461, -0.0003253956965636462, 0.05917796492576599, -7.037394243525341e-05], [-3.047803147637751e-06, 0.000374410767108202, -2.3039585357764736e-05, 2.776218570943456e-05, -2.540404693718301e-06, 3.8168956962181255e-05, 1.6128087736433372e-06, 3.301683591416804e-06, -3.2905084026424447e-06, -6.714315532008186e-05, 0.00017414212925359607, 2.917080564657226e-06, -0.00024094559194054455, 1.3464609764923807e-06, 2.8900867619086057e-06, -0.0004872618883382529, -1.448164198336599e-06, 2.7512007818586426e-06, -0.00047147381701506674, -0.0002297234022989869, -1.2565482165882713e-06, 2.8477377327362774e-06, -2.253710408695042e-05, 5.35886938450858e-05, -3.6936857213731855e-05, -2.6805198558577104e-06, 0.00019226169388275594, 0.00023835852334741503, 0.00010882714559556916, 1.4823965557297925e-06, 9.132277227763552e-06, -9.018475248012692e-05, 0.00010808337538037449, -2.773586857074406e-06, -0.0002133760426659137, 4.697071744885761e-06, 1.5921036720101256e-06, -2.3785094072081847e-06, 0.00018366175936535, -1.3974809007777367e-06], [0.0029038372449576855, -0.22903850674629211, 0.04409513622522354, -0.09495869278907776, 0.0022206201683729887, 0.030950166285037994, -0.0012548251543194056, -0.0034206644631922245, 0.0023434713948518038, -0.050591275095939636, -0.03375941514968872, -0.0028883577324450016, 0.17885445058345795, -0.0009370974730700254, -0.0028627412393689156, 0.23162005841732025, 0.0007649995968677104, -0.0027927036862820387, 0.22398565709590912, 0.03138867765665054, 0.0017081147525459528, -0.0028264096472412348, 0.013386568054556847, -0.01749810017645359, 0.04579848796129227, 0.002747393911704421, -0.06711962819099426, -0.004469972103834152, -0.1612628847360611, -0.001985863083973527, -0.07688961923122406, 0.05029918998479843, -0.00783486757427454, 0.0027345267590135336, 0.06000259891152382, -0.13273514807224274, -0.0011009759036824107, 0.0021293601021170616, -0.06810494512319565, 0.0018769819289445877], [0.00019422362674959004, -0.1629655659198761, -0.10120708495378494, -0.0800313875079155, 0.0001313298416789621, -0.06781398504972458, -5.319223055266775e-05, -0.0005423107068054378, 0.0010918878251686692, -0.11810570955276489, -0.014567934907972813, -6.642920925514773e-05, 0.6186050772666931, 0.0007370432722382247, -0.00011108304897788912, 0.44326305389404297, 0.00035950689925812185, -5.291173511068337e-05, 0.3585182726383209, 0.12518978118896484, 0.0004222896241117269, -7.171378820203245e-05, -0.009049421176314354, 0.050303805619478226, 0.09375932067632675, 3.290972381364554e-05, -0.11836712807416916, 0.022405723109841347, -0.08304621279239655, -0.0009185042581520975, -0.06690803170204163, -0.031170565634965897, -0.0691390112042427, 4.7227480536093935e-05, 0.05759303271770477, -0.048036493360996246, -0.0013360618613660336, 0.001836469629779458, 0.018413230776786804, 0.0006253721658140421], [0.0015128597151488066, -0.34489205479621887, -0.037801921367645264, -0.09472549706697464, 0.000981021556071937, 0.0003958541783504188, -0.0015073745744302869, -0.002635422395542264, 0.001415088539943099, 0.027145177125930786, 0.006225599907338619, -0.0012323224218562245, 0.19936254620552063, 0.00046157604083418846, -0.0013157670618966222, 0.5403748750686646, 0.000885791436303407, -0.0015479353023692966, 0.47649112343788147, -0.059895109385252, 0.00021725997794419527, -0.0013326873304322362, -0.00865027867257595, 0.09965270757675171, 0.04923536628484726, 0.001060717971995473, -0.4377836585044861, -0.14585191011428833, 0.009574471041560173, -0.0014362086076289415, 0.029714856296777725, -0.049331918358802795, 0.00904366560280323, 0.0013020186452195048, 0.037017446011304855, 0.1219230592250824, -0.0018340536626055837, 0.0018725061090663075, -0.16765034198760986, 0.0001366415963275358], [-2.007445345952874e-06, 0.0001451339339837432, 8.8672913989285e-06, -0.00010033446596935391, -3.6065214317204664e-06, 0.0001780528691597283, 4.551543497655075e-06, 5.627529162666178e-07, 4.806709625881922e-07, -8.667726433486678e-06, 0.000666694832034409, 2.23583674596739e-06, -0.00011551228089956567, 4.1919442992366385e-06, 2.133859879904776e-06, -0.0001769304071785882, -4.400119451020146e-06, 2.01578450287343e-06, -0.00017523104907013476, 0.0001372521073790267, -2.761555606412003e-06, 2.154824869649019e-06, -8.37203988339752e-05, -7.603316771565005e-05, -3.57281205651816e-05, -2.4189589566958603e-06, -0.00012117132428102195, 0.00037599820643663406, 0.00013667151506524533, 3.67298889614176e-06, 3.237705823266879e-05, -7.40987088647671e-05, 7.444507355103269e-05, -2.1706041479774285e-06, -0.00034646946005523205, 0.00029596255626529455, -1.878660668808152e-06, 1.4486510053757229e-06, 0.00018435785023029894, -2.7379128368920647e-06], [0.000258809479419142, 0.17946022748947144, -0.014369690790772438, 0.018423428758978844, 0.0001641895214561373, 0.020862001925706863, 0.0005729611148126423, -0.0004918642807751894, 0.00106957892421633, -0.028597146272659302, 0.22483131289482117, -0.000252657599048689, -0.014862066134810448, 0.0011972914217039943, -0.00030695428722538054, -0.1860578954219818, -0.00078447355190292, -0.00020597761613316834, -0.1892157942056656, 0.05222245678305626, -0.0004614607896655798, -0.00024401511473115534, 0.025571009144186974, -0.11352583765983582, -0.02591332234442234, 0.0001565046259202063, 0.08752213418483734, 0.0743100643157959, 0.017441675066947937, -0.0003400806454010308, -0.03789939358830452, -0.02173391729593277, 0.006581651046872139, 9.599772602086887e-05, 0.023369742557406425, 0.037131939083337784, -0.0012843167642131448, 0.0014225809136405587, 0.0019038738682866096, -0.00043815033859573305], [-0.00018597389862407, 0.07593424618244171, -0.02231406979262829, -0.13974247872829437, 0.0015270878793671727, -0.02474674955010414, -0.002717907540500164, 0.0021387003362178802, -0.0027866167947649956, 0.0349268801510334, 0.5398534536361694, -4.1931943997042254e-05, 0.04469893500208855, -0.0024919789284467697, -8.194318070309237e-05, -0.03646685555577278, 0.003074218286201358, 0.0002482749114278704, -0.06502015143632889, -0.21995335817337036, 0.00013385670899879187, 2.782363117148634e-05, -0.013498594053089619, 0.1695873886346817, -0.008397395722568035, 3.993284917669371e-05, -0.02802582085132599, 0.09267211705446243, 0.0014333573635667562, -0.0008850194863043725, 0.04126030579209328, 0.0036178568843752146, 0.08228514343500137, -0.00038199516711756587, -0.04425128921866417, -0.013617384247481823, 0.002948727924376726, -0.0029074978083372116, -0.020395470783114433, 0.00011592999362619594], [-0.0005732653080485761, -0.05924545228481293, 0.013942766934633255, -0.03132186084985733, -0.0017409974243491888, -0.010540653020143509, 0.0024294971954077482, -0.0014120605774223804, 0.0018412681529298425, -0.0022491510026156902, -0.18141430616378784, 0.0007990897865965962, -0.05856015160679817, 0.0033437316305935383, 0.0007558478973805904, 0.013140416704118252, -0.003005830803886056, 0.00045467240852303803, 0.0022475190926343203, 0.13740020990371704, -0.0009213525336235762, 0.0006958396406844258, 0.021989474073052406, 0.06342053413391113, -0.04077835753560066, -0.0008539953269064426, 0.03709792345762253, 0.07072275876998901, 0.003260936588048935, 0.0005973183433525264, -0.03110622428357601, 0.02655574306845665, 0.03208545967936516, -0.000496296095661819, -0.0740765854716301, 0.035519614815711975, -0.0028021654579788446, 0.0025752719957381487, 0.021176837384700775, -0.001023225486278534], [-2.224475565526518e-06, 0.0004615341604221612, -2.4807832232909277e-05, 7.610625470988452e-05, -2.3655561562918592e-06, 2.3383288862532936e-05, 1.4338580740513862e-06, 2.519580220905482e-06, -2.8911420031363377e-06, -6.294403283391148e-05, 0.00012932058598380536, 2.2048579921829514e-06, -0.00026418748893775046, 9.668541451901547e-07, 2.1929965896561043e-06, -0.0005870579625479877, -1.1736981377907796e-06, 2.07648395189608e-06, -0.0005673538544215262, -0.00020976050291210413, -1.0052821153294644e-06, 2.156653181373258e-06, -1.7781323549570516e-05, 7.665168232051656e-05, -2.839756962202955e-05, -2.138103354809573e-06, 0.00016650375619065017, 0.00015960125892888755, 0.00010341177403461188, 1.3782355381408706e-06, 8.460593562631402e-06, -6.489674706244841e-05, 7.152475154725835e-05, -2.104112127199187e-06, -0.0001378768793074414, -2.34016861213604e-05, 1.6112174989757477e-06, -2.15429690797464e-06, 0.00010463389480719343, -1.1857131312353886e-06], [0.0005098273395560682, -0.1655103862285614, -0.009534968994557858, 0.032753296196460724, -0.0009293413604609668, 0.0164584219455719, 0.0015579521423205733, -0.0009974309941753745, 0.002065550070255995, -0.01620797999203205, -0.06528469920158386, -0.00022172245371621102, 0.04262221232056618, 0.0012841869611293077, -0.00027889912598766387, 0.21510514616966248, -0.0015152953565120697, -0.0003273544425610453, 0.21304279565811157, -0.049429964274168015, -0.0007062844233587384, -0.000276718259556219, -0.03079119138419628, 0.02988021820783615, 0.052413567900657654, 4.9555455916561186e-05, -0.3549177646636963, -0.0588909313082695, -0.12491653114557266, 0.0014727783855050802, 0.06198707967996597, 0.029927143827080727, 0.15260952711105347, 0.0002118315314874053, 0.028496379032731056, -0.08358906209468842, -0.0015384569996967912, 0.001502373954281211, -0.049351368099451065, -0.0006299736560322344], [-8.126242755679414e-05, -0.8206996321678162, -0.02927939034998417, -0.3802621364593506, 0.0019335562828928232, -0.05949357524514198, -0.0017717116279527545, 0.00032449618447571993, -0.0004255916574038565, -0.038023173809051514, -0.10272740572690964, -0.0002792498271446675, 0.34318751096725464, -0.001628667232580483, -0.00026271468959748745, 1.0005677938461304, 0.0019824642222374678, -1.8402210116619244e-05, 0.87054443359375, -0.09782939404249191, 0.00027354879421181977, -0.00017640250734984875, -0.0007566401618532836, 0.08898293226957321, 0.08062651008367538, 0.0003972023259848356, -0.43559029698371887, -0.12159322947263718, -0.03759171441197395, -0.002208408899605274, 0.0003348536556586623, 0.07513883709907532, 0.06525461375713348, 4.272697333362885e-05, -0.0013409180101007223, 0.13012439012527466, 0.00030393150518648326, -0.00044992330367676914, -0.0843096673488617, 0.0003237239143345505], [1.6840499483805615e-06, 0.00043694471241906285, 4.424573126016185e-05, -2.6490830350667238e-05, 1.9915489701816114e-06, 3.165202360833064e-05, -3.6194533095113e-06, -2.2774800072511425e-06, 2.0084607967874035e-06, 0.0001317754213232547, 4.308278948883526e-05, -1.2662560493481578e-06, -6.134247087175027e-05, -4.379562597023323e-06, -1.2359579386611586e-06, -0.0006092925905250013, 4.523523330135504e-06, -1.064020580088254e-06, -0.0005650959792546928, 0.00015754520427435637, 1.3482685972121544e-06, -1.1775059647334274e-06, 6.450032378779724e-05, -0.0002100341662298888, 8.222287578973919e-05, 8.174429808605055e-07, 9.726869029691443e-05, -5.5197320762090385e-05, -2.0891022359137423e-05, -1.6444153061456745e-06, -8.648594666738063e-05, 0.0005510181072168052, -0.0004324960464145988, 1.0111596111528343e-06, 0.00014727600500918925, -0.00017853527970146388, 3.1228091756929643e-07, 1.3845912008036976e-06, -0.00035765048232860863, 1.0639431593517656e-06], [2.3425686777045485e-06, 0.0010863650823011994, 2.645252061483916e-05, -7.851967529859394e-05, 1.082057565326977e-06, -1.548385807836894e-05, -2.3126592623157194e-06, -2.941425464086933e-06, 2.9242933123896364e-06, 0.00011125016317237169, 0.0003719949454534799, -1.500276084698271e-06, -0.0005719737382605672, -3.4104896258213557e-06, -1.5817698795217439e-06, -0.0013028907123953104, 3.499826561892405e-06, -1.1200251037735143e-06, -0.001257898984476924, 0.0005233671399764717, 6.790568249925855e-07, -1.4015921578902635e-06, 6.721266254317015e-05, -0.00014308914251159877, 0.00010208346793660894, 5.592175966739887e-07, 0.0002570987562648952, -9.865088941296563e-05, -5.356953352020355e-06, -2.4494008243891585e-07, -8.85675399331376e-05, 0.0003966140793636441, -0.0003761503903660923, 9.629109172237804e-07, 0.00010792326065711677, -0.00022501767671201378, -4.0541706880503625e-07, 3.275063363616937e-06, -0.00019070137932430953, 2.9052912964289135e-07], [0.001305654994212091, 0.1241518184542656, 0.04682290926575661, -0.0028218363877385855, 0.001618649810552597, -0.06471420079469681, -0.0012680430663749576, -0.000745233497582376, 0.0006036993581801653, 0.14678215980529785, 0.14137540757656097, -0.0013639546232298017, -0.046507686376571655, -0.0006106953369453549, -0.0013395806308835745, -0.11778488755226135, 0.0014716106234118342, -0.0011837920174002647, -0.1018538847565651, 0.2312738001346588, 0.001173666911199689, -0.0012776184594258666, -0.06975936889648438, 0.21166422963142395, 0.01731259748339653, 0.001243935083039105, -0.008506540209054947, -0.023861173540353775, -0.026423543691635132, -0.001235550851561129, 0.08774242550134659, -0.011255116201937199, -0.13128085434436798, 0.0011677872389554977, -0.02513849176466465, -0.0902085155248642, -0.00049801473505795, 0.0010946181137114763, 0.14278899133205414, 0.0010780664160847664], [-8.036897725105518e-07, 7.945607649162412e-05, 1.0092186130350456e-05, -1.5064164472278208e-05, -1.243929773409036e-06, 3.190190909663215e-05, 1.1644837059066049e-06, 2.8058897427740703e-08, 3.167549209592835e-07, 9.525408017907466e-07, 1.8781207472784445e-05, 9.445794262319396e-07, -2.8736658350680955e-05, 9.64958303484309e-07, 9.174495971819852e-07, -0.00012146855442551896, -9.361095294480037e-07, 8.354832630175224e-07, -0.00011432492465246469, -6.391466740751639e-05, -8.006434200069634e-07, 9.096794428842259e-07, -7.97237498773029e-06, 4.157188959652558e-05, -8.03355396783445e-06, -1.0078421155412798e-06, 8.963632353697903e-06, 4.276750405551866e-05, 1.6875375877134502e-05, 9.92696755020006e-07, -1.4085223938309355e-06, 3.2877582270884886e-05, -2.4821278202580288e-05, -8.542059504179633e-07, -3.5209491215937305e-06, 8.918096682464238e-06, -5.394834943217575e-07, 5.317227760315291e-07, 1.2786058789515664e-07, -8.675047524775437e-07], [-0.0009778268868103623, 0.00032038899371400476, -0.0010978998616337776, -3.3459651604061946e-05, -0.00045958347618579865, 0.0005767781985923648, 0.00036104372702538967, 0.0007871608249843121, -0.0006064134649932384, -0.0004129788139835, -0.0008368644048459828, 0.0008960571722127497, 0.0005742672947235405, -0.00021732156164944172, 0.0009123611962422729, 0.00029982958221808076, -0.00015800551045686007, 0.0008519532275386155, 0.0002762878139037639, -0.0006256144843064249, -5.7389286666875705e-05, 0.0008842733805067837, -0.0011324723018333316, 0.0011873535113409162, -6.231124280020595e-05, -0.0007444022921845317, -0.00022146145056467503, -0.0004543656250461936, 0.0008516196394339204, 0.0005279569886624813, 0.00023995978699531406, -0.0009166162344627082, 0.000656881311442703, -0.0007907218532636762, 0.00033849364263005555, 0.001663938513956964, 0.00048535087262280285, -0.000829880649689585, 0.00041216512909159064, -0.00010423063213238493], [0.001181199331767857, 0.13198326528072357, -0.17698316276073456, 0.08259546011686325, 0.0012793277855962515, -0.014434869401156902, -0.0011289531830698252, -0.00014873854524921626, -0.0009313998161815107, -0.22603218257427216, 0.027325958013534546, -0.0011330638080835342, 0.16552789509296417, 0.000155134781380184, -0.0012751187896355987, -0.1579054892063141, -0.00020414289610926062, -0.0011750607518479228, -0.1820940226316452, 0.008131423033773899, 0.0005237370496615767, -0.0012307461583986878, 0.1065545529127121, -0.12400101125240326, -0.007937735877931118, 0.0010175489587709308, 0.01158100739121437, -0.10616916418075562, -0.05686642602086067, -0.0007593191112391651, -0.37603655457496643, 0.06975561380386353, 0.030021583661437035, 0.0010117191122844815, -0.01764100417494774, 0.039171699434518814, -0.00016228706226684153, -0.0011718858731910586, 0.118126280605793, 0.00037042261101305485], [9.816213423619047e-05, -0.01405187975615263, 0.35986754298210144, 0.2988446056842804, 0.0003583195502869785, -0.5939253568649292, -0.0010389414383098483, -0.000359176512574777, 0.00021089489746373147, -0.3792438507080078, 0.05227244645357132, -7.159834467529436e-07, -0.08129916340112686, -0.00030113558750599623, -0.00011786606773966923, -0.09181133657693863, 0.0008383247186429799, -0.00012278450594749302, 0.1558241844177246, -0.007905950769782066, -0.0005485143628902733, -0.00010490028944332153, 0.20401400327682495, -0.01631295680999756, -0.24637937545776367, -4.0758797695161775e-05, 0.10227061808109283, -0.9004579782485962, 0.10629887133836746, -0.0005104431766085327, 2.242950201034546, 0.023183194920420647, -0.057993918657302856, -6.894068792462349e-05, 0.01380753330886364, -0.02069145068526268, -0.000533890153747052, 0.00016637236694805324, -0.019499212503433228, -0.0005664455238729715], [-0.0009752761106938124, 0.15391764044761658, 0.14380651712417603, -0.2844094932079315, -0.0020461836829781532, 0.023967169225215912, 0.002185418037697673, -0.0005096209933981299, 0.0031714243814349174, -0.04509411007165909, -0.24629506468772888, 0.0013012278359383345, -0.017376594245433807, 0.0020512305200099945, 0.0013058538315817714, -0.17718645930290222, -0.0027148176450282335, 0.0011878571240231395, -0.1261829137802124, -0.05233994498848915, -0.001926732249557972, 0.0011871767928823829, 0.06498624384403229, -0.16735932230949402, -0.16927766799926758, -0.0014908508164808154, -0.4886396527290344, -0.1850196272134781, -0.13950182497501373, 0.001867938437499106, 0.06723275035619736, -0.3937425911426544, -0.21580834686756134, -0.0009304143604822457, 0.35004910826683044, -0.1569177508354187, -0.002870120108127594, 0.0027280112262815237, -0.1192493662238121, -0.0018922582967206836], [-0.000612333882600069, 0.0003597944159992039, -0.0007311143563129008, -0.002220363589003682, -0.0005523394211195409, 0.0004160294483881444, 0.00016863462224137038, 0.00024808276793919504, -0.00035747242509387434, -0.00067505071638152, -0.001144970883615315, 0.0006303873378783464, 6.42464219708927e-05, -0.00027080089785158634, 0.0006434838869608939, 0.0001002640783553943, 5.167930430616252e-05, 0.0004900615895166993, 0.00017976794333662838, -0.0020593488588929176, 0.00018651540449354798, 0.0005935986991971731, -0.0011037797667086124, 0.0014695312129333615, 0.00033072641235776246, -0.0005247888620942831, 0.001965759787708521, -0.0005163354799151421, -0.0001636468805372715, 0.00026351239648647606, 0.0012870150385424495, -5.362933370633982e-05, 0.000976376177277416, -0.00043520049075596035, 0.001457228441722691, 0.0013325117761269212, 0.0004821455222554505, -0.0006312734913080931, 0.0006804610602557659, 0.00012673628225456923], [-0.0010959637584164739, -0.00803607888519764, 0.1355401873588562, 0.025165166705846786, -0.0013660344993695617, 0.5540757179260254, 0.0012268164427950978, 0.0011898432858288288, -0.0012146795634180307, -0.1218692883849144, 0.004865683149546385, 0.0011294778669252992, -0.009504926390945911, 0.0005646195495501161, 0.0011328560067340732, 0.0006078857113607228, -0.0011382413795217872, 0.000966764404438436, 0.04798505827784538, -0.01209577638655901, -0.00016549635620322078, 0.0010725816246122122, 0.01902136206626892, -0.3700694441795349, 0.1526080071926117, -0.0009915628470480442, 0.014025047421455383, 0.03237029165029526, -0.00028640570235438645, 0.001308716251514852, 0.10964794456958771, -0.054409049451351166, 0.08873239904642105, -0.000995755661278963, -0.03787078335881233, 0.02272980846464634, 0.0012072520330548286, -0.001576849608682096, -0.3513792157173157, -0.00025909332907758653], [9.237783524440601e-05, -0.00015822249406483024, 2.1309683688741643e-06, 0.0019405910279601812, 0.00038203311851248145, -0.000673353613819927, -0.00043400138383731246, -9.977185254683718e-05, 0.00032500288216397166, 0.00021785580611322075, 0.0015536296414211392, -0.0001543529360787943, -0.00036525583709590137, 0.0003601892967708409, -0.0001534987532068044, -1.1315493793517817e-05, -0.00010011030099121854, -4.385370993986726e-05, -3.326434671180323e-05, 0.0030993667896836996, -0.0004567387222778052, -0.000120231656183023, 0.0004806857614312321, -0.0017489527817815542, -0.00034090408007614315, 0.00011706777877407148, -0.0026133302599191666, 0.0003627198457252234, 0.0013588699512183666, -0.00026428126147948205, -0.001198495738208294, 0.00035596880479715765, -0.0007909390842542052, 1.7354832380078733e-05, -0.0015862255822867155, -0.00025740350247360766, -0.0005290826666168869, 0.00046005420153960586, 0.000322027801303193, -0.0003813579387497157], [0.0006906622438691556, 3.520414975355379e-05, 0.0012937253341078758, -0.0027514230459928513, 0.0004167484294157475, -0.0009659380884841084, -0.00048214453272521496, -0.0008735875599086285, 0.0005049302708357573, 0.0001928216515807435, 0.000389126711525023, -0.0006207117112353444, -0.0006096262368373573, -0.0001085575349861756, -0.0006301694083958864, -0.0005276242736726999, 0.00040504432399757206, -0.0006159513723105192, -0.00048669573152437806, -0.0006680868682451546, 0.00010312454105587676, -0.0006165566155686975, 0.0006086601060815156, -0.000126435756101273, 0.0006076695281080902, 0.0005258528399281204, 0.002200424438342452, 9.900976874632761e-05, -0.001463192282244563, -0.00046353781362995505, 0.0016104859532788396, 0.0014748548856005073, -0.0008721892954781651, 0.0005754753947257996, -3.0421135306824e-05, -0.0036268194671720266, -0.00025065738009288907, 0.000517497886903584, -0.00026091767358593643, 0.00016369021614082158], [-0.000570280768442899, -0.0005565642495639622, -0.0011131423525512218, 0.003158124629408121, -0.00013417628360912204, 0.0011715204454958439, 0.000201143542653881, 0.0007259813719429076, -0.0007659571710973978, 0.00010253275104332715, 0.0009374159853905439, 0.00046908974763937294, 0.0015450507635250688, -8.520360279362649e-05, 0.00048459693789482117, 0.0002477367816027254, -0.0003058142028748989, 0.0005009790183976293, 0.0003571199777070433, 0.0006222954834811389, -2.4658249458298087e-05, 0.00047873627045191824, 0.0001424619258614257, 0.000334139505866915, -0.0008277205633930862, -0.00038091762689873576, -0.0030683092772960663, -4.407473898027092e-05, 0.0024377224035561085, 0.0005439009401015937, -0.0031924229115247726, -0.0010053927544504404, 1.0204151294601616e-05, -0.0004761606396641582, 0.0003633805026765913, 0.0047526173293590546, 0.00025329735944978893, -0.0005824806285090744, 0.00023539843095932156, -5.7408899010624737e-05], [0.0013569410657510161, 0.39818164706230164, 2.496281862258911, -0.06902474910020828, 0.0010710085043683648, 0.06447319686412811, -0.0002793811436276883, -0.000686801562551409, 0.0007975781918503344, -0.2168954610824585, -0.027164839208126068, -0.0014120573177933693, 0.05074317008256912, -0.00010643925634212792, -0.0013385380152612925, 0.0315592885017395, 0.00018654119048733264, -0.0011719913454726338, 0.13717375695705414, 0.004330419935286045, 0.0010063603986054659, -0.001275923103094101, -0.5357807874679565, 0.009413492865860462, 0.4774436354637146, 0.0013035685988143086, -0.03213590756058693, -0.24986502528190613, 0.0859994888305664, -0.0002576788829173893, 1.1429024934768677, -0.047150228172540665, 0.007306511513888836, 0.0012313858605921268, -0.042997945100069046, 0.05514891818165779, -0.00043201539665460587, 0.000599792052526027, 0.02164856344461441, 0.0010937197366729379], [-0.0013246146263554692, 0.07590645551681519, -0.11772804707288742, -0.37772709131240845, 0.002137530827894807, 0.03066195547580719, -0.0037051665131002665, 0.004183551296591759, -0.007066309452056885, 0.13501477241516113, 0.2334713190793991, 0.0006503008189611137, -0.022657744586467743, -0.0048494478687644005, 0.0007882931968197227, -0.03538980334997177, 0.003958550281822681, 0.0006422760779969394, -0.011485027149319649, 0.005797486752271652, 0.00320191727951169, 0.0006526699871756136, -0.07758983224630356, -0.02269931323826313, -0.07388007640838623, 0.0002238094457425177, -0.16231468319892883, -0.03253603354096413, -0.056031301617622375, -0.0027915919199585915, 0.04283018782734871, 0.11349733918905258, 0.01293131336569786, -0.00046095243305899203, -0.00024672955623827875, -0.07265695184469223, 0.006785079371184111, -0.00755657721310854, -0.004474652465432882, 0.0028964646626263857], [0.000926970737054944, -0.0003219145000912249, 0.0010252135107293725, 0.0005464868736453354, 0.0004526879347395152, -0.0005464616697281599, -0.0003149532712996006, -0.0006622227956540883, 0.0005438419757410884, 0.000542113499250263, 0.0008447343134321272, -0.000863192486576736, -0.0003134846920147538, 0.00024893489899113774, -0.0008776853792369366, -0.0002644567284733057, 0.00010418140300316736, -0.0008004644769243896, -0.00027062062872573733, 0.0008478471427224576, 3.225268665119074e-05, -0.0008459901437163353, 0.0012257879134267569, -0.001260543940588832, -0.00015277740021701902, 0.0007149379816837609, -0.0002331730502191931, 0.0004724839818663895, -0.0007545946282334626, -0.0004813592822756618, -0.0005465957219712436, 0.0006972667761147022, -0.0007182657136581838, 0.0007420177571475506, -0.0005308706313371658, -0.0015240937937051058, -0.0004742681048810482, 0.0007802435429766774, -0.000533250451553613, 7.936323527246714e-05], [-0.0028400870505720377, 0.02913713827729225, -0.01022123359143734, -0.029405932873487473, -0.0021107320208102465, -0.066320039331913, 0.00043726159492507577, 0.0001173445925815031, 0.0007588392472825944, -0.07790294289588928, 0.010728903114795685, 0.0029658309649676085, 0.31191062927246094, 0.0005799303180538118, 0.002943243831396103, 0.07789617776870728, 0.0002889200986828655, 0.0026407574769109488, 0.09880252927541733, 0.041153859347105026, -0.001818135380744934, 0.002908886643126607, 0.04943343624472618, -0.11025647073984146, 0.014984355308115482, -0.002876817947253585, 0.03367115929722786, 0.04624180868268013, -0.015704480931162834, -6.645741814281791e-05, -0.005730487871915102, -0.04696548357605934, 0.02392694540321827, -0.0027523606549948454, -0.07760528475046158, 0.0758497342467308, -0.0009362107375636697, 0.000881627609487623, -0.033784348517656326, -0.001975820166990161], [0.00010228678729617968, 0.0002749328559730202, -0.0001737985003273934, 0.0041994997300207615, 0.0008707959786988795, 0.0006103147752583027, -0.0007892769644968212, 0.0003010677173733711, -0.00022332867956720293, 0.00038000743370503187, 0.0011278352467343211, -0.0002635167329572141, 0.00012484205944929272, -0.0008630920201539993, -0.00023252551909536123, 0.00020555952505674213, 0.0005101299611851573, -8.853214967530221e-05, 0.00010705088061513379, 0.0017468815203756094, -0.00015061348676681519, -0.0002037483500316739, 0.0001149357995018363, -0.0006162399658933282, -0.0011141536524519324, 0.00029809423722326756, -0.002842629561200738, 0.0004502063966356218, 0.0008193957037292421, -0.000334360811393708, -0.002288816263899207, -0.0018560636090114713, -0.0006545669166371226, 9.19053127290681e-05, -0.0015054204268381, 0.0017883403925225139, 9.128953388426453e-05, -0.0002777430054266006, -0.0006167985266074538, -5.769653580500744e-05], [0.000956767937168479, -0.0003401207795832306, 0.0010185939026996493, 0.0005505898734554648, 0.0004593401972670108, -0.0005351438303478062, -0.0003170922864228487, -0.0006970744580030441, 0.0005647629732266068, 0.0004498230409808457, 0.0008225482888519764, -0.0008864821284078062, -0.00039389837183989584, 0.00026496819918975234, -0.0009031726513057947, -0.0002563982270658016, 0.00010103825479745865, -0.0008262870833277702, -0.0002449864987283945, 0.0008494867943227291, 3.321336043882184e-05, -0.0008706888766027987, 0.001219441881403327, -0.0012698450591415167, -7.665141311008483e-06, 0.0007338599534705281, -0.0001815695286495611, 0.0004872927092947066, -0.0007294765673577785, -0.00048802909441292286, -0.000535070663318038, 0.000769781821873039, -0.0007537796045653522, 0.0007646313752047718, -0.0005625276826322079, -0.0016092559089884162, -0.0004903448862023652, 0.0008137659169733524, -0.0005060883704572916, 8.037855150178075e-05], [0.0009339756797999144, -0.15647466480731964, 0.0009878642158582807, -0.04163751378655434, 0.0011030316818505526, -0.0033360826782882214, -0.0007008545799180865, -0.0002665257197804749, 0.00013034309085924178, 0.005657970905303955, -0.04340772703289986, -0.001024729455821216, 0.07800807058811188, -0.0004208318132441491, -0.0010298698907718062, 0.18177662789821625, 0.0004378391313366592, -0.0008866211865097284, 0.17686453461647034, 