{"model_data": {"model": "SimpleRNN", "input_size": 3, "skip": 1, "output_size": 1, "unit_type": "LSTM", "num_layers": 1, "hidden_size": 40, "bias_fl": true}, "state_dict": {"rec.weight_ih_l0": [[0.0029707958456128836, -0.024573462083935738, 0.5426234006881714], [0.020861493423581123, 0.4371751844882965, 0.17497293651103973], [6.559127086802619e-06, -6.755711638106732e-06, -5.3069848036102485e-06], [-0.03244404494762421, 0.07595860213041306, 0.09861904382705688], [0.10458537936210632, 0.3436184227466583, 0.16823679208755493], [-0.0074263629503548145, 0.07985316216945648, 0.07591769099235535], [0.04626696929335594, -0.024406468495726585, -0.06132819131016731], [0.021581746637821198, 0.035764336585998535, 0.0602886863052845], [0.03657372295856476, 0.22217410802841187, 0.16600623726844788], [9.361857337353285e-06, -6.430602297768928e-06, -6.983105322433403e-06], [-1.2821300288123894e-06, -5.969326593913138e-06, 1.8169102986576036e-05], [-1.3522233075491386e-06, -2.1674837626051158e-05, 1.2569003956741653e-05], [-0.06490986049175262, -0.1951419711112976, -0.44698643684387207], [0.011704878881573677, 0.1106872484087944, 0.0819927304983139], [0.006520612630993128, 0.04897771775722504, -0.06511736661195755], [0.009246216155588627, 0.1993243545293808, 0.12722700834274292], [0.023630978539586067, 0.3326631784439087, 0.24529050290584564], [-0.006690388545393944, 0.15601550042629242, 0.2691192328929901], [-0.018795443698763847, 0.19987362623214722, 0.1294613480567932], [5.511347353603924e-06, -4.208257450954989e-06, -8.052374141698238e-06], [8.544007869204506e-06, -2.97144924843451e-05, -6.914716323080938e-06], [0.0063139284029603004, 0.28711333870887756, 0.21246102452278137], [0.0074350484646856785, 0.18917515873908997, 0.054146960377693176], [0.026727935299277306, 0.06396983563899994, 0.05318688973784447], [7.645503501407802e-06, -1.9591918317019008e-05, 9.80097956926329e-06], [-0.009851502254605293, -0.32545948028564453, -0.2606414556503296], [7.391814506263472e-06, -2.5696677766973153e-05, 3.662018571048975e-06], [0.011833207681775093, 0.390874981880188, 0.15414701402187347], [-3.020068788828212e-06, -9.074688932741992e-06, 1.5214022823784035e-05], [1.7123455108958296e-05, -3.271700916229747e-05, -1.186974827760423e-06], [2.9412144613161217e-06, -2.4983739422168583e-05, 7.77742297941586e-06], [0.021233363077044487, 0.062435779720544815, 0.09117192029953003], [-0.007971763610839844, -0.2184092402458191, -0.28324204683303833], [0.0006132376147434115, 0.0010657482780516148, 0.0012565760407596827], [1.5257261338774697e-06, 3.6484175325313117e-06, 9.10154267330654e-06], [1.056973633239977e-05, -2.984354978252668e-06, -9.883969141810667e-06], [3.6292799450166058e-06, -6.915514404681744e-06, -1.1651153727143537e-05], [2.253075763292145e-06, 2.3735206013952848e-06, 1.4906983778928407e-05], [0.05323657765984535, 0.023252513259649277, -0.041241440922021866], [2.8000611109746387e-06, -1.1463129339972511e-05, 1.6495821455464466e-06], [-0.06464917212724686, -0.031801383942365646, -0.45753392577171326], [0.03246796503663063, 0.06536683440208435, -0.20218604803085327], [6.896653758303728e-06, -6.891108569107018e-06, -5.712552592740394e-06], [-0.05739298090338707, 0.17707829177379608, 0.18877629935741425], [0.17630775272846222, -0.0030908191110938787, -0.14513076841831207], [0.001820734003558755, 0.14966997504234314, 0.13566619157791138], [0.022332945838570595, 0.3101324439048767, 0.21417969465255737], [0.030874446034431458, 0.057749662548303604, 0.04945754632353783], [0.04215167090296745, -0.02805272676050663, 0.12114912271499634], [9.651599611970596e-06, -6.827188826719066e-06, -7.254001502587926e-06], [-1.5387809071398806e-07, -3.0667297323816456e-06, 2.124320417351555e-05], [-1.1536989177329815e-06, -2.0624131138902158e-05, 1.3056771422270685e-05], [0.08120600879192352, 0.28100067377090454, 0.14269191026687622], [0.0004580581735353917, 0.1849667876958847, 0.09350963681936264], [0.023613573983311653, 0.10890574008226395, -0.08552739769220352], [0.026691539213061333, 0.14982905983924866, -0.0835433155298233], [0.02087373286485672, -0.2533532679080963, -0.2396145910024643], [0.028259068727493286, -0.09799545258283615, -0.1852746158838272], [0.007184908725321293, 0.1171143651008606, -0.05737368389964104], [5.8963314586435445e-06, -4.78074480270152e-06, -8.792470907792449e-06], [8.334143785759807e-06, -3.0126313504297286e-05, -6.556514563271776e-06], [-0.08696682751178741, 0.16289710998535156, 0.12452404201030731], [-0.06570470333099365, -0.06028450280427933, 0.01682581938803196], [0.04878676310181618, 0.15335696935653687, 0.11697835475206375], [7.854195246181916e-06, -1.929002974065952e-05, 1.0322575690224767e-05], [-0.015349742956459522, 0.4735202491283417, 0.28445643186569214], [7.829577043594327e-06, -2.570415563241113e-05, 4.136205006943783e-06], [-0.013605069369077682, 0.13285689055919647, -0.17889587581157684], [-3.479780389170628e-06, -9.241329280484933e-06, 1.626371158636175e-05], [1.701083965599537e-05, -3.436424594838172e-05, -1.9739945855690166e-06], [2.871561264328193e-06, -2.5648805603850633e-05, 8.084250112005975e-06], [0.05495725944638252, 0.060233213007450104, 0.07307009398937225], [-0.027391260489821434, 0.2963256239891052, 0.3357941508293152], [0.0006703051622025669, 0.0014558200491592288, 0.00061446288600564], [-3.609091891121352e-06, 7.638858733116649e-06, 1.3425015822576825e-05], [1.0969858522003051e-05, -3.2260597890854115e-06, -1.0105057299369946e-05], [3.459149866102962e-06, -6.329431016638409e-06, -1.1105848898296244e-05], [6.089488806537702e-07, 3.170543777741841e-06, 1.5740844901301898e-05], [-0.028996611014008522, 0.4557655155658722, 0.1615896224975586], [2.940909325843677e-06, -1.1373250345059205e-05, 1.7255397324333899e-06], [-0.22172130644321442, 0.024510493502020836, 0.007409744895994663], [-0.02758762054145336, 0.014881299808621407, 0.01858842372894287], [-8.801661897450686e-05, -0.0001422112254658714, -0.00021477606787811965], [0.09939897805452347, 0.08146065473556519, -0.030508657917380333], [0.3238016963005066, 0.33749669790267944, -0.015154247172176838], [0.012115826830267906, -0.006249820813536644, -0.6095163822174072], [0.20756085216999054, -0.13797372579574585, 0.023595724254846573], [0.208695650100708, -0.0015697651542723179, -0.0052123116329312325], [0.08156588673591614, -0.7098710536956787, 0.09543394297361374], [-3.895235204254277e-05, -0.00013738269626628608, 0.0003001755103468895], [0.0007476868922822177, -0.00018197800091002136, -0.0001151363248936832], [-0.0003203735686838627, 5.753693130827742e-06, 9.905031765811145e-05], [-0.1587587296962738, 0.03072502836585045, -0.028641218319535255], [-0.11139906197786331, 0.004602114204317331, -0.34905651211738586], [-0.12475797533988953, 0.020574219524860382, -0.0941421240568161], [0.01486544031649828, -0.05644048750400543, -0.007992329075932503], [-0.14961107075214386, 0.020968133583664894, -0.030866140499711037], [0.4796367883682251, 0.0855780616402626, -0.07974722236394882], [-0.022898277267813683, -0.06149802356958389, 0.08554786443710327], [2.29146025958471e-05, 0.00014541709970217198, -0.00021152032422833145], [-5.847013744642027e-05, 0.0002520184207241982, -7.957551861181855e-05], [-0.3434566259384155, 0.7059023976325989, -0.07605008780956268], [0.6269844174385071, 0.06399047374725342, -0.19470123946666718], [0.08076220005750656, 0.07449506968259811, 0.18755291402339935], [0.00017365385429002345, -0.00022622750839218497, -0.00043044378980994225], [0.18390211462974548, 0.005455790087580681, 0.0017000507796183228], [-0.00029112151241861284, 0.0001879172632470727, 0.0003822336148004979], [1.8675448894500732, -0.026123834773898125, -0.001982404151931405], [-0.000259140448179096, 8.37597963254666e-06, 0.0004013498255517334], [-0.00012474620598368347, -7.711249782005325e-05, -0.0001388045639032498], [3.517618097248487e-05, 0.00015407688624691218, 0.00023799591872375458], [0.01109228003770113, -0.042410336434841156, -0.49461814761161804], [-0.11314089596271515, -0.027743209153413773, -0.012497968971729279], [0.03899587690830231, 0.0034268044400960207, -0.0017832802841439843], [-0.0008198496652767062, -7.448472024407238e-05, -0.0003835229726973921], [7.214528159238398e-05, 8.118733967421576e-05, -0.00037972588324919343], [3.2842908694874495e-06, -0.00021198084868956357, 0.00027436157688498497], [-0.00010671336349332705, -0.0002158041315851733, -0.0004458778421394527], [-0.10666003078222275, -0.2331138253211975, 0.04679856076836586], [-6.572960410267115e-05, 0.0002776810433715582, 0.00016117945779114962], [-0.03425275906920433, -0.35298216342926025, 0.17340080440044403], [0.03573571518063545, 0.3125182092189789, 0.1789025366306305], [6.863869202788919e-06, -6.726999799866462e-06, -5.314801910571987e-06], [-0.0015853842487558722, 0.26532089710235596, 0.23623965680599213], [0.14173023402690887, 0.3498133420944214, 0.1767738163471222], [0.0982300266623497, 0.10774010419845581, 0.1257324069738388], [0.34908729791641235, 0.15396994352340698, 0.17861221730709076], [0.02548639103770256, 0.038788627833127975, 0.06345982104539871], [-0.1747739166021347, 0.27298805117607117, 0.1945507973432541], [1.0062433830171358e-05, -6.460770691774087e-06, -6.992021553742234e-06], [-1.6295297200485948e-06, -5.994206730974838e-06, 1.8157883459934965e-05], [-7.588157018290076e-07, -2.1803325580549426e-05, 1.2530013918876648e-05], [0.07016162574291229, 0.036675743758678436, -0.1910558044910431], [0.02963017299771309, 0.2701951563358307, 0.1732950359582901], [-0.050655245780944824, 0.07244770973920822, -0.06886864453554153], [0.000685366743709892, 0.27712583541870117, 0.20974873006343842], [0.02352021634578705, 0.3475511074066162, 0.26318663358688354], [-0.0021690335124731064, 0.15861350297927856, 0.27490952610969543], [-0.0013408355880528688, 0.246622234582901, 0.21240754425525665], [5.900598807784263e-06, -4.242360319040017e-06, -8.092039024631958e-06], [9.077053618966602e-06, -2.996389775944408e-05, -7.043060577416327e-06], [0.2257852703332901, 0.3716017007827759, 0.18175673484802246], [-0.03187977895140648, 0.2231956422328949, 0.13185608386993408], [0.04676277935504913, 0.1466514617204666, 0.12655264139175415], [8.12996040622238e-06, -1.9528566554072313e-05, 9.851784852799028e-06], [-0.06026393547654152, 0.07457736134529114, -0.058927133679389954], [8.874772902345285e-06, -2.5642080800025724e-05, 3.688637661980465e-06], [0.021161871030926704, 0.37214764952659607, 0.17772413790225983], [-3.753881173906848e-06, -9.102591320697684e-06, 1.5217047803162131e-05], [1.758890903147403e-05, -3.289481537649408e-05, -1.221715820065583e-06], [3.0244013942137826e-06, -2.5084267690544948e-05, 7.75055286794668e-06], [0.003370061283931136, 0.18113459646701813, 0.05090324208140373], [0.01848449930548668, 0.1416865885257721, 0.06722131371498108], [0.0005006834398955107, 0.0010666879825294018, 0.0012544628698378801], [-4.59346256320714e-06, 3.6325814107840415e-06, 9.114578460867051e-06], [1.0892774298554286e-05, -2.9502082270482788e-06, -9.854819836618844e-06], [3.0784667615080252e-06, -6.913067863933975e-06, -1.1650726264633704e-05], [9.097131936641745e-08, 2.380121941314428e-06, 1.4956183804315515e-05], [-0.1662701517343521, 0.23530781269073486, 0.21246689558029175], [3.4197742024844047e-06, -1.1430804079282098e-05, 1.6676402765369858e-06]], "rec.weight_hh_l0": [[-0.0036769185680896044, -0.03733719512820244, 0.0004217049281578511, -0.025871507823467255, -0.043226148933172226, -0.5583826303482056, -0.05746066942811012, 0.015312999486923218, -0.12498889863491058, -0.0002645670319907367, 0.0004757818242069334, -0.0005331918364390731, 0.0003141620836686343, -0.3433380126953125, -0.07925605028867722, -0.2324497252702713, 0.062373604625463486, 0.005755309481173754, -0.2784101665019989, 0.00019940323545597494, 0.0003405614697840065, 0.15849635004997253, 0.08212938904762268, 0.42208772897720337, 0.0008343136869370937, 0.039288222789764404, -0.0006060016457922757, -0.0011816569603979588, -0.0006787612801417708, 0.0006256783963181078, -0.0006468428182415664, -0.6835162043571472, 0.01755395159125328, 0.0006133358110673726, 0.001259134034626186, 0.00048585928743705153, -0.0005447863950394094, 0.0011233956320211291, -0.08470651507377625, -0.0005790285649709404], [0.02998429723083973, 0.06315630674362183, 0.00024957588175311685, -0.2796107530593872, -0.010024302639067173, -0.17377910017967224, -0.20011399686336517, 0.0014546283055096865, -0.11475751549005508, -0.00014809970161877573, -7.392503903247416e-05, 0.000202268929569982, -0.0017163532320410013, 0.23272201418876648, 0.0302776750177145, -0.3404789865016937, -0.021154994145035744, 0.018401628360152245, -0.30811843276023865, 0.0002345789544051513, -4.879823336523259e-06, 0.1913396716117859, 0.03856122866272926, 0.330360472202301, 0.00037135439924895763, -0.004130360670387745, -0.0001488350098952651, -0.009612147696316242, -0.0003621724317781627, 3.7186975532677025e-05, -0.00017154320084955543, 0.08018982410430908, 0.14824362099170685, 0.0011373113375157118, 0.0006609821575693786, 0.00035130075411871076, -0.0005164829781278968, 0.000602125539444387, -0.446980744600296, -4.973173781763762e-05], [-1.5164305295911618e-06, 6.592013960471377e-06, 1.3130239118197551e-08, 1.5262970919138752e-05, 4.149605047132354e-06, -2.67426116806746e-06, 4.742838427773677e-06, 1.9569133655750193e-06, -5.280965524434578e-06, -1.4218679567079562e-08, 1.5381299789396508e-08, -1.1970769264735281e-08, 2.531204245315166e-06, -6.972834398766281e-06, 1.5036968079584767e-06, 1.0598269909678493e-05, -1.284131258216803e-06, 3.5551343557926884e-07, 1.5493187675019726e-05, 1.2822860107064571e-08, 1.2604684407335753e-08, 1.1965060366492253e-05, 3.1740446502226405e-06, -4.571319095703075e-06, 2.1456799004226923e-08, -1.1271447874605656e-05, -1.696187545974226e-08, -1.3953368238617259e-07, -1.9460371092350215e-08, 1.6983126016612005e-08, -1.5524721064252844e-08, -6.430742814700352e-06, -7.114367235772079e-06, 2.5090429289775784e-07, 1.8308595528537808e-08, 1.5170016354204563e-08, -1.0758738788751998e-08, 2.566592804953416e-08, 7.35611706659256e-07, -4.454617119620252e-09], [-0.02066243812441826, 0.03476816415786743, 8.466716099064797e-05, -0.12817712128162384, 0.0034224996343255043, -0.058642420917749405, -0.03598225489258766, -0.0054809399880468845, 0.07420499622821808, -0.00016946441610343754, -7.084273238433525e-05, 9.423634764971212e-05, -0.010049277916550636, 0.01984553225338459, -0.0016632422339171171, -0.0914996936917305, -0.006468458566814661, -0.004541120026260614, -0.04812832549214363, 0.00020165188470855355, 0.00024851321359165013, -0.06464680284261703, -0.002776884473860264, 0.02920694276690483, -2.1859055777895264e-05, -0.0034043993800878525, 2.1480176656041294e-05, -0.018717646598815918, 5.511241397471167e-05, 0.00015480640286114067, -8.085419267445104e-07, 0.041060276329517365, 0.012794607318937778, -0.0010869369143620133, 0.00012216150935273618, 9.234969911631197e-05, -0.00012304230767767876, 1.703858833934646e-05, -0.03042181208729744, 0.00010664529690984637], [0.04160533472895622, -0.023431017994880676, 0.00017431849846616387, -0.30605101585388184, 0.023842360824346542, -0.10114748030900955, -0.04719723388552666, -0.004428586922585964, 0.04042758792638779, -0.00016169324226211756, -5.590969158220105e-05, 2.67087159500079e-07, -0.02446622960269451, 0.2336832731962204, -0.03300889581441879, -0.23809868097305298, -0.0027897667605429888, 0.04063063859939575, -0.2927878797054291, 0.00013093002780806273, 3.0048080589040183e-05, -0.08694420754909515, -0.0150674469769001, 0.18362097442150116, 0.00017497013323009014, 0.015006497502326965, -0.00012156602315371856, 0.04866603761911392, -0.00011102263670181856, 9.28938461584039e-05, -0.00011931139306398109, 0.09503798186779022, 0.09848181158304214, 0.0009590739500708878, 0.00020423956448212266, 0.00017912284238263965, -0.00011324611841700971, 0.00022901831835042685, -0.23637279868125916, -9.253752796212211e-05], [0.012101152911782265, -0.019258858636021614, -0.00025148518034256995, -0.14764703810214996, -0.0041311862878501415, 0.028337836265563965, 0.013672657310962677, -0.000361178710591048, 0.11324228346347809, 0.00026898307260125875, 0.00055646151304245, -0.00030130488448776305, 0.0057506803423166275, 0.08635712414979935, -0.007270640693604946, -0.06640961021184921, -0.02675006352365017, -0.014394641853868961, -0.040046967566013336, -0.00027874598163180053, -0.00027120482991449535, -0.08465633541345596, -0.03510013595223427, -0.015705443918704987, -9.249334107153118e-05, 0.025928916409611702, 1.8499427824281156e-05, -0.008865793235599995, -0.00018046323384623975, -0.00031866205972619355, -1.1920496035600081e-05, 0.06792943179607391, 0.021694375202059746, 0.0009856262477114797, -0.00043764663860201836, -0.0002794558531604707, 0.00028491183184087276, -0.00022388173965737224, 0.022387363016605377, -1.693250123935286e-05], [-0.03262240067124367, -0.04097798466682434, -0.0005968109471723437, 0.10148153454065323, 0.2781749665737152, 0.05963689088821411, 0.292831152677536, -0.0053863683715462685, -0.08950891345739365, 0.0003436991246417165, 0.00020149884221609682, -0.0001288838975597173, -0.0014827250270172954, -0.013430816121399403, -0.05031890794634819, 0.11967478692531586, -0.14248953759670258, -0.028910793364048004, 0.2867133915424347, -0.00011788902338594198, -0.0006186480168253183, 0.09987036138772964, 0.08660118281841278, -0.03727840632200241, -0.0004490110441111028, 0.0057279616594314575, 0.00037143126246519387, 0.00646516727283597, -4.5782802772009745e-05, -0.0007336998241953552, 0.00019150704611092806, -0.04752088710665703, 0.007062091957777739, -0.00037768459878861904, -0.00042067922186106443, -0.00044984332635067403, 0.00034142821095883846, -0.0004559312656056136, 0.2699742317199707, 0.00020418735221028328], [-0.012842969037592411, 0.0016969783464446664, -9.815195517148823e-05, -0.05479317530989647, -0.013947179540991783, -0.05431366339325905, 0.02139448933303356, 0.009178808890283108, 0.024152668192982674, 9.20307356864214e-05, 0.00019039057951886207, -5.394516119849868e-05, -0.011055963113904, 0.0033447244204580784, -0.019415495917201042, -0.008500218391418457, 0.0068404111079871655, 0.005991952959448099, 0.003931309096515179, -7.878113683545962e-05, -5.089933256385848e-05, -0.039528943598270416, 0.016030240803956985, 0.03254134580492973, -7.738164276815951e-05, 0.008836271241307259, 9.248221613233909e-05, 0.01071222685277462, -6.0372196458047256e-05, -7.161164830904454e-05, 1.214451276609907e-05, 0.003371377242729068, 0.005265328101813793, 0.0011052436893805861, 2.1130794266355224e-05, -8.622248424217105e-05, 3.5653269151225686e-05, -3.416978142922744e-05, -0.008515015244483948, 7.105243275873363e-05], [0.05196758359670639, 0.006095613818615675, 4.853487916989252e-05, -0.33473607897758484, -0.07226251810789108, -0.14842002093791962, -0.019816288724541664, 0.02438523806631565, 0.13263370096683502, -9.817926911637187e-05, 0.00022847022046335042, -8.191211964003742e-05, -0.0535089485347271, 0.19459868967533112, -0.025405244901776314, -0.3280504047870636, -0.02281564101576805, 0.021217068657279015, -0.24999402463436127, -6.841895083198324e-05, 0.0002911487827077508, -0.040843673050403595, 0.07778052240610123, 0.112307608127594, 0.00014741960330866277, 0.05905640497803688, -9.371605847263709e-05, 0.03160158917307854, -0.00015563196211587638, 0.0004799593589268625, -0.0002308553084731102, 0.16743573546409607, 0.07460229098796844, 0.0028797711711376905, 0.0002500603150110692, 0.00011667061335174367, -8.33357116789557e-05, 0.0002154919784516096, -0.1821771264076233, -1.2115043318772223e-05], [7.70519761772448e-07, 8.189935215341393e-06, 1.862216159054242e-08, 2.1050513169029728e-05, 6.276416570472065e-06, -4.924773747916333e-06, 4.345612978795543e-06, 2.246908707093098e-06, -1.272107328986749e-05, -2.2054690518302777e-08, 2.1903323599303803e-08, -1.7911627736566516e-08, 1.245482849299151e-06, -9.515467354503926e-06, -1.6254718104846688e-07, 1.4519114301947411e-05, -1.1368024388502818e-06, 1.8771916074911132e-06, 1.9347537090652622e-05, 1.5969535027693382e-08, 2.4375234275453295e-08, 2.08889578061644e-05, 5.325295660441043e-06, 6.700391850245069e-07, 3.104895540673169e-08, -9.982359188143164e-06, -2.4604208448408826e-08, 9.195435382025607e-07, -2.8511749405879527e-08, 3.219248867480928e-08, -2.4653873609281618e-08, -1.1152480510645546e-05, -7.0769146987004206e-06, 2.97624893619286e-07, 2.706932988871813e-08, 2.2478054972907557e-08, -1.397830295957192e-08, 3.742936627304516e-08, -1.2762156984535977e-06, -5.657616597432025e-09], [-8.867729775374755e-06, 1.2034273822791874e-05, -8.982729582385218e-08, 3.3602518669795245e-05, -1.7027134163072333e-05, -1.9361994418432005e-05, 8.614971193310339e-06, 1.9834849354083417e-06, 2.561665496614296e-05, 1.0883549350637622e-07, 9.751222762588441e-08, -2.352082262291333e-08, -1.1245740097365342e-05, -9.980917639040854e-06, 8.98059533938067e-06, 8.476576113025658e-06, 1.5557309325231472e-06, -1.2894172414235072e-06, 7.828923116903752e-06, -8.590652811335531e-08, -1.4564628258995072e-07, -9.200788554153405e-06, 1.4066830544834374e-06, -1.0772761015687138e-05, -9.575374804171588e-08, -8.24058133730432e-06, 9.006735268712873e-08, -3.3849948977149324e-07, -2.162085843693262e-09, -1.8705439686073078e-07, 6.115067918699424e-08, 3.0250278086896287e-06, -3.5636910524772247e-06, 7.512502975259849e-08, -6.001601349225894e-08, -1.0896447832919876e-07, 7.472122121043867e-08, -8.923360184098783e-08, -7.879946679167915e-06, 2.7555284276559178e-08], [-2.8284437121328665e-06, 6.359535291267093e-06, -1.8182399585953135e-08, 2.4843708160915412e-05, -1.2786836123268586e-05, -1.472764415666461e-05, 9.044152648129966e-06, 1.1471493053250015e-06, 1.4198773897078354e-05, 2.433037415983108e-08, 2.0841360637291473e-08, -1.1390606680095061e-08, -1.3694165318156593e-05, -1.4490233297692612e-05, -1.0928391930065118e-05, 1.5858810002100654e-05, -1.0271861583532882e-06, -1.723176751511346e-06, 1.493208128522383e-05, -1.631687851499919e-08, -3.900654022004346e-08, -2.775739403659827e-06, 5.93310403473879e-07, -1.1365906175342388e-05, -2.2090395290774723e-08, -2.11204187507974e-05, 2.066984627902002e-08, -5.224212600296596e-07, 1.8096754095253687e-09, -4.57637874262673e-08, 1.1718674919336536e-08, -1.817697375372518e-05, -1.3326998669072054e-05, -4.729647429257966e-08, -1.1604717187196911e-08, -2.649565367107698e-08, 2.011151067904393e-08, -2.023926093386308e-08, 1.510951915406622e-05, 1.7247032690903552e-09], [-0.047106560319662094, 0.011119616217911243, -0.0005169064970687032, 0.2782987058162689, 0.03450183570384979, 0.16882023215293884, -0.05939987674355507, -0.017318900674581528, -0.12318214774131775, 0.0005997528787702322, 0.0009412082144990563, -0.00026814360171556473, 0.027282342314720154, -0.03921082615852356, 0.018703091889619827, 0.26414796710014343, -0.049363475292921066, 0.02116496115922928, 0.2228745073080063, -0.0005764238303527236, -0.00036817771615460515, 0.12398669868707657, 0.060191188007593155, -0.11920296400785446, -0.000279018422588706, -0.037045180797576904, 0.0003347134042996913, 0.03682176023721695, -0.00033108913339674473, -0.0005244732019491494, 0.00020629947539418936, 0.15520459413528442, -0.017622873187065125, -2.523173861845862e-05, 9.821388084674254e-05, -0.0005384980468079448, 0.00018317680223844945, -8.024802809813991e-05, 0.11109926551580429, 0.0001993572077481076], [-0.015739083290100098, -0.0471593476831913, -0.00012186051753815264, -0.13291145861148834, -0.02261396124958992, -0.0040495325811207294, 0.06344064325094223, 0.0009634178131818771, 0.029352983459830284, 6.643000233452767e-05, 0.000203916453756392, -9.94382135104388e-05, 0.003871575929224491, 0.08391380310058594, -0.035520248115062714, -0.058885905891656876, 0.0028116803150624037, -0.007990693673491478, -0.054989248514175415, -4.1510327719151974e-05, -8.222586620831862e-05, 0.012925819493830204, -0.04222264513373375, 0.05275879055261612, -0.00021799909882247448, -0.032829999923706055, 7.677712710574269e-05, -0.008884567767381668, -5.029637031839229e-05, -0.00039642612682655454, 6.906172347953543e-05, 0.0434831865131855, 0.03194436430931091, 0.00021770082821603864, -0.0007389441016130149, -0.00016394842532463372, 0.00024821102852001786, -0.0004363279149401933, 0.02777017280459404, 0.00013391367974691093], [-0.09073290228843689, 0.05349342152476311, -0.00029842377989552915, -0.08398588001728058, -0.046546243131160736, 0.01690973900258541, 0.04383261874318123, 0.01856290176510811, -0.014984425157308578, 0.0002715395821724087, 0.0008518074173480272, -0.0006534421117976308, -0.0523746982216835, 0.08263144642114639, -0.014776360243558884, -0.06986609846353531, 0.017409659922122955, 0.007008926477283239, -0.03238993510603905, -0.00033680806518532336, -0.0001494482858106494, -0.06808479875326157, 0.03205244243144989, -0.03881309926509857, -2.0830791982007213e-05, 0.022672733291983604, 1.3000364560866728e-05, 0.016468672081828117, -0.0005007457220926881, -0.00022418481239583343, -0.00020840264915023, 0.13318629562854767, 0.00015871568757575005, 0.0021976828575134277, -0.00029353389982134104, -0.0003447911876719445, 0.000430702930316329, -5.5777953093638644e-05, 0.0001134290432673879, 6.364478031173348e-05], [0.03137803450226784, -0.028653103858232498, -0.00020066187425982207, -0.2405412495136261, -0.004370225127786398, -0.07035940140485764, 0.027663199231028557, 0.004698706790804863, 0.05689125508069992, 0.0001920068170875311, -0.00023645383771508932, 0.00030491832876577973, -0.01824006624519825, 0.1256343424320221, -0.0024002138525247574, -0.16179774701595306, -0.016575317829847336, -0.00307950796559453, -0.1726737916469574, -0.00014826489496044815, -0.00029580105911009014, -0.04147977754473686, -0.007896252907812595, 0.10206832736730576, -0.00032872980227693915, 0.024671675637364388, 0.0003826889442279935, -0.0069633848033845425, 0.00018751781317405403, -0.0002855847997125238, 0.00025709765031933784, 0.08201558887958527, 0.06861395388841629, 2.7260917704552412e-05, 1.8475649994798005e-05, -0.00017467828001827002, 3.919723212675308e-07, -0.0001834284921642393, -0.0642116591334343, 0.00020271043467801064], [0.010434226132929325, 0.014125276356935501, 0.0001402117923134938, -0.3825215697288513, 0.003617784706875682, -0.18076510727405548, -0.06628654897212982, 0.0040272935293614864, 0.11210451275110245, -0.0002318863698747009, 3.853435555356555e-05, -6.493549881270155e-05, -0.025573231279850006, 0.24822919070720673, -0.06297212839126587, -0.30876755714416504, -0.023040927946567535, 0.019415872171521187, -0.2822093367576599, 8.624943438917398e-05, 0.00034559451160021126, -0.12625618278980255, 0.02102767489850521, 0.1681288778781891, 0.00022450368851423264, 0.02542836032807827, -0.00020617300469893962, 0.04926789179444313, -7.239135447889566e-05, 0.0005058666574768722, -0.00018918697605840862, 0.11506909132003784, 0.09928876906633377, 0.0007144733681343496, 0.0002264063514303416, 0.00019546654948499054, -7.281907892320305e-05, 0.0002278800238855183, -0.19618552923202515, -6.551620754180476e-05], [-0.038615211844444275, -0.027922693639993668, -1.0042950634669978e-05, -0.3392251133918762, -0.023355653509497643, -0.20425398647785187, 0.07957325875759125, 0.004800294525921345, 0.19556452333927155, -3.765772271435708e-05, 1.1555986930034123e-05, 1.3151952771295328e-05, -0.024735866114497185, 0.051611170172691345, -0.01840483956038952, -0.25004836916923523, -0.012347443960607052, -0.004456777591258287, -0.20079375803470612, 2.9768836611765437e-05, 6.531416875077412e-05, -0.21589067578315735, 0.01796535775065422, 0.0874977633357048, -3.452183591434732e-05, 0.005716589279472828, 5.141635938343825e-06, -0.0006719357916153967, 4.1335100831929594e-05, 4.031396019854583e-05, 1.9953631635871716e-05, 0.07821030914783478, 0.024685749784111977, -0.0003454357211012393, -3.7641315429937094e-05, -1.3197355656302534e-05, 1.8401025954517536e-05, -5.9244423027848825e-05, 0.05540018528699875, 3.953941268264316e-05], [0.0002180921146646142, -0.003778166603296995, 0.00016811207751743495, -0.22741104662418365, -0.02118559367954731, -0.023901017382740974, -0.04579862952232361, 0.00462843244895339, 0.02844495140016079, -0.00018300593364983797, 0.00033568634535185993, -0.00028981041396036744, 0.007626811508089304, 0.1181684210896492, 0.0022194969933480024, -0.18998610973358154, 0.016366038471460342, 0.013238060288131237, -0.1624809354543686, 9.875163232209161e-05, 0.0003493154072202742, -0.014617091976106167, -0.037173349410295486, 0.12904107570648193, 0.0003611737920437008, 0.022872457280755043, -0.0004061622603330761, -0.0065313042141497135, -0.00023523243726231158, 0.0003603601362556219, -0.0002909271279349923, 0.03237323462963104, 0.07653620839118958, 1.8672169971978292e-05, 1.884635457827244e-05, 0.00018356970394961536, -5.501321993506281e-06, 0.00018356129294261336, -0.12235954403877258, -0.00016707937174942344], [-1.8903785985457944e-06, 6.017219220666448e-06, 9.801302880418916e-09, 1.8109132724930532e-05, 6.126022981334245e-06, -5.06734352256899e-07, 1.7397177316524903e-06, 1.4459624253504444e-06, -1.0511707841942552e-05, -1.158938101042395e-08, 2.3301153007082576e-08, -1.5726650204328507e-08, 1.973408416233724e-06, -6.846021733508678e-06, 2.4766134174569743e-06, 1.1769294360419735e-05, -8.404591511634862e-08, 1.067389348463621e-06, 1.4912207007000688e-05, 8.217554636757995e-09, 1.2351477174377123e-08, 1.7191543520311825e-05, 4.168437499174615e-06, 7.126865853024356e-07, 2.0514137943905553e-08, -5.525633696379373e-06, -1.5410863696274646e-08, -9.387850923303631e-07, -2.5156829508432565e-08, 1.5727760427353132e-08, -1.7277713482144463e-08, -7.44066028346424e-06, -3.5225230021751486e-06, 2.2202875982202386e-07, 1.909934255195367e-08, 1.2716664166134706e-08, -8.306050958140077e-09, 2.6180815737575358e-08, -4.4806793084717356e-06, -2.5225723732091865e-09], [3.7772333598695695e-06, 4.947709726366156e-07, 2.515371022582258e-08, 2.0710902390419506e-05, -1.2915294064441696e-05, -1.3895383972339914e-06, 2.3931403120514005e-05, 3.285061666247202e-06, 7.985423508216627e-06, -2.6697431820821294e-08, -6.840661814777604e-09, -1.0139645567619482e-08, -8.976723620435223e-06, -1.0319407920178492e-05, -6.5046911004174035e-06, 1.7497884982731193e-05, -1.4149073876978946e-06, 1.4643696886196267e-06, 1.4899144844093826e-05, 2.6626517879435596e-08, 1.6984879280812493e-08, 4.43884709966369e-06, 2.5601400466257473e-06, -2.1744832338299602e-05, 2.3572631846491277e-08, -3.1421084713656455e-05, -2.2365028939930198e-08, 3.98455358663341e-06, -6.998320589701734e-09, 2.7598185070587533e-08, -1.8201834706133013e-08, 2.7545479497348424e-07, -1.6465743101434782e-05, 2.660047471181315e-07, 1.8636480803024824e-08, 2.5538723136264707e-08, -1.5431220745654173e-08, 2.1734942734497054e-08, 2.7742702513933182e-05, -1.147173467330731e-08], [-0.03059227392077446, -0.04213252291083336, -0.0001546986895846203, -0.2931859493255615, 0.0049611423164606094, -0.12383744865655899, -0.052466001361608505, -0.0062866308726370335, 0.019061945378780365, 0.00016407857765443623, 3.580023621907458e-05, 4.821597030968405e-05, -0.011244549416005611, 0.19804012775421143, -0.03604262322187424, -0.24949628114700317, -0.009660523384809494, -0.005865806248039007, -0.1804760843515396, -0.00012885093747172505, -0.00019343502935953438, -0.060559723526239395, -0.0039599016308784485, 0.16606301069259644, -0.00023398363555315882, 0.044946640729904175, 0.00016017923189792782, 0.0072412509471178055, 0.00013702502474188805, -0.00028394258697517216, 0.00016320202848874032, 0.09635727852582932, 0.09845742583274841, -5.342817530618049e-05, -0.00027611685800366104, -0.00020822370424866676, 0.00018311405437998474, -0.00030212433193810284, -0.14794005453586578, 6.97071518516168e-05], [-0.008500845171511173, -0.07545328885316849, -9.058677824214101e-05, -0.26288238167762756, -0.06541354954242706, 0.008092649281024933, 0.35699424147605896, 0.027749529108405113, 0.021669337525963783, -5.067095116828568e-05, -0.0006656500045210123, 0.0005505869630724192, -0.04723256081342697, 0.09267567843198776, 0.033368512988090515, -0.062031060457229614, 0.012414700351655483, 0.03224528580904007, -0.08398037403821945, 0.000204470896278508, -6.334138015517965e-05, -0.03249645233154297, -0.022455722093582153, -0.01755324937403202, -0.00045972096268087626, -0.04809360206127167, 0.0002715614391490817, 0.0012201206991448998, 0.0005815907497890294, -0.00019114844326395541, 0.0004633466014638543, 0.21697653830051422, 0.06423117965459824, 0.0014827573904767632, -0.0004739155119750649, -5.894732748856768e-05, -5.111690916237421e-05, -0.0006389119080267847, 0.2192797213792801, 0.0003127394593320787], [-0.05520430952310562, 0.03270123153924942, 0.0005016081850044429, -0.09783884137868881, -0.051072705537080765, -0.003991704899817705, 0.08450672030448914, 0.012901192530989647, -0.022575950250029564, -0.0006857519620098174, -0.0003655299951788038, -9.826754649111535e-06, 0.03009437397122383, 0.055218107998371124, -0.01957312598824501, -0.06995974481105804, 0.012818373739719391, 0.007259952370077372, -0.07256889343261719, 0.0005150195211172104, 0.000614944554399699, -0.0023197068367153406, -0.022536829113960266, 0.07680116593837738, 0.0003861560835503042, -0.04219745844602585, -0.0004454945446923375, 0.03796634078025818, -4.1035422327695414e-05, 0.0007811199757270515, -0.00037960096960887313, 0.025802113115787506, 0.04758623614907265, 0.0023447663988918066, 9.673259046394378e-05, 0.000595940975472331, -0.00020079671230632812, 0.00023175423848442733, 0.03926314786076546, -0.00012789179163519293], [-1.5523942238360178e-06, 1.0590308193059172e-05, 1.49344447919475e-08, 6.205114004842471e-06, -7.050472504488425e-06, -1.549610351503361e-05, 1.897840411402285e-05, 3.2564230423304252e-06, 1.6700461856089532e-05, -1.4078479715351477e-08, -1.3120655673048987e-09, -5.198136143746979e-09, -5.067072379461024e-06, -1.2076427992724348e-05, -3.933238531317329e-06, 6.673338702967158e-06, -2.0160284748271806e-06, -1.395395202052896e-06, 1.56542537297355e-05, 1.9630642000834087e-08, 3.5804883502521534e-09, -1.0158667464565951e-05, 3.6696069400932174e-06, -1.736798367346637e-05, 1.552650630287644e-08, -3.41288759955205e-05, -1.2827529261016934e-08, 2.016809759197713e-07, -4.903154771085383e-09, 7.902676735227487e-09, -7.937690504888906e-09, -3.182372211085749e-06, -2.1443405785248615e-05, 2.4386167751799803e-07, 1.6422010418182253e-08, 1.3634213757995894e-08, -1.2869869614462459e-08, 1.7975631649846946e-08, 1.9626677385531366e-05, -6.849912637107991e-09], [0.016453729942440987, 0.03629029169678688, 0.0002719664480537176, 0.5716925263404846, -0.03144325688481331, 0.05179295688867569, 0.10345295071601868, 0.009044790640473366, -0.27419039607048035, -0.0005705793737433851, -0.00036187193472869694, 0.0002237353619420901, 0.0026569608598947525, -0.27062106132507324, -0.09357409179210663, 0.5401594638824463, 0.014397405087947845, 0.0006808664184063673, 0.41773396730422974, 0.00023966353910509497, 0.0005782432854175568, 0.29867830872535706, 0.0013343440368771553, 0.02726777270436287, 0.0001570306485518813, 0.020932726562023163, -0.0003440957807470113, -0.07139389216899872, 0.00014581126742996275, 0.0007895058370195329, -0.0002586801128927618, -0.36613380908966064, 0.03505725786089897, 0.002202756004408002, -0.0007418977911584079, 0.00039044342702254653, 0.00026203118613921106, -0.0001610787003301084, 0.09212249517440796, 0.00013111067528370768], [6.119856266195711e-07, 8.885887837095652e-06, 1.9965034070423826e-08, 1.5168757272476796e-05, -5.509135007741861e-06, -1.0988195754180197e-05, 1.907598016259726e-05, 2.9554159937106306e-06, 1.2431351024133619e-05, -1.972244412229429e-08, -8.279359420271248e-09, -4.514639329045167e-09, -3.9719843698549084e-06, -1.3845395187672693e-05, -6.291626959864516e-06, 1.2601949492818676e-05, -4.083103249286069e-06, -9.115098578149627e-07, 1.90093105629785e-05, 2.3074216315421836e-08, 9.499543374147379e-09, 5.219232548370201e-07, 1.5952332432789262e-06, -1.8448779883328825e-05, 1.9075068635743264e-08, -3.154555452056229e-05, -1.750069067441018e-08, 1.0128660221653263e-07, -2.5568585027002655e-09, 1.6773581634765833e-08, -1.1240660846567607e-08, -1.0079981620947365e-05, -1.8925809854408726e-05, 2.3788768999111198e-07, 1.4178517027119142e-08, 1.8771453724752973e-08, -1.3431353806936386e-08, 1.801693727543352e-08, 2.26379979721969e-05, -9.939139289372179e-09], [0.06554363667964935, -0.010870005004107952, 0.00022637163056060672, -0.3252788782119751, 0.05170993506908417, -0.09847016632556915, -0.05187965929508209, -0.010023852810263634, -0.02289542555809021, -0.00022152748715598136, -0.00014683874906040728, 5.8565710787661374e-05, -0.03006271831691265, 0.3083270192146301, -0.08756277710199356, -0.33267152309417725, -0.011583542451262474, 0.027915749698877335, -0.3378866910934448, 0.00013304509047884494, 5.5012074881233275e-05, 0.015473629347980022, -0.00980405230075121, 0.2216149866580963, 0.00028097015456296504, 0.0058012716472148895, -0.0002229682868346572, 0.019388370215892792, -0.00016515672905370593, 0.0002082082792185247, -0.00018370867474004626, 0.10561887919902802, 0.15017461776733398, -0.0002245782525278628, 0.0002937579993158579, 0.00029983153217472136, -0.00018089097284246236, 0.0003017609706148505, -0.22874300181865692, -0.00012791161134373397], [-1.1316324162180535e-05, 1.43723937071627e-05, -2.3669246118629417e-08, 7.748180337330268e-07, -1.0136035598407034e-05, -1.449329465685878e-05, 1.3264670087664854e-05, 7.353621640504571e-07, 2.0800107449758798e-05, 2.863459869217877e-08, 1.903909563338857e-08, -5.446004536224791e-09, -9.576751835993491e-06, -7.43445843909285e-06, -1.2290644235690706e-06, -4.121479378227377e-06, 2.0334450709924567e-06, -1.4868797961753444e-06, 3.290394261057372e-06, -1.9140232510039823e-08, -4.076216342241423e-08, -1.5997989976312965e-05, 3.2971156542771496e-06, -1.223467643285403e-05, -2.760654993494427e-08, -1.3120870789862238e-05, 2.518865116485358e-08, -2.5907431790983537e-06, 3.670742820816031e-09, -5.206525344192414e-08, 1.767197588264935e-08, 4.7210464799718466e-06, -8.541382158000488e-06, -3.4866250331333504e-08, -1.5112943785311472e-08, -2.96616704531516e-08, 1.808615479603759e-08, -2.5869573150316683e-08, 1.4754466974409297e-05, 6.815576991670014e-09], [1.3139761904312763e-05, -5.212817541178083e-06, 3.488030486664684e-08, 1.9777404304477386e-05, -1.6660902474541217e-05, -4.844849172513932e-06, 3.376677705091424e-05, 6.290692454058444e-06, 1.2089350093447138e-05, -3.858742303464169e-08, -6.49654063877847e-09, -1.2434157703467008e-08, -1.4726978406542912e-05, -1.1418367648730054e-05, -8.986898137663957e-06, 2.06600616365904e-05, -4.349368737166515e-06, 1.5209235471047577e-06, 2.343093728995882e-05, 3.755530997295864e-08, 2.2497133045362716e-08, -3.461062306087115e-06, -7.165638180595124e-07, -2.4542241590097547e-05, 3.320396402273218e-08, -4.889582487521693e-05, -2.808352483896215e-08, 9.225628673448227e-06, -1.0244720627383685e-08, 4.330453862166905e-08, -2.4174385160335987e-08, 2.4036453396547586e-06, -2.9523233024519868e-05, 4.7423742444152595e-07, 4.000942155357734e-08, 3.7097013461107053e-08, -2.4070452298019518e-08, 3.820200333848334e-08, 3.370215563336387e-05, -1.3017688260674731e-08], [-6.18885133008007e-06, 1.4456945791607723e-05, 1.1792375964603252e-08, 1.0244544682791457e-05, -7.765353075228631e-06, -1.475633598602144e-05, 1.577470902702771e-05, 2.065320359179168e-06, 1.6124076864798553e-05, -1.1913093622695214e-08, -6.554540799008635e-10, -8.587538680160378e-09, -9.575752301316243e-06, -1.5135627108975314e-05, -1.08274261947372e-05, 8.407912901020609e-06, -1.0184713801209e-06, -7.820472092134878e-07, 1.6994570614770055e-05, 1.4708222195736198e-08, 5.853789897258821e-09, -8.903392881620675e-06, 4.844303475692868e-06, -1.4324227777251508e-05, 1.302068142194912e-08, -2.6783241992234252e-05, -1.1197846205845963e-08, -1.0075613090521074e-06, -6.863225543440876e-09, 1.0092924718207996e-08, -1.0753338663960221e-08, -6.394507181539666e-06, -1.7444766854168847e-05, 1.129049422843309e-07, 1.227054280406037e-08, 1.0197677369205849e-08, -7.381514510740317e-09, 1.4956407667909843e-08, 2.260135624965187e-05, -6.465644464270781e-09], [0.04078783094882965, 0.012994565069675446, -0.00037498242454603314, -0.1322021782398224, -0.0016928251134231687, -0.037891726940870285, 0.06598030775785446, 0.015519791282713413, 0.06696274876594543, 0.00039838135126046836, 0.00010995488264597952, -2.4974928237497807e-05, -0.029187636449933052, 0.06335833668708801, 0.010046001523733139, -0.0476951003074646, -0.013759338296949863, -0.004094304516911507, -0.013928115367889404, -0.00029447005363181233, -0.0003086710930801928, -0.06483986228704453, -0.010698712430894375, -0.00990224163979292, -0.00025259482208639383, 0.04200166463851929, 0.00028289741021580994, -0.01616671122610569, 3.0100309231784195e-05, -0.0004211693594697863, 0.00025825516786426306, 0.06585661321878433, 0.001080112298950553, 0.0006763302371837199, -0.0001729334326228127, -0.00037945836083963513, 0.0001240795972989872, -0.00022386209457181394, -0.025571463629603386, 9.683113603387028e-05], [0.10787491500377655, 0.04797669127583504, 0.00012526709178928286, 0.6422119140625, -0.01405146811157465, 0.08023108541965485, -0.0584641732275486, -0.0038661432918161154, -0.4897497594356537, -9.571675764163956e-05, 0.0006812347564846277, -0.00023730135580990463, -0.1056467816233635, -0.08382038027048111, 0.001959707587957382, 0.7583039999008179, -0.02870839089155197, 0.04657413065433502, 0.7652540802955627, 3.06525471387431e-05, 0.00018908234778791666, 0.5380799770355225, 0.05911274626851082, -0.007455459330230951, 0.00040445441845804453, -0.08381892740726471, -0.00042086097528226674, 0.04827999323606491, -0.0005165182519704103, -3.84435816158657e-06, -0.0002489352773409337, -0.2950456142425537, 0.05334622412919998, 0.001893786247819662, -0.0004338666039984673, 0.00018704775720834732, -6.589842087123543e-05, 0.00024876397219486535, -0.0180722214281559, 9.291139576816931e-06], [0.0002512910286895931, -0.0007933524902909994, 3.3533274290675763e-06, -0.0013432649429887533, -0.0003783433639910072, -0.000531829078681767, 0.00048711031558923423, 0.0002448889135848731, 0.00012085193884558976, -4.3230261326243635e-06, -2.9065618036838714e-06, 1.0536188028709148e-06, -0.00015807391901034862, -4.5212753320811316e-05, -0.0002444629790261388, 4.253769657225348e-05, 0.00028163124807178974, 0.00033776729833334684, -0.00041772527038119733, 2.9252807962620864e-06, 4.919038019579602e-06, -0.000970858964137733, -0.0002632194373290986, 0.0010546876583248377, 3.7474449072760763e-06, 0.000448360777227208, -3.238012823203462e-06, 0.00047469104174524546, -1.4439274309552275e-07, 8.279346729977988e-06, -2.0989004951843526e-06, -0.0009420723654329777, 0.00030202677589841187, 6.29693840892287e-06, 5.677482931787381e-06, 5.145456725585973e-06, -3.94645348933409e-06, 3.959436526201898e-06, -0.000529731041751802, -5.922852892581432e-07], [-1.745146801113151e-05, 7.4873842095257714e-06, -1.4887093779947236e-09, 6.747754923708271e-06, -7.117749646567972e-06, -1.073037856258452e-05, -4.35361380368704e-06, 1.6988044535537483e-06, -1.755810262693558e-05, -4.5528691927643195e-09, 3.8125328671867464e-08, -1.5842612555161395e-08, -5.920419994254189e-07, -8.512441127095371e-06, -4.701520083472133e-06, 3.701743480633013e-06, 1.3504792150342837e-05, -2.461506255713175e-06, 1.2915666957269423e-05, 2.4787791819136373e-09, 2.1082000145611346e-08, 2.944687196304585e-07, 3.1053079965204233e-06, 1.614722168596927e-05, 9.720753091357892e-09, -6.516178018500796e-06, -8.179031674160342e-09, 4.933017407893203e-06, -2.436224200152992e-08, 1.24975061410737e-08, -9.856139016051202e-09, -1.5230004464683589e-05, -4.234793777868617e-06, 6.77698324125231e-08, 9.313176896341702e-09, -6.738161140162902e-10, -1.710387942388536e-09, 1.7635409577110295e-08, -2.462692236804287e-06, 9.594151251235417e-09], [3.1266181395039894e-06, 5.168383722775616e-06, 1.3538152821013227e-08, 1.3787267562292982e-05, 6.464762918767519e-06, 2.764181090242346e-06, 5.851233254361432e-06, 2.7608393793343566e-06, -5.382830295275198e-06, -1.480882794169247e-08, 2.064046711325318e-08, -1.3586608282878387e-08, 5.604744046650012e-08, -3.5450664199743187e-06, 3.599847332225181e-06, 1.0178373486269265e-05, -1.8096586700266926e-06, 1.7242158492081217e-06, 1.6144074834301136e-05, 1.3160337708484349e-08, 1.1445528969034058e-08, 1.0872372513404116e-05, 4.197012003714917e-06, -7.275654297700385e-06, 2.409878696596479e-08, -1.411569792253431e-05, -1.6836542826581535e-08, 7.423825536534423e-07, -2.5536415648730326e-08, 1.7516315509169544e-08, -1.7347604241990666e-08, 2.1024501961619535e-07, -1.0179170203628018e-05, 3.4091522138623986e-07, 2.730654635740848e-08, 1.7242848926457555e-08, -1.4152909066922348e-08, 3.283408034349122e-08, -4.365439963294193e-06, -3.127148318071704e-09], [1.8094835922966013e-06, -1.952343609445961e-06, 5.0221706793252e-09, 1.8686923795030452e-05, 2.2700000954500865e-06, 8.812109626887832e-06, 2.899136006817571e-06, 9.885277449939167e-07, -1.0230751286144368e-05, -6.099461824504715e-09, 1.7583332123649598e-08, -1.1348321393711558e-08, 5.025103178013524e-07, -6.257024779188214e-06, 4.576050741889048e-06, 1.427612096449593e-05, 6.005590194035904e-07, 5.214738507675065e-07, 1.3155181477486622e-05, 4.245491957988179e-09, 6.012461639670619e-09, 1.048427657224238e-05, 1.7907685787577066e-06, -3.6436051686905557e-06, 1.1512581998829319e-08, -5.72471844861866e-06, -8.123884676081161e-09, 2.477526663824392e-07, -1.6033304461871012e-08, 8.266780149313036e-09, -1.0179848075608788e-08, -2.9455773074005265e-06, -4.0047798393061385e-06, 1.2484780143040553e-07, 1.4036906748060574e-08, 6.610269220885812e-09, -4.656255381263463e-09, 1.573709695890102e-08, -3.7779105355184583e-07, -1.0308335296471682e-09], [-9.557743396726437e-06, 1.4048664525034837e-05, -1.6413171932683213e-09, -4.760318461194402e-06, -3.990518052887637e-06, -1.573390545672737e-05, 5.116006832395215e-06, 1.1859832511618151e-06, 4.023634573968593e-06, 7.890637032659242e-10, 2.1841152886281634e-08, -6.417859133023285e-09, -5.245332886261167e-06, -5.724183665734017e-06, -1.094163621928601e-06, -4.412065663927933e-06, 5.00024816574296e-06, -1.6645558389427606e-06, 7.486596587114036e-06, 2.4502919693247804e-09, 7.179843386495577e-10, -1.1815842299256474e-05, 5.583959591604071e-06, 2.6960046852764208e-06, 4.2873677941202004e-09, -1.9710480046342127e-05, -8.477870072631788e-10, -2.8220603098816355e-07, -1.3525754738452633e-08, -4.278880805230756e-09, -1.5173271528112764e-09, 4.2753363516112586e-08, -1.0533753084018826e-05, 3.7158706334139424e-08, 1.4176255724862585e-08, -1.9291954700406677e-09, -4.966200339850957e-09, 1.3519650288174034e-08, 3.442931301833596e-06, 6.145551179059794e-09], [-0.06615330278873444, -0.07022573053836823, 0.0002570487267803401, 0.13505426049232483, -0.06987394392490387, -0.019115813076496124, 0.18929386138916016, 0.0036948095075786114, -0.0050394851714372635, -0.00027296290500089526, -0.00026324408827349544, -4.249082485330291e-05, 0.047764986753463745, -0.053737666457891464, -0.024846529588103294, 0.19117560982704163, 0.2164859175682068, -0.017445260658860207, 0.04362574964761734, 0.00017788793775252998, 0.00023872361634857953, 0.2657308280467987, -0.11141345649957657, 0.015215015038847923, -1.049254115059739e-05, 0.05702316761016846, -0.0002129885251633823, -0.16907648742198944, 0.00018240702047478408, 6.169430707814172e-05, 4.1786424844758585e-05, 0.02227182127535343, -3.8109112210804597e-05, -0.0007379708695225418, -0.00042708561522886157, 0.00022036315931472927, 7.516821642639115e-05, -0.00036894474760629237, 0.050225723534822464, -0.00025256708613596857], [3.080047690673382e-06, -1.4719510090799304e-06, 1.1364831742355364e-08, 8.935584446589928e-06, -1.378007937091752e-06, -5.409494860941777e-06, 4.878100753558101e-06, 1.172650058833824e-06, 2.4487490009050816e-06, -1.2506615298946144e-08, -1.5805751152342395e-09, -6.4608300931467966e-09, -1.3135742165104602e-06, -7.997616194188595e-06, -3.760467052416061e-06, 8.607074050814845e-06, -2.0650513761211187e-06, -6.571850690306746e-07, 9.615904673410114e-06, 1.0915362835817177e-08, 1.1436869229441982e-08, 1.0446696023791446e-06, 2.1687274909254484e-07, -5.682894880010281e-06, 1.358106072046894e-08, -9.488153409620281e-06, -1.1884884187907119e-08, 2.9429918413370615e-07, -4.809186826548739e-09, 1.7678088326533725e-08, -1.0709934272767896e-08, -9.1365081971162e-06, -8.253459782281425e-06, 8.174795596005424e-08, 1.0500503577759446e-08, 1.144099215366623e-08, -5.7863682734193844e-09, 1.3846882751522571e-08, 7.899365300545469e-06, -6.698442245323122e-09], [-0.15040625631809235, -0.05978607013821602, 7.55419532652013e-05, -0.004315903875976801, 0.028472360223531723, 0.678562343120575, -0.08942464739084244, 0.013400291092693806, -0.06084879860281944, -2.2630551029578783e-05, 0.0004090338188689202, -0.0005184566252864897, -0.13622936606407166, 0.21967078745365143, -0.027943242341279984, -0.17694713175296783, -0.019637681543827057, 0.006428778637200594, -0.1252569556236267, -0.00010165059939026833, 0.00024977524299174547, -0.036499541252851486, -0.12305531650781631, -0.07104924321174622, 0.00035269572981633246, 0.03983227163553238, -0.00034238744410686195, 0.042915500700473785, -0.00038072053575888276, 0.00030684261582791805, -0.0002823208924382925, 0.08259113132953644, -0.058187004178762436, 0.0016735454555600882, 0.0002687606029212475, 0.0001118679138016887, -0.00010918227053480223, 0.00037444420740939677, -0.08089395612478256, -0.0003563657228369266], [-0.045234862715005875, 0.006229303311556578, 0.0002989982604049146, 0.1690593808889389, 0.04694967716932297, 0.04947010055184364, -0.07436595857143402, -0.0022620672825723886, -0.22255127131938934, -0.00017474677588324994, -0.0002694065624382347, -0.00013579166261479259, 0.022868754342198372, -0.01638985425233841, 0.057389676570892334, -0.1270098239183426, 0.00035431570722721517, 0.03212977945804596, -0.1590084731578827, 0.0002657524892129004, 0.00015911945956759155, 0.21879059076309204, 0.06874527037143707, 0.11339187622070312, 0.00043373662629164755, -0.06754706054925919, -0.00030961856828071177, 0.010672051459550858, -0.00035490933805704117, -4.1282786696683615e-05, -0.00014266694779507816, 0.03545328229665756, -0.0019523634109646082, 0.00021451750944834203, 0.00024016237875912338, 0.00035020371433347464, -0.00030013007926754653, 0.0005171577213332057, -0.12531790137290955, -0.00014380455831997097], [-1.926184040712542e-06, 6.139042852737475e-06, 1.282822470471956e-08, 1.550471097289119e-05, 3.5169568946002983e-06, -2.264130671392195e-06, 4.8312531362171285e-06, 2.0837528609263245e-06, -5.935859007877298e-06, -1.3857160752195341e-08, 1.566841589806245e-08, -1.2026703188894317e-08, 2.5920019197656075e-06, -6.9667248681071214e-06, 1.6950586996244965e-06, 1.0574478437774815e-05, -8.554566761631577e-07, 4.151340249336499e-07, 1.546837120258715e-05, 1.258401916004459e-08, 1.2477915589670374e-08, 1.1836285921162926e-05, 3.245808102292358e-06, -4.7094872570596635e-06, 2.10654924615028e-08, -1.1034235285478644e-05, -1.6895759458179782e-08, 4.0710381199460244e-07, -1.924944292852615e-08, 1.6412997183579137e-08, -1.5202264336267035e-08, -6.235522505448898e-06, -6.875436611153418e-06, 2.63681869228094e-07, 1.7073380931265092e-08, 1.4778763102185621e-08, -1.0435422304055919e-08, 2.479310801106749e-08, 7.458365871571004e-07, -4.406649711796717e-09], [-0.035795025527477264, 0.0600336417555809, 0.00011725965305231512, -0.3187088966369629, -0.002900040242820978, -0.12218372523784637, -0.09072895348072052, -0.010407844558358192, 0.15206822752952576, -0.00017626394401304424, -7.960241782711819e-05, 0.00016045605298131704, -0.02496563270688057, 0.06450380384922028, 0.0088261803612113, -0.20904366672039032, 0.002457221271470189, -0.004461430944502354, -0.11644190549850464, 0.0002411694877082482, 0.0002797782653942704, -0.17533324658870697, 0.008240154013037682, 0.043356988579034805, 1.5070459085109178e-05, -0.0029712782707065344, -4.541550879366696e-06, -0.031083714216947556, 5.028563100495376e-05, 0.00018148204253520817, -1.0804797057062387e-05, 0.14503072202205658, 0.029013264924287796, -0.002155063208192587, 9.539352322462946e-05, 0.00011394155444577336, -0.00016408402007073164, 5.8509944210527465e-05, -0.08856834471225739, 0.00017555398517288268], [0.1051761582493782, -0.03532019257545471, 0.00013382649922277778, 0.13738416135311127, 0.21838095784187317, 0.19845229387283325, -0.1858733594417572, -0.019008593633770943, -0.05924941971898079, -2.038810634985566e-05, 4.5481534471036866e-05, 6.164445949252695e-05, -0.06808821111917496, -0.029506374150514603, 0.054698504507541656, 0.04283369705080986, 0.02141418494284153, 0.08465280383825302, -0.12306324392557144, 5.34009923285339e-05, -2.9086097129038535e-05, 0.015041436068713665, 0.02945452183485031, 0.05914924293756485, 0.00013858119200449437, 0.007277361582964659, -6.692100578220561e-05, 0.08009499311447144, -0.00015172603889368474, -0.00012937227438669652, -2.366648732277099e-05, -0.002893465803936124, -0.025704506784677505, -0.0008186491904780269, 0.00012352198245935142, 7.753387035336345e-05, -0.00013307870540302247, 0.00024668528931215405, -0.27948981523513794, -3.0393130145967007e-05], [0.04349783807992935, -0.017904609441757202, -0.0004685059830080718, -0.2571686804294586, 0.027843112125992775, 0.11679187417030334, 0.01928750053048134, 0.00089924072381109, 0.22606979310512543, 0.00040161312790587544, 0.0006862789741717279, -0.0003977240703534335, 0.0199810229241848, 0.16730594635009766, -0.013783188536763191, -0.07286325842142105, -0.09743532538414001, -0.024436743929982185, -0.05279425159096718, -0.0004447188985068351, -0.00044256955152377486, -0.13541485369205475, -0.07786564528942108, -0.03253309056162834, -0.000180222254130058, 0.08148135989904404, 0.00010002647468354553, -0.005589052569121122, -0.00012155787408119068, -0.00038355609285645187, 7.418011227855459e-05, 0.09177536517381668, 0.04240313172340393, 0.0007213527569547296, -0.0005041012773290277, -0.00044642508146353066, 0.000445398356532678, -0.0002907310554292053, 0.056504637002944946, -2.6411973522044718e-05], [-0.0685756504535675, -0.07099843770265579, -0.0004764460609294474, -0.5451288223266602, -0.06134580820798874, -0.015409380197525024, 0.1208413764834404, -0.03396860882639885, -0.13067972660064697, -3.5026045225095004e-05, -0.0001022228243527934, -0.0001888428523670882, 0.07709932327270508, 0.10754959285259247, -0.00202199281193316, -0.163284569978714, 0.06676788628101349, -0.03179853782057762, -0.09713428467512131, 0.00022075159358792007, -0.00019678405078593642, -0.23066186904907227, -0.07865899801254272, 0.10733229666948318, -0.0003425314789637923, -0.08006193488836288, 0.000197115441551432, 0.02526763081550598, -0.0002057748060906306, -0.0004945466062054038, -1.1837188139907084e-05, 0.09831752628087997, 0.06735435128211975, -0.004032488446682692, -0.0005179222789593041, -0.00018602625641506165, 0.0002080719277728349, -0.0003942756447941065, 0.23157899081707, 0.00022011763940099627], [-0.02105621248483658, 0.010662431828677654, -0.0001606060832273215, -0.05730418115854263, 0.0007199150859378278, -0.040376242250204086, 0.022672977298498154, 0.012047531083226204, 0.02080485224723816, 0.00016273056098725647, 0.00022338228882290423, -4.8552195949014276e-05, -0.014099705033004284, 0.02384793385863304, -0.020464187487959862, -0.016916614025831223, 0.006711618509143591, 0.00715614203363657, 0.010514404624700546, -0.00013700693671125919, -0.00012507507926784456, -0.032742440700531006, 0.020496638491749763, 0.02872915007174015, -0.00016148574650287628, 0.022903969511389732, 0.00015953568799886853, 0.009645577520132065, -2.952617796836421e-05, -0.00017765586380846798, 7.642938726348802e-05, 0.016450053080916405, 0.005728611722588539, 0.001525968429632485, -4.8063870053738356e-05, -0.00016488070832565427, 7.788126094965264e-05, -0.00012917962158098817, -0.030607817694544792, 9.898623102344573e-05], [0.09541184455156326, -0.12050415575504303, -2.6299123419448733e-05, -0.03295218572020531, -0.2606346011161804, 0.06314800679683685, -0.002642200794070959, 0.08122856169939041, -0.08645182847976685, 6.008642230881378e-05, 4.8479971155757084e-05, -0.00011989161430392414, -0.1104641854763031, 0.03693576902151108, -0.029230408370494843, -0.18217907845973969, 0.05598540976643562, 0.03459674492478371, 0.005532376933842897, -0.00027088113711215556, 0.0001570714812260121, 0.08729197084903717, 0.016754712909460068, 0.08413053303956985, 0.00011161802103742957, 0.19293396174907684, -5.825709013151936e-05, 0.027551081031560898, -1.4739497601112816e-05, 0.00032319757156074047, -0.00011705117503879592, -0.04189877212047577, -0.10434427112340927, 0.008932734839618206, 7.322613237192854e-05, -2.811768717947416e-05, 9.891812078421935e-05, 0.0001061494040186517, -0.2109869420528412, -9.493784455116838e-05], [5.385904842114542e-07, 7.749844371574e-06, 1.8504863419366302e-08, 2.1417899915832095e-05, 5.80894129598164e-06, -4.629363957064925e-06, 4.371304385131225e-06, 2.3465556751034455e-06, -1.3122294149070513e-05, -2.192388492971986e-08, 2.2102206287399895e-08, -1.8062589646206106e-08, 1.2460405969250132e-06, -9.728736586112063e-06, -1.0619471169093231e-07, 1.4698555787617806e-05, -9.420364222023636e-07, 1.9223434719606303e-06, 1.944038194778841e-05, 1.5911686190861474e-08, 2.4384064545301953e-08, 2.0564924852806143e-05, 5.413899089035112e-06, 4.60324059758932e-07, 3.090703160069097e-08, -9.8319687822368e-06, -2.464862802753487e-08, 1.3310138911037939e-06, -2.8381400341004337e-08, 3.1996734151107376e-08, -2.454943270890908e-08, -1.1265142347838264e-05, -7.033079782559071e-06, 3.063947247028409e-07, 2.6372779515781986e-08, 2.2285989942361084e-08, -1.37673632494284e-08, 3.7009453279779336e-08, -1.1718352652678732e-06, -5.714058559647128e-09], [-9.207522452925332e-06, 1.4095252481638454e-05, -9.239825260465295e-08, 3.116284642601386e-05, -1.7569123883731663e-05, -2.2297574105323292e-05, 7.880464181653224e-06, 1.935384034368326e-06, 2.6393243388156407e-05, 1.1157202806089117e-07, 9.835070358121811e-08, -2.17643627564712e-08, -1.128117673943052e-05, -8.633119250589516e-06, 8.021223038667813e-06, 6.532352472277125e-06, 1.198151039716322e-06, -1.0496694358153036e-06, 8.160141987900715e-06, -8.812120455559125e-08, -1.4856766483717365e-07, -1.0361444765294436e-05, 1.5237689012792544e-06, -7.99544886831427e-06, -9.883657270393087e-08, -8.600107321399264e-06, 9.32823880361866e-08, 1.3212842304710648e-06, -8.13415945710716e-10, -1.9115729799068504e-07, 6.393645435309736e-08, 3.4038678222714225e-06, -2.7757605494116433e-06, 7.094956799846841e-08, -6.120063034131817e-08, -1.1178988046367522e-07, 7.599926021839565e-08, -9.14477880087361e-08, -8.936068297771271e-06, 2.9451834748783767e-08], [-3.280077407907811e-06, 6.5531435211596545e-06, -1.8661122425100984e-08, 2.4225715606007725e-05, -1.2932478057336994e-05, -1.5413581422762945e-05, 9.002175829664338e-06, 1.1586647588046617e-06, 1.4060846297070384e-05, 2.4832033318489266e-08, 2.1226984614486355e-08, -1.1090678597724946e-08, -1.356631673843367e-05, -1.3846674846718088e-05, -1.1068902495026123e-05, 1.4995514902693685e-05, -1.147735929407645e-06, -1.7522328334962367e-06, 1.5096442439244129e-05, -1.6674849945275128e-08, -3.938646742085439e-08, -2.5683048079372384e-06, 6.337443778647867e-07, -1.0605259376461618e-05, -2.2615305184103818e-08, -2.116739415214397e-05, 2.111580954533565e-08, -1.4184790586568852e-07, 1.8601702400644626e-09, -4.6530445274584054e-08, 1.2188682951830287e-08, -1.7772023056750186e-05, -1.2902243724965956e-05, -4.4363591911178446e-08, -1.2099408586152549e-08, -2.6994261048685075e-08, 2.0302508119129925e-08, -2.073684335357484e-08, 1.4884709344187286e-05, 2.181642866361244e-09], [0.02057022601366043, 0.055260371416807175, -0.000623005791567266, -0.5651030540466309, -0.09412751346826553, -0.08798936754465103, 0.07733097672462463, 0.013445349410176277, 0.20695209503173828, 0.0006950878887437284, 0.0010829768143594265, -0.0002210615057265386, 0.027030065655708313, 0.25197160243988037, -0.03015984781086445, -0.20920129120349884, 0.0144859179854393, 0.03995956480503082, -0.18800115585327148, -0.0006547403754666448, -0.0004718001582659781, -0.2639201879501343, 0.06640641391277313, 0.03477419912815094, -0.0003681991947814822, 0.08136887103319168, 0.0005035965004935861, 0.04268722981214523, -0.00028693705098703504, -0.0005697453743778169, 0.00024830683832988143, 0.43747153878211975, 0.06492771953344345, 0.0020079081878066063, 0.0003301475662738085, -0.0006125894142314792, 0.00015160573821049184, -7.008799002505839e-05, -0.07922039180994034, 0.0003399766865186393], [0.011056620627641678, -0.03940693289041519, -6.291061436058953e-05, -0.23676016926765442, 0.013912683352828026, 0.042950525879859924, 0.06740935891866684, -0.014666265808045864, 0.10539452731609344, 5.7722868405107874e-06, 0.0001228464097948745, -0.0002010402240557596, 0.006574405822902918, 0.17667874693870544, -0.06888798624277115, -0.10578136891126633, -0.04739588126540184, -0.004602658096700907, -0.07649058103561401, 4.066399560542777e-05, -3.881525481119752e-05, 0.05940881744027138, -0.08929191529750824, 0.07336489111185074, -0.0002677101583685726, -0.08566710352897644, 5.057500675320625e-05, -0.018733449280261993, -8.583193266531453e-05, -0.00045458428212441504, 5.0941729568876326e-05, 0.08828818053007126, 0.037229858338832855, -0.0016355471452698112, -0.000941799080464989, -0.0001236076932400465, 0.0003019175201188773, -0.0005549846100620925, 0.030354667454957962, 0.00010879717592615634], [-0.0043131220154464245, 0.08873075246810913, -5.979767956887372e-05, -0.16252471506595612, -0.0659160315990448, -0.05359923094511032, 0.010283149778842926, 0.013891492038965225, -0.02605169266462326, 0.00017313743592239916, 0.0008187720668502152, -0.0006883264286443591, -0.04775720089673996, 0.12296784669160843, 0.038668226450681686, -0.01930219866335392, 0.013053067959845066, 0.019263001158833504, -0.011675269342958927, -0.0004320440930314362, -0.00011797674960689619, -0.07404731214046478, 0.0795958861708641, -0.05670112743973732, 0.00016696042439434677, 0.055533722043037415, -0.00013445205695461482, 0.03059285692870617, -0.0005905578145757318, -9.445044270250946e-05, -0.00030693504959344864, 0.3022121787071228, 0.028210513293743134, 0.0028341866564005613, -9.836695244302973e-05, -0.00019149105355609208, 0.0005078947287984192, 0.00020047894213348627, -0.06481727212667465, 1.211052767757792e-05], [0.10153742134571075, 0.19150994718074799, -0.00023573929502163082, -0.1534867286682129, 0.12428346276283264, 0.13047058880329132, 0.04021795466542244, 0.0066856215707957745, 0.07029033452272415, 0.0002353177114855498, -0.00019657441589515656, 0.0002849624725058675, -0.04962567985057831, 0.12869001924991608, 0.08197099715471268, -0.09045709669589996, -0.15055890381336212, 0.022829687222838402, -0.085055872797966, -0.00017348671099171042, -0.00032230326905846596, 0.14149035513401031, -0.0074470750987529755, 0.016075298190116882, -0.0004754580731969327, 0.019629478454589844, 0.0004071083094459027, -0.01916508376598358, 0.00019006461661774665, -0.0004426732484716922, 0.000361795537173748, 0.1538911759853363, 0.023846160620450974, -2.3186345060821623e-05, -0.0004405534127727151, -0.0002564977330621332, 0.00012003923620795831, -0.00044157804222777486, -0.08115565776824951, 0.0003262723912484944], [0.004314666613936424, -0.027069231495261192, -0.00011518728570081294, 0.3117119073867798, 0.03488621860742569, 0.24273087084293365, -0.03146957606077194, 0.009050642140209675, -0.026828205212950706, 0.00016051795682869852, -1.819142016756814e-05, 7.352886314038187e-05, -0.002638832200318575, -0.13114096224308014, 0.01778385043144226, 0.18656396865844727, 0.012824535369873047, -0.01473931036889553, 0.1772475391626358, -0.00013666732411365956, -0.00023881570086814463, 0.05850893631577492, -0.04433862864971161, -0.12366734445095062, -0.00011392781016184017, -0.022850478067994118, 0.0001688044285401702, -0.04370637238025665, 4.043646185891703e-05, -0.00021982409816700965, 8.027966396184638e-05, -0.11630407720804214, -0.10400114953517914, 8.435110066784546e-05, 9.869901987258345e-05, -0.0001469678827561438, 6.32709707133472e-05, -2.365985437791096e-06, 0.022679584100842476, 2.414399932604283e-05], [-0.027653155848383904, -0.027476510033011436, 5.992366641294211e-05, 0.24942851066589355, 0.061515793204307556, 0.16014334559440613, -0.011041293852031231, -0.0009683113312348723, -0.1378694474697113, -1.9874491044902243e-05, -0.00011353873560437933, -1.6730975403334014e-05, -0.011562243103981018, -0.06151263788342476, -0.005263032857328653, 0.18316403031349182, 0.019535023719072342, 0.006090113427489996, 0.19048723578453064, 5.406291893450543e-05, -2.463594682922121e-05, 0.17208793759346008, -0.03470974043011665, -0.03209596127271652, 0.00010705584281822667, -0.03081211820244789, -5.240117752691731e-05, -0.020081758499145508, -6.243693496799096e-05, -2.5063109205802903e-05, -5.194244295125827e-05, -0.06477225571870804, -0.03703192248940468, -0.0002460786490701139, 0.00012530072126537561, 5.60426342417486e-05, -7.451784040313214e-05, 0.00016223748389165848, -0.0034307516179978848, -8.082296699285507e-05], [-0.06941338628530502, -0.17004014551639557, 5.225196582614444e-05, -0.14009712636470795, -0.1804327368736267, 0.1846245378255844, -0.010376568883657455, 0.018924713134765625, -0.1491367220878601, -0.00013007261441089213, 0.00038594359648413956, -0.0003633430751506239, 0.03911783546209335, 0.12174619734287262, 0.011355643160641193, -0.12350212782621384, 0.0910026803612709, 0.021218236535787582, -0.0816006064414978, 0.00017873241449706256, 0.00027112479438073933, 0.055748164653778076, -0.09901566058397293, 0.07114724814891815, 0.000353879266185686, 0.011012794449925423, -0.00035734361154027283, 0.0864797905087471, -0.00034376702387817204, 0.0003133174614049494, -0.00032796492450870574, 0.06692211329936981, 0.10588330775499344, 0.0015310643939301372, 0.00020611216314136982, 0.00011031534086214378, -3.3721184991009068e-06, 0.00030812053591944277, -0.021672530099749565, -5.617818169412203e-05], [-2.021341742874938e-06, 6.02616182732163e-06, 1.0138268891068947e-08, 1.8913649910246022e-05, 6.371816198225133e-06, 1.7771850480130524e-07, 1.8962829244628665e-06, 1.4531283341057133e-06, -1.0888147699006367e-05, -1.2052553621799689e-08, 2.337047710909701e-08, -1.6155194515476978e-08, 2.0706752366095316e-06, -7.232564257719787e-06, 2.7972087082162034e-06, 1.2011635590170044e-05, -3.6568528116731613e-07, 1.1151880698889727e-06, 1.5405415979330428e-05, 8.447635480024474e-09, 1.3135768917038604e-08, 1.7754591681296006e-05, 4.1460834836470895e-06, 3.222667999125406e-07, 2.1174743736196433e-08, -5.281096491671633e-06, -1.6128048230257264e-08, -6.978434043958259e-07, -2.5417092430757293e-08, 1.6910615130427686e-08, -1.7824856257675492e-08, -7.804757842677645e-06, -3.510421720420709e-06, 2.23118874487227e-07, 1.939718252685907e-08, 1.3172517299153697e-08, -8.485956826120855e-09, 2.662887688131832e-08, -4.059266757394653e-06, -2.898628670422454e-09], [3.6456006000662455e-06, 7.249461475566932e-08, 2.552342870387747e-08, 2.0919613234582357e-05, -1.2791292647307273e-05, -2.045880592049798e-06, 2.425344064249657e-05, 3.36195012096141e-06, 8.35142327559879e-06, -2.714675062520655e-08, -6.690107134943446e-09, -1.06521085285749e-08, -8.952925782068633e-06, -1.0851378647203092e-05, -6.506132194772363e-06, 1.7623266103328206e-05, -1.635986563996994e-06, 1.343245230600587e-06, 1.534347939013969e-05, 2.6993021151611174e-08, 1.761732271177152e-08, 4.7177222768368665e-06, 2.558637788752094e-06, -2.1801673938171007e-05, 2.418213540522629e-08, -3.144541915389709e-05, -2.301734092213792e-08, 3.7239171888359124e-06, -7.318085248897432e-09, 2.841926871610667e-08, -1.8787375211104518e-08, -4.3685940909199417e-07, -1.6827054423629306e-05, 2.704708776946063e-07, 1.8654867872669456e-08, 2.592327774664227e-08, -1.549007855317086e-08, 2.2139705180279634e-08, 2.816316919052042e-05, -1.182140607625115e-08], [-0.1025155708193779, -0.049446262419223785, 4.0390794310951605e-05, -0.2148754745721817, 0.07918111979961395, 0.06508572399616241, -0.037635453045368195, -0.013114968314766884, 0.05978669971227646, -6.129905523266643e-05, -0.00033012288622558117, -1.2004423297184985e-05, -0.05627525970339775, 0.09164804220199585, 0.10720206052064896, -0.05289421230554581, -0.0536121241748333, -0.028647342696785927, 0.16219381988048553, 6.908507202751935e-05, 0.00021084594482090324, -0.06155899539589882, -0.07022280246019363, 0.04747424274682999, -0.0003080734459217638, 0.12888522446155548, 0.00014854347682558, -0.013798295520246029, 0.00038683373713865876, -9.532889748697926e-07, 0.00019464465731289238, 0.1378471404314041, 0.06508003175258636, -0.001464812783524394, -0.0001895034365588799, -9.986238001147285e-05, 0.00019109122513327748, -0.00041316880378872156, -0.06638862192630768, -7.830302638467401e-05], [-0.0055583990179002285, 0.0004986540880054235, 2.250917168566957e-05, 0.04628801345825195, -0.06373549997806549, -0.05729039013385773, 0.13640202581882477, 0.024202721193432808, -0.023440128192305565, 2.528929508116562e-05, -0.0005983385490253568, 0.00042034618672914803, -0.006411856971681118, -0.08437077701091766, 0.011376013979315758, 0.1639685183763504, 0.04594213515520096, 0.031131166964769363, 0.14639823138713837, 1.2198175681987777e-05, -0.00011607429769355804, -0.056009210646152496, -0.006865264847874641, -0.04588988795876503, -0.00024042879522312433, 0.006940928753465414, 0.00018460462160874158, -0.008737617172300816, 0.0002484646684024483, -0.0001785588829079643, 0.00022875898866914213, -0.01333799958229065, -0.030170712620019913, 0.0013612405164167285, -0.00016657386731822044, -4.7157194785540923e-05, -2.1185209334362298e-05, -0.00024495652178302407, 0.08200713247060776, 7.165662100305781e-05], [-0.10171142965555191, 0.026332031935453415, 0.0005253723356872797, -0.17550179362297058, -0.06998918950557709, -0.04996761679649353, 0.12817682325839996, 0.021015141159296036, -0.05105903744697571, -0.0007383007905445993, -0.0002939921978395432, 5.3201169066596776e-05, 0.06545990705490112, 0.12634973227977753, -0.04078919440507889, -0.15375709533691406, 0.018771512433886528, 0.007687354926019907, -0.1762990951538086, 0.0005176814738661051, 0.0005713260034099221, 0.008140921592712402, -0.035738054662942886, 0.159526526927948, 0.00034816315746866167, -0.08346102386713028, -0.000414413952967152, 0.05731264501810074, -6.772947358513193e-07, 0.0007932610460557044, -0.00030800074455328286, 0.05251196026802063, 0.11229754984378815, 0.0038126769941300154, 0.00015696378250140697, 0.0006421486614271998, -0.00019849852833431214, 0.00023616125690750778, 0.03539056330919266, -5.483671702677384e-05], [-1.6936365909714368e-06, 9.900026270770468e-06, 1.4537274495296515e-08, 5.797614903713111e-06, -7.999263289093506e-06, -1.5991217878763564e-05, 1.8923305106000043e-05, 3.4505910662119277e-06, 1.6180250895558856e-05, -1.3631330730845548e-08, -7.692448344975844e-10, -5.198347086121657e-09, -5.104502179165138e-06, -1.1893723240063991e-05, -4.122961399843916e-06, 6.521472187159816e-06, -1.1873132734763203e-06, -1.3738741699853563e-06, 1.5150877516134642e-05, 1.9429693409733773e-08, 3.1828684132761964e-09, -1.097082258638693e-05, 3.814688625425333e-06, -1.7025549823301844e-05, 1.4927310942880467e-08, -3.413160447962582e-05, -1.250683734355107e-08, 5.837663366037305e-07, -4.631393490939217e-09, 6.937461272116252e-09, -7.4355273049775406e-09, -3.0442990919254953e-06, -2.1385565560194664e-05, 2.6145184506276564e-07, 1.504764668425196e-08, 1.3076539850942481e-08, -1.244081460072266e-08, 1.707237906600767e-08, 1.931827500811778e-05, -6.600604063322635e-09], [-0.04040597379207611, 0.014553411863744259, 0.0001331011444563046, -0.9537635445594788, -0.10653340816497803, -0.040172502398490906, 0.07281762361526489, 0.015963027253746986, 0.34973594546318054, -0.00039093111990951, -0.0003167328832205385, 0.0002744982484728098, -0.11400119960308075, 0.26264578104019165, 0.07873103022575378, -0.4885435104370117, 0.02479810267686844, 0.0409497395157814, -0.40572136640548706, 1.3421855328488164e-05, 0.0005370011203922331, -0.49917271733283997, 0.025402572005987167, 0.09872469305992126, 6.133165152277797e-05, 0.23451101779937744, -0.00024194364959839731, -0.007430956698954105, 0.00019099375640507787, 0.0008291838457807899, -0.00016367228818126023, 0.39113613963127136, 0.13663358986377716, 0.0007763448520563543, -0.0008812251617200673, 0.0002289263065904379, 0.00041107891593128443, -0.0002915642107836902, -0.16850930452346802, 0.00022647966397926211], [-1.7175233679722623e-08, 9.634486559662037e-06, 1.9540101092729856e-08, 1.514756786491489e-05, -5.965199761703843e-06, -1.1636019735306036e-05, 1.901281575555913e-05, 3.0304033771244576e-06, 1.2471602531149983e-05, -1.9304259524233203e-08, -7.612950270186047e-09, -4.730179803402734e-09, -4.075466677022632e-06, -1.3836332072969526e-05, -6.6435513872420415e-06, 1.2057115782226902e-05, -4.103756509721279e-06, -9.884333849186078e-07, 1.9543460439308546e-05, 2.2682611344748693e-08, 9.303440684504949e-09, -2.365033857643084e-08, 1.6898403600862366e-06, -1.831498957471922e-05, 1.8849991789693377e-08, -3.162930079270154e-05, -1.7265151086576225e-08, 6.118169721958111e-07, -2.8734723489520775e-09, 1.632487212077649e-08, -1.1139023925466063e-08, -1.019855699269101e-05, -1.9048176909564063e-05, 2.427164247364999e-07, 1.4075263621293743e-08, 1.8296793413696832e-08, -1.3162062550975406e-08, 1.7969629340086613e-08, 2.2733633159077726e-05, -9.76157465970573e-09], [0.029725437983870506, 0.06677784770727158, 6.587255484191701e-05, 0.17140325903892517, 0.12400458008050919, 0.23197320103645325, -0.1535058170557022, -0.03119579330086708, -0.19854210317134857, 4.882595021626912e-06, -0.0006087972433306277, 0.00026872887974604964, 0.012705507688224316, 0.08347413688898087, -0.027877327054739, -0.15088073909282684, 0.045783571898937225, -0.01984676718711853, -0.146642804145813, -3.840408680844121e-05, -0.0001339590089628473, 0.16968916356563568, -0.09498320519924164, 0.14370903372764587, -6.873188249301165e-05, 0.029748935252428055, 5.3761974413646385e-05, -0.08524395525455475, 0.0002381537779001519, -0.00013671439955942333, 0.00018517232092563063, -0.10542872548103333, 0.028026817366480827, -0.002235952066257596, 2.242301889054943e-05, 4.49189028586261e-05, -5.205727939028293e-05, -6.0407171986298636e-05, -0.20278885960578918, -8.875511412043124e-05], [-1.111760411731666e-05, 1.563464138598647e-05, -2.3756834721666564e-08, 1.0312978702131659e-06, -1.0211562766926363e-05, -1.592007902218029e-05, 1.2908580174553208e-05, 6.181146545714e-07, 2.1199113689363003e-05, 2.8681359509619142e-08, 1.8948592028777966e-08, -5.363821831139148e-09, -9.458192835154478e-06, -7.677283065277152e-06, -1.9582107597670984e-06, -3.885359092237195e-06, 1.91785716197046e-06, -1.6311656736434088e-06, 3.389989160496043e-06, -1.9340349766139298e-08, -4.0944964752043234e-08, -1.5367935702670366e-05, 3.1540432701149257e-06, -1.137887556978967e-05, -2.7766764887360296e-08, -1.3183334885980003e-05, 2.545050747926325e-08, -3.0428623176703695e-06, 3.890670008388497e-09, -5.216875109681496e-08, 1.773370073010483e-08, 3.6535261642711703e-06, -8.475667527818587e-06, -4.6329866165706335e-08, -1.496758805785703e-08, -2.9889715591480126e-08, 1.841373453714823e-08, -2.5839087314238895e-08, 1.4686005670228042e-05, 6.8231509331440066e-09], [1.288415296585299e-05, -6.074357770557981e-06, 3.597803654997733e-08, 2.1380559701356106e-05, -1.7406488041160628e-05, -4.135956260142848e-06, 3.430655488045886e-05, 6.5231056396442e-06, 1.1052468835259788e-05, -3.998184539000249e-08, -5.83797632458527e-09, -1.366115132128698e-08, -1.4715174074808601e-05, -1.2740642887365539e-05, -8.851739949022885e-06, 2.2239839381654747e-05, -3.692857035275665e-06, 1.5695422916905954e-06, 2.4094293621601537e-05, 3.8540161284572605e-08, 2.4460646841362177e-08, -3.2376260605815332e-06, -7.903124696895247e-07, -2.5140556317637675e-05, 3.465958187121032e-08, -4.8866910219658166e-05, -2.9788521871410012e-08, 9.378960385220125e-06, -1.0924520843502705e-08, 4.568508416014083e-08, -2.5586450291825713e-08, 1.151560013568087e-06, -2.9908516808063723e-05, 4.931603712066135e-07, 3.984542829016391e-08, 3.824265704110985e-08, -2.428067880089202e-08, 3.899700118381588e-08, 3.454742909525521e-05, -1.3747080807036127e-08], [-6.237030902411789e-06, 1.4225325685401913e-05, 1.2024424123069366e-08, 1.0597481377772056e-05, -8.275262189272325e-06, -1.5415258530993015e-05, 1.588505256222561e-05, 2.1678949906345224e-06, 1.6074716768343933e-05, -1.2183447140046155e-08, -5.236640565620121e-10, -8.892744318700352e-09, -9.577857781550847e-06, -1.5605561202391982e-05, -1.113271173380781e-05, 8.91219315235503e-06, -8.621234428574098e-07, -8.5049470044396e-07, 1.712269840936642e-05, 1.5010746423627097e-08, 6.123457296780543e-09, -9.170270459435415e-06, 4.980557605449576e-06, -1.4393881428986788e-05, 1.326162735182379e-08, -2.6909510779660195e-05, -1.150508310843179e-08, -1.0202041949014529e-06, -6.924943729558208e-09, 1.0305609698946228e-08, -1.1000496513702274e-08, -6.936093996046111e-06, -1.771075949363876e-05, 1.21554109000499e-07, 1.1919695452888845e-08, 1.0333756961244944e-08, -7.292551451598683e-09, 1.5051027091317337e-08, 2.285403934365604e-05, -6.6465015713390585e-09], [0.0677606388926506, -0.023441627621650696, -0.0005533832008950412, -0.22277770936489105, 0.06709297746419907, -0.016671227291226387, 0.07360899448394775, 0.024990994483232498, 0.18046130239963531, 0.0005046684527769685, -1.0293440027453471e-05, 4.687574255513027e-05, -0.048115648329257965, 0.12738770246505737, 0.05045602470636368, -0.04348564147949219, -0.050706733018159866, -0.012920182198286057, -0.030696887522935867, -0.00037616060581058264, -0.00042233048588968813, -0.18014025688171387, 0.004127472639083862, -0.10260415077209473, -0.00044771170360036194, 0.08722274750471115, 0.0004879418120253831, -0.04084489494562149, 0.00013375628623180091, -0.0005357811460271478, 0.0003821596037596464, 0.22729921340942383, -0.04592643678188324, 0.0015695840120315552, -0.000301707157632336, -0.0005289633991196752, 0.00023775869340170175, -0.0003854988026432693, -0.08681000024080276, 0.00022098605404607952], [-0.004195808432996273, 0.05152697488665581, 8.074074139585719e-05, -0.8742925524711609, -0.17419086396694183, -0.023378437384963036, 0.0981297567486763, 0.002782541560009122, 0.5339798927307129, 3.2157138775801286e-05, 0.0005587887135334313, -0.000272007571766153, -0.0353354886174202, 0.16733962297439575, 0.08024083822965622, -0.8277407884597778, -0.12537825107574463, 0.0008675672579556704, -0.40490108728408813, 0.00014519994147121906, 0.00016137532657012343, -0.2655411958694458, -0.09749014675617218, 0.028185158967971802, 0.0002593640238046646, 0.08687270432710648, -0.00024722167290747166, 0.02420702762901783, -0.00030603641062043607, -0.00014581797586288303, -0.00010546000703470781, 0.3121398687362671, -0.027405748143792152, 6.455591937992722e-05, -0.0002069383772322908, 1.5652562069590203e-05, -8.397911005886272e-05, 0.00013364349433686584, 0.07666432112455368, -1.1249956514802761e-05], [0.00025641254615038633, -0.0008931165793910623, 1.0479991487954976e-06, -0.0010852862615138292, -9.069657244253904e-05, 9.93176072370261e-05, 0.00011941116099478677, 0.00025462298071943223, -0.00016303143638651818, -9.82575102170813e-07, -4.1393582250748295e-06, 3.5254033718956634e-06, -0.0002142211451428011, 0.0006706569110974669, -0.00021216229652054608, -8.376743789995089e-05, 0.00024774749181233346, 0.00029569739126600325, -0.0006155576556921005, 1.3575225921158562e-06, -2.7635968535832944e-07, -0.0004683627630583942, -0.0002896658843383193, 0.0008614060352556407, -1.9506769888266717e-07, 0.0003649171267170459, 3.43862240015369e-07, 0.0004462592478375882, 2.232281303804484e-06, 9.150974165095249e-07, 1.6383214642701205e-06, -0.00042063870932906866, 0.00019523649825714529, 1.3898257748223841e-05, 1.771130996530701e-06, 2.090085445161094e-06, -2.580646651040297e-06, 2.6320098100995892e-08, -0.0011454890482127666, 6.738257525285007e-07], [-9.68828589975601e-06, -1.0682420906960033e-05, 1.5315377854818735e-09, 4.805905064131366e-06, -8.241802788688801e-06, -1.5966934370226227e-05, -4.4757730393030215e-06, 2.4769838091742713e-06, -1.5415258530993015e-05, -6.953183362412574e-09, 4.3824329054587e-08, -1.859253906388858e-08, -1.3744704574492062e-07, -6.043205303285504e-06, -3.767715497815516e-06, 9.73602436715737e-06, 1.7011012459988706e-05, -2.370755737501895e-06, 5.071554369351361e-06, 5.997053520445661e-09, 2.030711776512817e-08, -3.940481292374898e-06, 5.012043857277604e-06, 1.7740736439009197e-05, 1.2605401167320451e-08, -7.390457085421076e-06, -1.1059855253847672e-08, -3.8046096051402856e-07, -2.6328617508397656e-08, 1.1545398415080399e-08, -1.2324516518447126e-08, -1.206521483254619e-05, -4.535638709057821e-06, 1.4604796660933062e-07, 5.827387905554815e-09, 1.7526433637726768e-09, -1.4189012187415528e-09, 1.9430340003623314e-08, -6.45909995000693e-06, 8.771237069993276e-09], [2.783587660815101e-06, 4.03709918828099e-06, 1.344943978409674e-08, 1.4129587725619785e-05, 5.326282916939817e-06, 2.9849770726286806e-06, 5.98884162172908e-06, 2.9956493108329596e-06, -6.565196144947549e-06, -1.4718828822424257e-08, 2.108243002396648e-08, -1.3779961172133426e-08, 1.1364700469584932e-07, -3.7423474168463144e-06, 3.662794824776938e-06, 1.0500111784494948e-05, -1.0372531278335373e-06, 1.8243659951622249e-06, 1.597822665644344e-05, 1.3214481953127688e-08, 1.161336982136163e-08, 1.0362220564275049e-05, 4.363018433650723e-06, -7.2219754656543955e-06, 2.3840808438535532e-08, -1.3967207451059949e-05, -1.7007716124339822e-08, 1.4703291526529938e-06, -2.5250830759659948e-08, 1.7199921487076608e-08, -1.7119166528800633e-08, 1.3443919044675567e-07, -9.98380892269779e-06, 3.6350124332784617e-07, 2.5687569404908572e-08, 1.7012974140584447e-08, -1.3810196541896858e-08, 3.192442221688907e-08, -4.357114448794164e-06, -3.1234008712743844e-09], [2.242273239971837e-06, -3.1467654935113387e-06, 5.0150479324884145e-09, 1.804281782824546e-05, 1.8607964875627658e-06, 8.319614607898984e-06, 2.8868419121863553e-06, 1.0843615427802433e-06, -1.030970088322647e-05, -6.0448797079004635e-09, 1.7870469548597612e-08, -1.1294523538651902e-08, 5.294287461765634e-07, -5.962377599644242e-06, 4.59080501968856e-06, 1.4553938854078297e-05, 1.0505690397621947e-06, 6.080583148104779e-07, 1.2303374205657747e-05, 4.344174353576591e-09, 5.771746192095861e-09, 9.83396421361249e-06, 1.919538817674038e-06, -3.3084761525969952e-06, 1.133167160105586e-08, -5.773894827143522e-06, -8.04732458448143e-09, 2.0838112391174946e-07, -1.586374942519342e-08, 7.803282464635686e-09, -9.990615446042739e-09, -2.5807244128372986e-06, -3.931332230422413e-06, 1.3496079986907716e-07, 1.3310299529223357e-08, 6.532286267457721e-09, -4.51782966592873e-09, 1.5377288775653142e-08, -7.839356044314627e-07, -9.100300513154025e-10], [-6.88167028783937e-06, 7.438540251314407e-06, -1.5786841278675467e-10, -5.648101250699256e-06, -4.751369488076307e-06, -1.6471900380565785e-05, 5.2098357627983205e-06, 1.5139477227421594e-06, 3.88689022656763e-06, -5.978489925340114e-10, 2.3070850119211173e-08, -7.45353911923985e-09, -4.927223017148208e-06, -5.2212872105883434e-06, -4.4323331849227543e-07, -1.8825713823389378e-06, 6.974227744649397e-06, -1.5209129742288496e-06, 3.840466888505034e-06, 4.037850498406215e-09, 1.3013941035922016e-09, -1.31945171233383e-05, 5.9207836784480605e-06, 2.79134087577404e-06, 5.596817231889872e-09, -1.9669874745886773e-05, -2.44202924548631e-09, -1.8254090718983207e-06, -1.3793887809754324e-08, -3.559004202458027e-09, -2.5836961459191343e-09, 1.0148190767722554e-06, -1.0557643690844998e-05, 7.170462623662388e-08, 1.2509512536951206e-08, -5.861978125132339e-10, -5.048452766942546e-09, 1.3837951229334067e-08, 2.24466270992707e-06, 5.441944228579132e-09], [-0.00366856437176466, 0.05005799978971481, 0.00029567815363407135, -0.5048946738243103, -0.1045902892947197, 0.0754469782114029, 0.2206019163131714, 0.04798811674118042, 0.12521807849407196, -0.0003800868580583483, -0.0005956407403573394, -0.00020010377920698375, 0.029435954988002777, 0.08548161387443542, -0.02366180531680584, -0.11056463420391083, -0.02019214630126953, 0.07080401480197906, -0.13264073431491852, 0.0003232110757380724, 0.00034600714570842683, -0.09827100485563278, 0.0024786200374364853, 0.09397146850824356, -2.0104527720832266e-05, 0.09129386395215988, -0.00025682602426968515, 0.07797547429800034, 0.0003034851106349379, 0.0001957677595783025, 7.089372957125306e-05, 0.1459140032529831, 0.050103362649679184, 0.0060288612730801105, -0.0004469419363886118, 0.00032472453312948346, 7.224234286695719e-05, -0.00037152893492020667, -0.0518510565161705, -0.00039557903073728085], [2.9881894079153426e-06, -1.6161286566784838e-06, 1.1274170930164473e-08, 8.795088433544151e-06, -1.6352026932509034e-06, -5.484465418703621e-06, 4.86937915411545e-06, 1.2236621387273772e-06, 2.4075857254501898e-06, -1.2383931213832966e-08, -1.5064054448288289e-09, -6.46224274092333e-09, -1.3154830185158062e-06, -7.88283705333015e-06, -3.7674151371902553e-06, 8.429776244156528e-06, -1.86913723609905e-06, -6.306953537205118e-07, 9.505223715677857e-06, 1.0837935882079819e-08, 1.133196381175594e-08, 8.476835660076176e-07, 2.6810016606759746e-07, -5.692147169611417e-06, 1.3446348923196183e-08, -9.430737918592058e-06, -1.1843217073703727e-08, 5.108206551085459e-07, -4.740580372697423e-09, 1.7428670062713536e-08, -1.0594755295301184e-08, -8.972589057520963e-06, -8.205084668588825e-06, 8.717978516870062e-08, 1.0076488088373026e-08, 1.131721560909682e-08, -5.6767923695133504e-09, 1.3576834767548007e-08, 7.819123311492149e-06, -6.6876353344014206e-09], [0.03885422646999359, -2.0064375400543213, -9.768664313014597e-05, 0.026107095181941986, 0.5210389494895935, -0.10850994288921356, 0.1904899924993515, 0.07666689157485962, 0.09396698325872421, -0.0001412317214999348, -0.00037990196142345667, 0.0002738054608926177, 0.11795517802238464, 0.0514935702085495, 0.165461927652359, 0.34974899888038635, -0.9337335824966431, -0.3983321785926819, -0.3179751932621002, 5.766751928604208e-05, -0.0001503762905485928, -0.1496777981519699, 0.23680533468723297, -0.07702292501926422, -0.00024276148178614676, -0.04329244792461395, 0.00016340974252671003, -0.0413208045065403, 0.0001087286727852188, -0.00011318846372887492, 2.766073157545179e-05, -0.06520894169807434, 0.07172971963882446, 0.015358627773821354, -0.00016555009642615914, 8.873018668964505e-05, 5.19414315931499e-05, -0.00016433170821983367, -0.14726462960243225, 0.00019044177315663546], [-0.014003044925630093, 0.720001757144928, -1.1862711289722938e-05, 0.055956702679395676, 1.4586572647094727, 0.0014240749878808856, -0.31230929493904114, -0.013686678372323513, 1.5852434635162354, 0.00013534097524825484, 0.000346996181178838, -0.00023921101819723845, 0.0005825510015711188, -0.03134537860751152, -0.01377145852893591, 0.24012966454029083, -1.4626963138580322, 0.086063914000988, -0.335263729095459, 7.391396502498537e-05, 0.00020201636652927846, 1.0863921642303467, 0.02550608664751053, 0.009384081698954105, 0.00015883073501754552, 0.09750467538833618, -8.576107939006761e-05, -0.16033315658569336, -0.00021694161114282906, 0.00015016502584330738, 6.971213588258252e-05, 0.057114433497190475, -0.20756183564662933, -0.009850658476352692, 0.00021006444876547903, -0.00015457243716809899, -5.1679100579349324e-05, 0.0001337093417532742, 0.3110572397708893, -0.00010557041969150305], [0.0004916865145787597, -3.149968688376248e-05, -1.6811192836030386e-05, 0.00029082753462716937, -0.00013120981748215854, -0.0002654512645676732, 7.14795314706862e-05, 7.878085307311267e-05, -0.00016464065993204713, 1.779269405233208e-05, -2.7237997528573032e-06, 2.822000851665507e-06, 0.0004920765641145408, 0.0003166237729601562, -0.0003736960352398455, 5.104265073896386e-05, 0.0004925677785649896, 5.109102130518295e-05, -7.882014324422926e-05, -1.694653656159062e-05, -1.5294579498004168e-05, 9.489063813816756e-05, -3.7425972550408915e-05, -0.0002020856918534264, -2.4396853405050933e-05, -0.0003704223781824112, 2.1285439288476482e-05, 0.0003971027908846736, 1.3258296348794829e-05, -1.795134630810935e-05, 1.065822652890347e-05, 5.6126802519429475e-05, 3.302798359072767e-05, 2.3648432033951394e-05, -1.3750691323366482e-05, -1.776901444827672e-05, 1.4722708328918088e-05, -2.6970559702022e-05, 2.742283697898529e-07, 3.7010286177974194e-06], [-0.0069792005233466625, 0.077235147356987, 0.00023243407486006618, 0.2939319908618927, 0.011478343978524208, -0.13202105462551117, 0.06468448787927628, 0.0015482212183997035, -0.1799803227186203, -0.0002036424702964723, -0.00011315898882457986, -0.00018950135563500226, -0.03138875961303711, 0.07381056994199753, -0.07031025737524033, 0.10820411890745163, -0.04813709482550621, -0.0023983134888112545, 0.09784635901451111, -0.00015774853818584234, 2.514138577680569e-05, 0.2621572017669678, 0.025089556351304054, 0.02448863908648491, 4.5702170609729365e-05, 0.008316399529576302, -0.00011521903797984123, 0.057627443224191666, 0.00027111172676086426, 2.9856972105335444e-05, -2.016510916291736e-05, -0.01633542589843273, -0.12179514020681381, 0.0016284860903397202, -3.823399674729444e-05, 0.00013432440755423158, 0.0003173734585288912, -9.735671483213082e-05, 0.13810808956623077, -0.0004947660490870476], [-0.01541679073125124, -0.17672762274742126, -0.00018784163694363087, 0.05220829322934151, -0.020215004682540894, 0.09732194989919662, -0.15719668567180634, -0.02817300520837307, 0.5263885855674744, 0.0002643558254931122, 0.00012814388901460916, 0.00027264704112894833, 0.03048637881875038, -0.03537733852863312, -0.000756765715777874, -0.0378989614546299, 0.9853018522262573, -0.3844531774520874, 0.0963810533285141, -0.00032064190600067377, -0.00010378722072346136, 0.4548493027687073, -0.1556953340768814, -0.02210807614028454, -0.00018961180467158556, 0.0646502822637558, 0.0002555525570642203, -1.2152860164642334, 1.2184355909994338e-05, 0.00011748672113753855, -0.00013486119860317558, -0.005402288865298033, -0.1837874799966812, -0.0016412698896601796, 2.890670657507144e-05, -0.0001538958167657256, 3.2419266062788665e-05, -0.0001641743438085541, -0.17534257471561432, 0.000350271089700982], [-0.08579577505588531, -0.12106956541538239, -0.0008567132172174752, 0.05265512317419052, -0.1260054111480713, 0.2444813996553421, -0.06762085855007172, -0.008774212561547756, 0.030203916132450104, 0.00022578828793484718, -8.61725420691073e-05, 0.00021574532729573548, -0.04799233004450798, 0.045502737164497375, 0.0616862028837204, -0.0864802673459053, 0.11507158726453781, 0.10734310001134872, 0.0906175747513771, -0.0004688138433266431, 0.0002835112973116338, 0.12223521620035172, -0.10888340324163437, -0.103021539747715, -0.0005724147194996476, 0.008112620562314987, 0.0005447000730782747, 0.03710649535059929, -4.8388967115897685e-05, 0.0004000941989943385, 1.1971095773333218e-05, 0.16253222525119781, -0.09340938925743103, -0.0011987547622993588, -0.0005877504590898752, -0.00028029122040607035, 0.0002826350973919034, -0.000659133424051106, 0.04298805072903633, 0.0005092085339128971], [0.012787876650691032, 0.007056426256895065, -2.7213694920646958e-05, -0.03144204616546631, 0.1489298790693283, -0.000557050749193877, 0.17967434227466583, -0.04577168822288513, -0.13278073072433472, 0.00011499768152134493, -0.00016536020848434418, 9.813334327191114e-05, -0.015409343875944614, 0.014883510768413544, 0.006122775841504335, 0.010572552680969238, -0.03343827649950981, 0.046083152294158936, 0.0030506374314427376, -4.5249144022818655e-05, -0.0001676655956543982, 0.04891924932599068, 0.057465385645627975, -0.03204955905675888, -0.00028092507272958755, 0.0011492706835269928, 0.00014362118963617831, 0.3306177258491516, 0.00038637834950350225, -0.00020241516176611185, 0.00026702324976213276, -0.015949014574289322, -0.009870108217000961, -0.007439451292157173, -0.0002927729510702193, -0.00017530920740682632, 0.0001939912763191387, -0.0004221390117891133, 0.15761424601078033, -4.8622336180415004e-05], [-0.002687338273972273, -0.020185280591249466, 0.00030532001983374357, -0.006930885370820761, -0.07419027388095856, 0.016528137028217316, 0.09063415229320526, 0.0778154656291008, 0.02528950944542885, -0.00014322790957521647, -0.0003801818529609591, -0.00010317905980627984, -0.022585047408938408, 0.02872663550078869, -0.012483633123338223, -0.05869678407907486, -0.01816187985241413, 0.0651543065905571, 0.10978857427835464, 0.00022637653455603868, 0.0005669182864949107, -0.005583168473094702, -0.002319917781278491, 0.01651381328701973, 0.00021415493392851204, 0.01159155834466219, -0.00016814902483019978, 0.15210364758968353, 3.151480996166356e-05, 0.0005012426408939064, -0.00033381892717443407, -0.05492110922932625, -0.07018183171749115, 0.007951952517032623, 0.00020424868853297085, 0.00013373687397688627, -0.0001923534000525251, 0.00013225004659034312, -0.05412867292761803, -0.0002379965881118551], [0.0005039654788561165, -0.02478276751935482, 0.0002629596565384418, -0.24427026510238647, -0.4061715602874756, 0.03503664582967758, 0.30049818754196167, 0.09227004647254944, 0.1405845284461975, -0.0003353458014316857, -0.0007768946816213429, -2.4477369152009487e-05, -0.041702765971422195, -0.0765174850821495, -0.06815685331821442, 0.10123035311698914, 0.22813472151756287, -0.2696911096572876, -0.06974036246538162, 0.0002451066975481808, 0.00040592020377516747, 0.2579469680786133, -0.20694874227046967, -0.09700366854667664, -9.577217133482918e-05, -0.02288016490638256, 7.248657493619248e-05, -1.5130494832992554, 0.00044368216185830534, 0.00040278802043758333, 8.995710959425196e-05, 0.10559020191431046, -0.20783798396587372, 0.008234355598688126, 0.00016446021618321538, 0.00028219318483024836, -0.00017770877457223833, -6.514773122034967e-05, -0.19214914739131927, -0.00018750679737422615], [-0.000366738298907876, 6.816550012445077e-05, 1.97853114514146e-05, -0.00020462377869989723, -7.659433322260156e-05, 0.00022325811733026057, -0.00029077150975354016, -0.00011095985246356577, 0.0002981029392685741, -2.3089396563591436e-05, 5.852933099959046e-06, 1.3489179764292203e-06, -0.0003518521261867136, -0.00026787121896632016, 0.0004906436079181731, -0.00017294105782639235, -0.0005038934177719057, 8.556839020457119e-05, 0.0001176590085378848, 1.8473738236934878e-05, 2.491530540282838e-05, -8.689203241374344e-05, 0.00012346173753030598, 0.000332239200361073, 2.5924078727257438e-05, 0.0002035652141785249, -2.0200726794428192e-05, -0.0002465827274136245, -1.864704245235771e-05, 3.013812965946272e-05, -1.6152200259966776e-05, 0.00019507274555508047, 0.00015384350263047963, 6.03766829954111e-06, 1.9610246454249136e-05, 2.3047432478051633e-05, -1.7308319002040662e-05, 3.34268479491584e-05, -0.00027385560679249465, 1.5130957535802736e-06], [-0.00013153413601685315, 0.000524885777849704, 2.9124959837645292e-05, 4.287080082576722e-05, 0.00034699056413955986, -8.518581307725981e-05, -0.0011164015159010887, 6.420182762667537e-05, -5.766335016232915e-05, -3.077669316553511e-05, -4.1972598410211504e-05, 8.231479114328977e-06, 0.0005174618563614786, -0.0006301739485934377, 0.0012468124041333795, -0.0001291689113713801, 0.0013215338112786412, 0.0006676407647319138, 0.0002184459299314767, 2.8841523089795373e-05, 7.069577259244397e-05, -3.225101318093948e-05, 0.00033442993299104273, 0.00048044227878563106, 6.952315015951172e-05, -4.916367834084667e-05, -5.3121813834877685e-05, 0.0002314428857062012, -4.171232649241574e-05, 9.457462147111073e-05, -3.518303492455743e-05, -0.0003456242848187685, -0.000355180207407102, 2.1877642666368047e-06, 5.470386167871766e-05, 4.822700429940596e-05, -5.0731829105643556e-05, 7.723401358816773e-05, -0.0007127652643248439, -9.524165761831682e-06], [-0.00023642064479645342, -0.00044005661038681865, -6.248229510674719e-06, -0.00022418881417252123, 9.231436706613749e-05, 0.00012321086251176894, 0.0006812974461354315, 0.0002536832762416452, 8.510077896062285e-05, -6.5311060097883455e-06, 1.3502637557394337e-05, -2.8378728529787622e-05, -0.0005179870640859008, 0.000370568799553439, -0.00029097881633788347, -0.00019786041229963303, -0.0007482258370146155, -0.0003565607767086476, -0.00018778498633764684, 1.0108769856742583e-05, -1.4092246601649094e-05, 0.00015450071077793837, -0.0004470992134884, 7.382412877632305e-05, -1.6581168893026188e-05, -0.0008135820389725268, 1.0860321708605625e-05, -8.035521022975445e-05, 8.752990652283188e-06, -1.3596719327324536e-05, -5.535294803848956e-06, 7.719635323155671e-05, 6.85710838297382e-05, 3.627624755608849e-05, -1.1026926586055197e-05, -1.2940649867232423e-05, 1.793601222743746e-05, -1.9358332792762667e-05, 0.00033283064840361476, -1.4595536868000636e-06], [-0.40972962975502014, -0.2090546190738678, -8.980507118394598e-05, -0.009039824828505516, 0.031174011528491974, 0.1299477070569992, 0.029971379786729813, 0.011938597075641155, -0.03999482840299606, 4.26495898864232e-05, 0.0003217209305148572, -0.00015357793017756194, 0.2891378700733185, -0.16164502501487732, -0.18766207993030548, -0.14534828066825867, 0.0014744055224582553, 0.03517775610089302, 0.12663660943508148, 3.665511394501664e-05, 0.00022705209266860038, -0.0035225683823227882, 0.3358193635940552, -0.0001319306466029957, 8.747270476305857e-05, -0.028241153806447983, -0.00013972847955301404, 0.13638168573379517, -0.00019165452977176756, -7.564918632851914e-05, -6.335058424156159e-05, 0.0473543182015419, -0.015468468889594078, 0.0006361627602018416, -0.00032744926284067333, -0.00012944894842803478, 6.15086973994039e-05, -3.992658093920909e-06, -0.033366989344358444, 2.5418090444873087e-05], [0.013469760306179523, 0.05233302712440491, -0.0004476228205021471, -0.2211763560771942, -0.030073102563619614, 0.29507699608802795, 0.009812832809984684, 0.011377033777534962, -0.07576566189527512, 0.0005902435514144599, -0.0005028928280808032, -1.4687188013340347e-05, 0.04351521283388138, 0.20292015373706818, -0.155211940407753, 0.029130756855010986, -0.05099204555153847, 0.008485238067805767, -0.02934160828590393, -0.00034904968924820423, -0.0004421129124239087, 0.15942102670669556, 0.08415357023477554, -0.14734020829200745, -0.00082773546455428, 0.011804825626313686, 0.0003826643223874271, -0.016682667657732964, 0.00036326178815215826, -0.000636029290035367, 0.00014735455624759197, -0.09519831836223602, 0.01858268491923809, 0.001174276228994131, -0.0016899732872843742, -0.0005861772806383669, 0.0007142770336940885, -0.0014842598466202617, -0.20418289303779602, -1.3644257705891505e-05], [-0.12559477984905243, -0.20455992221832275, 9.766091534402221e-05, -0.14808644354343414, 0.02826693281531334, 0.16795170307159424, 0.011764579452574253, -0.009844424203038216, 0.022061970084905624, -0.00025841090246103704, 0.00023913902987260371, -7.904491940280423e-05, 0.16316284239292145, -0.3075014352798462, 0.3635779619216919, -0.12095385789871216, 0.10793173313140869, 0.10476305335760117, 0.1109001487493515, 0.0003651031292974949, 0.0006347501766867936, 0.01002388447523117, 0.37602952122688293, 0.010269592516124249, 7.133493636501953e-05, -0.02003965526819229, -0.00022289995104074478, 0.015729332342743874, -0.00014309101970866323, 0.00013288870104588568, -8.609081123722717e-05, 0.05637180432677269, 0.03442985191941261, -0.0033086403273046017, -0.0004093320749234408, -3.078608278883621e-05, -6.119158933870494e-05, -7.810655370121822e-05, -0.027691533789038658, 0.0001564233098179102], [-0.2594640254974365, -0.7331691384315491, 6.372059488057857e-06, 0.20569221675395966, -0.15087644755840302, -0.040557265281677246, 0.07258585840463638, 0.007858927361667156, -0.3568546772003174, 3.726253271452151e-05, 0.0002424583799438551, 0.00011595217074500397, 0.1068560928106308, 0.04538119584321976, -0.026958439499139786, -0.1537393480539322, 0.31063708662986755, -0.12421653419733047, 0.13912028074264526, 3.4064327337546274e-05, 0.00045787476119585335, -0.3644413948059082, 0.015963347628712654, 0.029558880254626274, 